-1.888560801744461060e-01,2.908864431083202362e-02,-8.347553759813308716e-02,5.520229041576385498e-02,-8.209127932786941528e-02,-5.379299167543649673e-03,-5.512169003486633301e-02,-1.829811558127403259e-02,1.766146868467330933e-01,7.735298573970794678e-02,1.633754521608352661e-01,4.817440733313560486e-02,-1.509659737348556519e-01,-1.516157090663909912e-01,-7.606854289770126343e-02,3.229675814509391785e-02,-9.974817931652069092e-02,1.587598323822021484e-01,-6.817332655191421509e-02,1.331696510314941406e-01,-7.705352455377578735e-02,-8.095946162939071655e-02,3.848965838551521301e-02,-6.158951669931411743e-03,-1.511650234460830688e-01,9.961489588022232056e-02,-2.295143753290176392e-01,1.158588975667953491e-01,1.457353532314300537e-01,-9.234768152236938477e-02,2.688074298202991486e-02,-6.803052127361297607e-02,5.740448832511901855e-02,-1.673498749732971191e-01,-1.046282947063446045e-01,1.772188842296600342e-01,6.967632472515106201e-02,1.845346987247467041e-01,-1.088850125670433044e-01,1.213501542806625366e-01,-5.694224499166011810e-03,1.133356709033250809e-02,-1.130430921912193298e-01,-7.592463493347167969e-02,-1.081224530935287476e-01,-1.168962046504020691e-01,-1.454787701368331909e-01,-3.257381916046142578e-02,-2.074086368083953857e-01,-1.233693659305572510e-01,-1.475606411695480347e-01,7.159616332501173019e-03,-6.500768661499023438e-02,1.567345559597015381e-01,9.761609137058258057e-02,1.999226659536361694e-01,-1.489181071519851685e-01,5.588819459080696106e-02,-1.231934353709220886e-01,-1.115928515791893005e-01,-1.287833154201507568e-01,8.636108785867691040e-02,1.415722370147705078e-01,-2.365097403526306152e-03,9.849651157855987549e-02,-9.214330464601516724e-02,-1.615864336490631104e-01,4.084715992212295532e-02,-1.324782222509384155e-01,-3.721533715724945068e-02,-1.730934977531433105e-01,-6.243519484996795654e-02,-3.995524020865559578e-04,-1.832634210586547852e-02,-1.814079582691192627e-01,1.393711715936660767e-01,8.385918289422988892e-02,6.594926118850708008e-02,-6.006486341357231140e-02,7.405577600002288818e-02,1.450604349374771118e-01,-1.327683180570602417e-01,-6.682882457971572876e-02,1.100770235061645508e-01,-2.943086810410022736e-02,-1.530719250440597534e-01,7.318215072154998779e-02,4.333006963133811951e-02,4.446915164589881897e-02,9.427098557353019714e-03,1.755531877279281616e-01,-1.025088280439376831e-01,1.378099806606769562e-02,-1.402252912521362305e-01,1.010084524750709534e-01,-1.657562889158725739e-02,-9.494230151176452637e-02,-8.798978477716445923e-02,9.820164740085601807e-02,-1.776429265737533569e-01,1.543615460395812988e-01,-1.711568981409072876e-01,-3.874986618757247925e-02,-5.079725012183189392e-02,-1.651602983474731445e-01,-8.913530409336090088e-02,-4.345494322478771210e-03,3.945484349969774485e-04,1.751088537275791168e-02,1.553978621959686279e-01,1.267465669661760330e-02,1.279710382223129272e-01,1.312649399042129517e-01,1.135581880807876587e-01,4.368980228900909424e-02,1.859052777290344238e-01,8.275131881237030029e-02,-7.788121700286865234e-02,1.019465848803520203e-01,-1.817452348768711090e-02,1.914787143468856812e-01,-9.528985829092562199e-04,-1.374571025371551514e-01,1.006941795349121094e-01,-8.477371186017990112e-02,-9.026258438825607300e-02,-1.314185373485088348e-02,2.332856878638267517e-02
1.707188226282596588e-02,2.276338078081607819e-02,-1.237704083323478699e-01,-2.628601621836423874e-03,6.749772280454635620e-02,-1.547379642724990845e-01,1.785481572151184082e-01,-1.859237253665924072e-02,-1.457414329051971436e-01,1.422225590795278549e-02,1.166409626603126526e-01,1.740901470184326172e-01,1.898774504661560059e-01,6.433891505002975464e-02,1.114718392491340637e-01,-4.355100914835929871e-02,1.828361302614212036e-01,1.618488579988479614e-01,2.469976618885993958e-02,-6.467021256685256958e-02,-2.347875535488128662e-01,-1.871936917304992676e-01,1.510537266731262207e-01,1.129482313990592957e-01,1.117237880825996399e-01,-1.128597557544708252e-02,-3.388091921806335449e-02,-6.999885290861129761e-02,-1.705132424831390381e-01,8.823526650667190552e-02,-8.651074022054672241e-02,7.323996722698211670e-02,-1.374620199203491211e-01,2.120759338140487671e-02,8.712550252676010132e-02,1.889747977256774902e-01,5.535167176276445389e-03,3.086914122104644775e-02,8.469129353761672974e-02,5.675510689616203308e-02,-1.673810929059982300e-01,4.946921765804290771e-02,3.991958126425743103e-02,-1.842537336051464081e-02,1.125177517533302307e-01,1.897795647382736206e-01,1.406480222940444946e-01,2.021988183259963989e-01,1.116322632879018784e-02,1.280038803815841675e-01,1.012913584709167480e-01,-2.399294227361679077e-01,1.055177450180053711e-01,-1.546381711959838867e-01,-1.341801434755325317e-01,-4.076930880546569824e-02,-1.598987132310867310e-01,-1.305233985185623169e-01,6.144859269261360168e-02,-5.092422291636466980e-02,-5.804427433758974075e-03,-1.630624830722808838e-01,1.462797373533248901e-01,-7.262524962425231934e-02,1.301837526261806488e-02,-9.539216011762619019e-02,3.729443252086639404e-02,-1.814474761486053467e-01,-4.440981894731521606e-02,1.574427634477615356e-01,-8.796215988695621490e-03,1.404676884412765503e-01,1.228899657726287842e-01,-1.831976324319839478e-01,2.510135173797607422e-01,-3.188138827681541443e-02,-2.082128822803497314e-01,1.319521665573120117e-01,1.387092024087905884e-01,-8.477367460727691650e-02,2.191426753997802734e-01,-1.384962797164916992e-01,-5.868989974260330200e-02,-1.661169528961181641e-01,1.365836709737777710e-01,2.439135015010833740e-01,-5.563360825181007385e-02,1.278614699840545654e-01,-2.552500963211059570e-01,-9.460000693798065186e-02,-1.519743204116821289e-01,1.498174667358398438e-01,4.998839274048805237e-02,1.477531641721725464e-01,-1.049668490886688232e-01,-2.337381094694137573e-01,-2.527936734259128571e-02,-7.470123004168272018e-03,1.251941770315170288e-01,-1.019239723682403564e-01,2.767551317811012268e-02,1.091022640466690063e-01,-1.588963419198989868e-01,-1.331024616956710815e-01,-3.560227574780583382e-03,-1.293430477380752563e-01,1.923465430736541748e-01,1.674558501690626144e-03,-1.654198206961154938e-02,9.194073081016540527e-02,1.342816650867462158e-01,9.603993594646453857e-02,1.954623460769653320e-01,2.406999319791793823e-01,-4.066179506480693817e-03,-4.661830142140388489e-03,1.187273934483528137e-01,-1.278031170368194580e-01,6.473140418529510498e-02,-2.471222309395670891e-03,-3.868126869201660156e-02,6.388498842716217041e-02,2.986097708344459534e-02,-1.836617439985275269e-01,1.399393659085035324e-02,-1.696393936872482300e-01,-1.277442425489425659e-01,-2.053812444210052490e-01
-1.475875824689865112e-01,-1.031253561377525330e-01,9.630355983972549438e-02,-7.122901082038879395e-02,-2.006845921277999878e-01,1.353101134300231934e-01,-3.575116395950317383e-02,1.049957703799009323e-02,-8.281572163105010986e-02,-1.287772040814161301e-02,-7.438929378986358643e-02,1.485579758882522583e-01,-1.172925233840942383e-01,1.573843955993652344e-01,-1.552877575159072876e-02,-1.671139001846313477e-01,-7.260362058877944946e-02,3.245928138494491577e-02,1.816810807213187218e-03,-1.307357549667358398e-01,-1.624452024698257446e-01,1.274191439151763916e-01,-1.307945400476455688e-01,-1.469330191612243652e-01,9.429641067981719971e-03,1.978784948587417603e-01,-1.856678277254104614e-01,-4.168356582522392273e-02,5.741580948233604431e-02,-2.152411341667175293e-01,-8.320705592632293701e-02,1.926642954349517822e-01,-2.120885848999023438e-01,-2.309073135256767273e-02,2.099510580301284790e-01,-1.023686900734901428e-01,6.575789302587509155e-02,-6.546366959810256958e-02,2.281316742300987244e-02,-1.580387651920318604e-01,1.234203111380338669e-02,1.075821071863174438e-01,6.032713130116462708e-02,-1.965259313583374023e-01,1.206765547394752502e-01,-1.590182483196258545e-01,-1.956984400749206543e-01,-2.020315527915954590e-01,1.443203389644622803e-01,7.516711950302124023e-02,-1.414116770029067993e-01,2.011026069521903992e-02,1.187026649713516235e-01,4.511602967977523804e-02,-7.334354519844055176e-02,-1.826862841844558716e-01,-1.736486144363880157e-02,7.801914215087890625e-02,-7.529800385236740112e-02,-7.229726016521453857e-02,1.481812298297882080e-01,-1.383190900087356567e-01,1.078430414199829102e-01,6.763217598199844360e-02,-1.216945499181747437e-01,-1.648176610469818115e-01,1.150652468204498291e-01,1.390864402055740356e-01,8.471622318029403687e-02,1.024277955293655396e-01,1.213734745979309082e-01,-1.470243334770202637e-01,1.312690973281860352e-01,-1.555449515581130981e-01,-1.176248788833618164e-01,2.213023602962493896e-01,9.062433615326881409e-03,1.755110472440719604e-01,-3.030352666974067688e-02,-2.523011993616819382e-03,-7.001959718763828278e-03,-1.074716523289680481e-01,-1.391428560018539429e-01,5.699557252228260040e-03,-1.780330203473567963e-02,5.221885070204734802e-02,1.168151199817657471e-01,1.158055365085601807e-01,-1.631698310375213623e-01,-8.848325163125991821e-02,7.280004024505615234e-02,-8.828952908515930176e-02,1.586764007806777954e-01,-2.282852083444595337e-01,-1.749845296144485474e-01,-7.531203329563140869e-02,1.458105891942977905e-01,-1.570946574211120605e-01,-6.767628341913223267e-02,1.400249302387237549e-01,-1.632775813341140747e-01,-1.706615835428237915e-01,1.567159891128540039e-01,4.862400889396667480e-02,1.880453377962112427e-01,1.242400407791137695e-01,1.085474491119384766e-01,-1.989991068840026855e-01,-3.599459305405616760e-02,-7.245810236781835556e-03,1.274053454399108887e-01,-8.722124248743057251e-02,6.496465951204299927e-02,1.343901008367538452e-01,2.289868295192718506e-01,1.064561903476715088e-01,-1.567909866571426392e-01,-1.930473744869232178e-01,-3.820296004414558411e-02,1.898918300867080688e-02,-2.210247330367565155e-04,-1.268674731254577637e-01,-3.464613109827041626e-02,-1.904616951942443848e-01,-1.303557753562927246e-01,2.329330593347549438e-01,-1.360084414482116699e-01,-1.446541994810104370e-01
-4.337770119309425354e-02,-1.144064590334892273e-01,1.521490067243576050e-01,2.977137686684727669e-03,1.321584433317184448e-01,1.637117266654968262e-01,4.085538163781166077e-02,9.184487164020538330e-03,-1.380335390567779541e-01,1.587647795677185059e-01,6.158526986837387085e-02,-4.930195584893226624e-02,-5.248207971453666687e-02,-7.494262605905532837e-02,5.023843795061111450e-02,2.474213391542434692e-02,1.416684240102767944e-01,-7.765368372201919556e-02,-4.831129685044288635e-02,1.119352579116821289e-01,-1.984834903851151466e-03,2.015965059399604797e-02,1.099846810102462769e-01,-7.510875351727008820e-03,-1.532278656959533691e-01,1.736400090157985687e-02,-2.049892693758010864e-01,-1.142007205635309219e-02,1.634984649717807770e-02,-2.689799480140209198e-02,9.476107358932495117e-02,-2.006758600473403931e-01,-1.129697039723396301e-01,3.550482913851737976e-02,-9.135574847459793091e-02,8.350207656621932983e-02,-5.130850151181221008e-02,-6.083159521222114563e-02,-1.350734382867813110e-01,2.803117409348487854e-02,-1.194822266697883606e-01,-1.249766424298286438e-01,1.459971368312835693e-01,-1.360584348440170288e-01,1.116839423775672913e-01,9.921267628669738770e-02,-1.422849893569946289e-01,1.205139607191085815e-01,-3.728611022233963013e-02,1.888656057417392731e-02,-2.938309311866760254e-02,-3.262514248490333557e-02,3.804436326026916504e-02,5.377835780382156372e-02,4.040455818176269531e-02,1.915199458599090576e-01,-3.970776498317718506e-02,4.388041794300079346e-02,-4.501013085246086121e-02,-1.183388829231262207e-01,-1.239454150199890137e-01,-7.096108794212341309e-02,-5.006294324994087219e-02,-4.579502716660499573e-02,1.480215191841125488e-01,-1.615382134914398193e-01,1.027976721525192261e-01,-5.914866551756858826e-02,9.093146026134490967e-02,2.594547346234321594e-02,1.400792747735977173e-01,-8.234834671020507812e-02,-5.638496577739715576e-02,9.068806469440460205e-02,6.404620409011840820e-02,7.031570374965667725e-02,2.167361043393611908e-02,-3.457644581794738770e-02,5.857200920581817627e-02,2.019155025482177734e-02,1.665444225072860718e-01,-6.668926030397415161e-02,1.152831837534904480e-01,3.160448372364044189e-02,1.328284144401550293e-01,4.413534328341484070e-02,-1.727914065122604370e-01,-6.446140259504318237e-02,-1.164545416831970215e-01,-1.518905311822891235e-01,-9.246467053890228271e-02,-1.378532052040100098e-01,-1.940180361270904541e-01,-6.205252557992935181e-02,-9.223558753728866577e-02,-1.043502464890480042e-01,4.075025022029876709e-02,3.916678950190544128e-02,-7.716312259435653687e-02,-1.489774044603109360e-02,-2.332130074501037598e-02,-1.063998565077781677e-01,1.054604798555374146e-01,1.052872240543365479e-01,-5.384438112378120422e-02,-1.068530827760696411e-01,1.662659198045730591e-01,-1.730951666831970215e-01,2.143147140741348267e-01,1.025357916951179504e-01,-1.074551269412040710e-01,-1.634982377290725708e-01,1.222417950630187988e-01,-7.937819510698318481e-02,2.096224576234817505e-02,-9.894686192274093628e-02,8.835082501173019409e-02,-1.619767993688583374e-01,7.880343124270439148e-03,-1.678795516490936279e-01,8.913053572177886963e-02,-2.607190981507301331e-02,-1.493626683950424194e-01,-1.019765362143516541e-01,-3.203151002526283264e-02,-1.477701216936111450e-01,-1.405267119407653809e-01,-1.541822701692581177e-01
1.289754658937454224e-01,-1.401137411594390869e-01,3.394119441509246826e-02,-9.166691452264785767e-02,-1.043277904391288757e-01,-1.846367567777633667e-01,-6.438875943422317505e-02,7.450133562088012695e-02,-1.261036098003387451e-01,7.368858158588409424e-02,6.168318912386894226e-02,4.248101264238357544e-02,1.737315505743026733e-01,-1.575954258441925049e-01,-3.219633921980857849e-02,1.804148405790328979e-01,-1.031375490128993988e-02,-2.526187710464000702e-02,1.780690103769302368e-01,-6.021676212549209595e-02,6.080449372529983521e-02,-1.984436959028244019e-01,-2.766761370003223419e-02,-9.272323921322822571e-03,-9.089747071266174316e-02,-1.084043309092521667e-01,1.430156379938125610e-01,-2.337071895599365234e-01,-2.320194393396377563e-01,-7.919204980134963989e-02,-2.628747522830963135e-01,-1.033928468823432922e-01,2.113385796546936035e-01,-1.676408648490905762e-01,1.725980341434478760e-01,1.301981508731842041e-01,5.666341632604598999e-02,6.205139681696891785e-02,-3.153910636901855469e-01,1.279416233301162720e-01,-1.325298249721527100e-01,1.625505536794662476e-01,4.416699334979057312e-02,2.603276371955871582e-01,-1.100894138216972351e-01,1.881375908851623535e-01,2.278308421373367310e-01,3.071689307689666748e-01,-8.991140872240066528e-02,1.666246652603149414e-01,2.627575993537902832e-01,-2.785393297672271729e-01,-4.426076635718345642e-02,1.018345952033996582e-01,6.842491216957569122e-03,-1.691647171974182129e-01,9.973452240228652954e-02,-2.042912393808364868e-01,5.805636569857597351e-02,-1.435571014881134033e-01,9.356788545846939087e-02,-4.790547490119934082e-02,1.684230566024780273e-01,-1.689797788858413696e-01,-9.458199888467788696e-02,-1.120778173208236694e-01,-1.031558886170387268e-01,-5.886757001280784607e-02,-1.641296297311782837e-01,3.539874451234936714e-03,-1.310351639986038208e-01,-2.230845391750335693e-02,1.268545389175415039e-01,1.998911052942276001e-01,2.012913078069686890e-01,9.293799102306365967e-02,-1.537467539310455322e-01,-4.258922114968299866e-02,4.938472062349319458e-03,-6.232535094022750854e-02,1.080349460244178772e-01,-8.317610248923301697e-03,6.897350400686264038e-02,-7.449831068515777588e-02,1.537104547023773193e-01,1.552726179361343384e-01,6.958016753196716309e-02,3.381945565342903137e-02,-1.309117376804351807e-01,-6.274861842393875122e-02,-1.876679062843322754e-01,9.163113683462142944e-02,-5.825796723365783691e-02,-2.097412012517452240e-02,5.542634055018424988e-02,-3.932033851742744446e-02,1.685261428356170654e-01,-1.187304928898811340e-01,1.246269419789314270e-01,4.299261420965194702e-02,-6.514938920736312866e-02,-3.114026598632335663e-02,8.185581862926483154e-02,5.272318795323371887e-02,1.675217300653457642e-01,1.038979738950729370e-03,1.547906100749969482e-01,2.135578840970993042e-01,-2.734290622174739838e-02,4.343661293387413025e-02,8.777085691690444946e-02,-1.135667786002159119e-01,-1.366713345050811768e-01,1.522641628980636597e-01,-7.155123166739940643e-03,8.484767377376556396e-02,1.723690778017044067e-01,9.181030094623565674e-02,1.311640739440917969e-01,7.409833371639251709e-02,1.643187850713729858e-01,6.120679434388875961e-03,7.323768734931945801e-02,-2.157764881849288940e-02,-1.138974353671073914e-01,-7.482068985700607300e-02,8.908377587795257568e-02,-7.741748541593551636e-02
1.157944556325674057e-02,-5.508801341056823730e-02,1.587053239345550537e-01,-2.793516777455806732e-02,6.490236520767211914e-02,-8.259370923042297363e-02,-3.389165969565510750e-03,8.435215055942535400e-02,1.311135441064834595e-01,-1.058517396450042725e-02,9.024374186992645264e-02,-1.613420993089675903e-01,-7.595103979110717773e-02,7.312320917844772339e-02,1.514776051044464111e-01,-3.589347004890441895e-02,1.003926098346710205e-01,1.284323930740356445e-01,8.268156647682189941e-02,-1.371253430843353271e-01,-1.782167106866836548e-01,5.619308445602655411e-03,-7.573065906763076782e-02,-2.350126020610332489e-02,1.468687951564788818e-01,-9.710819274187088013e-02,-1.508688554167747498e-02,-1.483138054609298706e-01,8.853422850370407104e-02,7.332577556371688843e-02,-1.158860474824905396e-01,1.459192335605621338e-01,-6.590201705694198608e-02,9.382923692464828491e-02,1.454134732484817505e-01,-1.021603941917419434e-01,8.602760732173919678e-02,-8.513476699590682983e-02,8.741080760955810547e-02,-1.084224879741668701e-01,1.177876070141792297e-01,-5.869715660810470581e-02,-1.232780329883098602e-02,-1.554307043552398682e-01,-6.825772672891616821e-02,4.586808383464813232e-02,1.556058973073959351e-01,-7.618564367294311523e-02,6.674574688076972961e-04,-1.848439723253250122e-01,-7.136736065149307251e-02,2.823525806888937950e-03,9.489810466766357422e-02,-1.972496807575225830e-01,2.085451781749725342e-01,-1.060049422085285187e-02,6.574816256761550903e-02,5.999051779508590698e-02,-1.734984219074249268e-01,-1.823089122772216797e-01,2.825562283396720886e-02,6.686001271009445190e-02,1.654545813798904419e-01,-9.974483400583267212e-02,-1.017305031418800354e-01,1.043916866183280945e-01,-1.360709965229034424e-01,1.380102485418319702e-01,-6.921928375959396362e-03,-3.416230529546737671e-02,9.787380695343017578e-02,-1.214082166552543640e-01,-8.711241185665130615e-03,-6.193998456001281738e-02,1.143609266728162766e-02,-1.104872077703475952e-01,-4.805036261677742004e-02,1.895387768745422363e-01,1.611416488885879517e-01,5.052704364061355591e-02,4.732757061719894409e-02,-1.161014810204505920e-01,3.004038333892822266e-02,1.434573084115982056e-01,-1.357063800096511841e-01,-1.523814257234334946e-02,-1.832456886768341064e-01,3.648967668414115906e-02,1.450162976980209351e-01,-1.398835331201553345e-01,8.456810563802719116e-02,-6.922896206378936768e-02,1.531253457069396973e-01,2.995690517127513885e-02,-4.316331073641777039e-02,-7.842256128787994385e-02,2.630656398832798004e-02,1.032870560884475708e-01,-1.701774448156356812e-01,-1.169343516230583191e-01,6.724067777395248413e-02,-9.103348106145858765e-02,-1.557116508483886719e-01,1.273311525583267212e-01,5.957696214318275452e-02,7.510414719581604004e-02,1.363735944032669067e-01,2.859020605683326721e-02,-5.257936194539070129e-03,-8.600571006536483765e-02,-2.102217823266983032e-01,1.481849253177642822e-01,1.231655552983283997e-01,-1.197086945176124573e-01,3.261795639991760254e-02,-1.045087575912475586e-01,-8.130472898483276367e-02,-3.122842125594615936e-02,1.679282784461975098e-01,-1.597426831722259521e-01,1.791080534458160400e-01,3.567022830247879028e-02,1.042147800326347351e-01,-1.611996740102767944e-01,8.314438164234161377e-02,1.787777394056320190e-01,1.669052056968212128e-03,1.811490654945373535e-01
1.567603349685668945e-01,1.432224065065383911e-01,1.915082633495330811e-01,1.375117748975753784e-01,-5.880021955817937851e-03,-2.461321279406547546e-02,6.562796235084533691e-02,-1.091037541627883911e-01,9.551618993282318115e-02,1.008700430393218994e-01,1.609785109758377075e-01,1.354524940252304077e-01,1.758440285921096802e-01,-1.294652670621871948e-01,-1.223624870181083679e-01,2.568004885688424110e-03,1.744725704193115234e-01,2.483312040567398071e-02,1.601858437061309814e-02,1.575608253479003906e-01,8.655954897403717041e-02,-1.026562675833702087e-01,6.106896325945854187e-03,-4.644758999347686768e-02,-1.237524822354316711e-01,-2.584734000265598297e-02,-1.932890713214874268e-01,9.520172327756881714e-02,7.827265560626983643e-02,8.489574491977691650e-02,1.737966537475585938e-01,-1.954890489578247070e-01,-1.415580511093139648e-01,-2.264812029898166656e-02,-6.003515794873237610e-02,-1.617862731218338013e-01,-2.641662210226058960e-02,-7.416469603776931763e-02,-4.940785840153694153e-02,-1.108706295490264893e-01,2.619456499814987183e-02,1.212615594267845154e-01,-6.225718534551560879e-04,7.521481066942214966e-02,-4.182624444365501404e-02,3.108598850667476654e-02,8.168948441743850708e-02,1.688123047351837158e-01,-6.786037981510162354e-02,6.376635283231735229e-02,-1.133474856615066528e-01,-8.341319859027862549e-02,1.060013193637132645e-02,-6.283055245876312256e-02,1.029937295243144035e-03,-2.946272492408752441e-02,6.560283899307250977e-02,2.399852871894836426e-02,-1.660770624876022339e-01,-1.424871385097503662e-01,1.423644870519638062e-01,1.340105831623077393e-01,-1.437302529811859131e-01,-1.267097592353820801e-01,5.746015161275863647e-02,-8.123901486396789551e-02,-1.440078318119049072e-01,-6.459220498800277710e-02,-1.916410177946090698e-01,-4.657566547393798828e-02,-6.644377112388610840e-02,-1.416900753974914551e-02,2.973385527729988098e-02,1.477378755807876587e-01,3.815082833170890808e-02,3.371522948145866394e-02,-1.274515241384506226e-01,-4.179577901959419250e-02,3.506140038371086121e-02,1.654411405324935913e-01,-1.218331307172775269e-01,7.829424738883972168e-02,8.315302431583404541e-02,1.579254269599914551e-01,-1.752576678991317749e-01,1.726858913898468018e-01,1.035581305623054504e-01,7.308432459831237793e-02,1.067437082529067993e-01,-1.715858578681945801e-01,-5.711374804377555847e-02,-6.431873142719268799e-02,1.868431270122528076e-02,-1.194666251540184021e-01,1.975592523813247681e-01,-7.406651228666305542e-02,1.117384210228919983e-01,7.617755979299545288e-02,-6.371995806694030762e-02,-1.377801001071929932e-01,1.026718411594629288e-03,2.793139312416315079e-03,8.645275235176086426e-02,5.420023575425148010e-02,-5.732589587569236755e-02,-9.372451156377792358e-02,1.422681212425231934e-01,1.103554666042327881e-02,1.207221671938896179e-01,-5.088410899043083191e-02,8.637173473834991455e-02,-3.310093283653259277e-02,-4.020450264215469360e-02,1.108027547597885132e-01,1.108234003186225891e-01,-7.710671424865722656e-02,-3.677473589777946472e-02,-1.697054505348205566e-01,9.308858960866928101e-02,-1.010160222649574280e-01,1.430757492780685425e-01,-4.037220031023025513e-02,9.530396014451980591e-02,6.350249797105789185e-02,7.323127985000610352e-02,6.303560733795166016e-02,1.386587917804718018e-01,1.086454465985298157e-01
-1.089532375335693359e-01,-1.183438375592231750e-01,-1.694732904434204102e-01,-1.889217495918273926e-01,3.323590382933616638e-02,-2.614749670028686523e-01,1.237496584653854370e-01,2.405053824186325073e-01,1.032866984605789185e-01,1.298765540122985840e-01,6.420763581991195679e-02,-1.508799642324447632e-01,1.327779293060302734e-01,-6.391442567110061646e-02,1.086697429418563843e-01,-6.102778017520904541e-03,1.247128546237945557e-01,1.200115978717803955e-01,5.698727071285247803e-02,-1.005005314946174622e-01,-1.720870882272720337e-01,1.483961194753646851e-01,-5.398940760642290115e-03,9.176085144281387329e-02,1.833560466766357422e-01,2.566877566277980804e-02,1.048748493194580078e-01,-2.095875591039657593e-01,-1.892302781343460083e-01,-3.189900219440460205e-01,-1.753847897052764893e-01,4.404212161898612976e-02,4.017195478081703186e-02,-2.551199495792388916e-01,-1.472896635532379150e-01,-1.309096664190292358e-01,1.357741206884384155e-01,-7.434396445751190186e-02,-2.917957305908203125e-01,-1.195567920804023743e-01,1.610751748085021973e-01,-1.299926824867725372e-02,-9.820702485740184784e-03,-5.462927743792533875e-02,-2.356829792261123657e-01,-6.319977343082427979e-03,1.047552153468132019e-01,1.841856837272644043e-01,-1.271332353353500366e-01,2.067222595214843750e-01,1.639550365507602692e-02,-1.773565262556076050e-01,1.362024154514074326e-02,-8.115486055612564087e-02,-1.246386766433715820e-01,-1.462134867906570435e-01,2.855213126167654991e-03,-8.267914876341819763e-03,1.986066550016403198e-01,9.535297006368637085e-02,1.821553856134414673e-01,-2.505596913397312164e-02,-1.487714797258377075e-01,3.722076863050460815e-02,-3.087173700332641602e-01,-1.566046178340911865e-01,9.185714274644851685e-02,1.272815167903900146e-01,3.441498614847660065e-03,-4.342937469482421875e-02,-2.260674983263015747e-01,-7.742380723357200623e-03,-5.108623206615447998e-02,2.195700109004974365e-01,2.064748704433441162e-01,9.706711769104003906e-02,5.127053335309028625e-02,-6.339465826749801636e-02,-9.793911874294281006e-02,-5.109167844057083130e-02,-6.494130939245223999e-02,1.817642301321029663e-01,-9.286588989198207855e-03,-6.930013000965118408e-02,-1.922821551561355591e-01,2.410175055265426636e-01,1.415718942880630493e-01,9.953410923480987549e-02,-4.162668436765670776e-02,1.088420674204826355e-01,2.559477090835571289e-02,6.859050691127777100e-02,1.150920763611793518e-01,1.576073020696640015e-01,-5.590358003973960876e-02,7.747822999954223633e-02,1.543489098548889160e-01,-1.322313696146011353e-01,1.788747757673263550e-01,5.642825737595558167e-02,-1.794077605009078979e-01,1.916293054819107056e-01,1.116472929716110229e-01,-8.674087375402450562e-02,8.627463877201080322e-02,1.813874393701553345e-01,2.112881541252136230e-01,1.819904446601867676e-01,-5.646438524127006531e-02,8.108589798212051392e-02,5.511376261711120605e-02,6.154049932956695557e-02,-1.011623069643974304e-01,2.161388099193572998e-01,2.122036367654800415e-01,1.167081519961357117e-01,-1.648795008659362793e-01,9.877067804336547852e-02,6.598815321922302246e-02,1.739765256643295288e-01,1.432717442512512207e-01,-9.324964135885238647e-02,-1.486549377441406250e-01,-1.100018098950386047e-01,-1.037832498550415039e-01,-2.481648474931716919e-01,-1.513800770044326782e-01,2.921627834439277649e-02
1.220252737402915955e-01,2.287447452545166016e-01,-1.573928296566009521e-01,1.769271045923233032e-01,5.013083294034004211e-02,1.450280249118804932e-01,1.354880481958389282e-01,-2.460300363600254059e-02,-6.979061663150787354e-02,4.537718743085861206e-02,-4.944153502583503723e-02,-6.125163659453392029e-02,3.535290807485580444e-02,1.085578575730323792e-01,-1.054243817925453186e-01,-6.783931702375411987e-02,7.008422911167144775e-02,-3.609012067317962646e-02,1.873664706945419312e-01,-1.418142318725585938e-01,3.731251507997512817e-02,8.232266455888748169e-02,1.731568425893783569e-01,9.929313510656356812e-02,4.250151291489601135e-02,2.505514211952686310e-02,-1.965553313493728638e-01,1.163293570280075073e-01,7.690820842981338501e-02,2.403750866651535034e-01,6.914117187261581421e-02,2.044363766908645630e-01,-1.549085080623626709e-01,3.553092107176780701e-02,7.157514244318008423e-02,-9.755691885948181152e-02,1.356532983481884003e-02,2.909148670732975006e-02,6.859356909990310669e-02,-9.739010781049728394e-02,-6.449155509471893311e-02,6.714717298746109009e-02,1.658411920070648193e-01,1.623349636793136597e-01,3.950379323214292526e-03,6.563200056552886963e-02,-2.498766779899597168e-02,-1.264506280422210693e-01,-6.864750292152166367e-03,-8.455600589513778687e-02,8.118032664060592651e-02,-6.352427601814270020e-02,1.968698203563690186e-02,-1.927211135625839233e-01,-1.345815509557723999e-01,-8.478989452123641968e-02,-1.081174165010452271e-01,-1.755554378032684326e-01,-8.857952803373336792e-02,-1.792478412389755249e-01,-1.053037196397781372e-01,-1.535940468311309814e-01,-1.355120390653610229e-01,1.139754150062799454e-02,1.095307245850563049e-01,5.982271395623683929e-03,2.155651748180389404e-01,-3.950414061546325684e-02,6.439603865146636963e-02,1.622532606124877930e-01,7.215937972068786621e-02,-1.872730813920497894e-02,-1.009094249457120895e-02,-8.530300110578536987e-03,8.872811496257781982e-02,-4.685740917921066284e-02,1.761228404939174652e-02,1.613803952932357788e-02,-8.917620778083801270e-02,1.507637649774551392e-01,-2.931554801762104034e-02,-8.464822918176651001e-02,1.522178649902343750e-01,-1.389722526073455811e-01,7.183934003114700317e-02,-1.216658428311347961e-01,-1.065146923065185547e-01,1.513655036687850952e-01,-1.632085815072059631e-02,1.081404648721218109e-02,-1.914560645818710327e-01,1.967045515775680542e-01,-6.905364990234375000e-02,1.779683381319046021e-01,-1.498232632875442505e-01,-1.396558135747909546e-01,1.967758126556873322e-02,-8.831600099802017212e-02,-1.653812639415264130e-02,-2.015008926391601562e-01,1.380188614130020142e-01,7.199066132307052612e-02,-1.843290328979492188e-01,-2.432009950280189514e-02,-1.873250156641006470e-01,-9.930314868688583374e-02,-1.999821960926055908e-01,-9.348195046186447144e-02,1.852294802665710449e-01,-2.776823006570339203e-02,2.625975571572780609e-02,6.053836643695831299e-02,-1.038319617509841919e-02,6.444130092859268188e-02,-2.840976975858211517e-02,-1.539552360773086548e-01,1.222421824932098389e-01,-3.356997296214103699e-02,1.257226914167404175e-01,1.566981226205825806e-01,1.541270315647125244e-01,-1.182731837034225464e-01,1.898641884326934814e-01,-1.461230814456939697e-01,7.258274406194686890e-02,1.006404161453247070e-01,-1.400394290685653687e-01,-6.714350730180740356e-02
2.673465013504028320e-02,1.182483658194541931e-01,6.784518063068389893e-02,5.689932033419609070e-02,-1.290422827005386353e-01,-1.167456805706024170e-01,-1.389557719230651855e-01,-1.198840066790580750e-01,-5.194440856575965881e-02,9.429269284009933472e-02,-1.727765351533889771e-01,-1.330732405185699463e-01,6.044592708349227905e-02,-1.245360895991325378e-01,-2.233828604221343994e-02,-1.871865615248680115e-02,1.754142940044403076e-01,-8.888516575098037720e-02,-1.609517335891723633e-01,1.427853405475616455e-01,-7.920052111148834229e-02,-1.646763086318969727e-01,2.691198512911796570e-02,-1.435981318354606628e-02,1.289886832237243652e-01,-1.169506609439849854e-01,7.080430537462234497e-02,-1.496908161789178848e-02,-1.296758353710174561e-01,1.628440320491790771e-01,1.545118242502212524e-01,-1.480584889650344849e-01,-1.217798441648483276e-01,-3.089230135083198547e-02,4.057499393820762634e-02,6.024842709302902222e-02,1.624484360218048096e-01,-9.701019525527954102e-02,4.246915224939584732e-03,5.543559044599533081e-02,7.621426880359649658e-02,9.315052628517150879e-02,5.190367251634597778e-02,1.281195133924484253e-01,-1.306811347603797913e-02,-1.631608605384826660e-01,1.629149913787841797e-01,-1.526093631982803345e-01,-1.531454920768737793e-01,1.241180598735809326e-01,1.697845458984375000e-01,1.105572953820228577e-01,-1.733828336000442505e-01,1.681524068117141724e-01,-7.039018720388412476e-02,1.219860166311264038e-01,-6.151925772428512573e-02,-5.390743911266326904e-02,2.688396908342838287e-02,-1.204847097396850586e-01,-7.163731008768081665e-02,-1.339163631200790405e-01,6.596110016107559204e-02,-1.770941168069839478e-02,-1.459627747535705566e-01,1.308331489562988281e-01,1.116147488355636597e-01,5.498818680644035339e-02,-1.719465702772140503e-01,-7.248616963624954224e-02,-1.462734043598175049e-01,-1.133056450635194778e-02,-4.759193956851959229e-02,-1.114052906632423401e-01,1.112666279077529907e-01,-1.798590123653411865e-01,1.107590273022651672e-01,-1.178270354866981506e-01,1.744882166385650635e-01,-7.518143206834793091e-02,6.301402579993009567e-03,3.397444263100624084e-02,-3.747201338410377502e-02,-1.011980623006820679e-01,-1.919600814580917358e-01,-4.045936092734336853e-02,1.353642940521240234e-01,-1.429349035024642944e-01,-1.180450525134801865e-02,-3.393525723367929459e-03,-2.855861186981201172e-02,1.791426390409469604e-01,1.247870475053787231e-01,5.700351297855377197e-02,4.341796040534973145e-02,4.994490742683410645e-02,-1.481218449771404266e-02,4.620321094989776611e-02,1.667010635137557983e-01,4.570033401250839233e-02,6.345736980438232422e-02,1.624698340892791748e-01,1.457168906927108765e-01,-8.120012283325195312e-02,7.549688965082168579e-02,8.541364222764968872e-02,-4.860689491033554077e-02,2.591934287920594215e-03,5.217886716127395630e-02,-3.510422073304653168e-03,-7.587454468011856079e-02,1.394797414541244507e-01,8.471088856458663940e-02,-9.972730278968811035e-02,-1.070202514529228210e-01,-1.650587841868400574e-02,1.211428195238113403e-01,7.914657145738601685e-02,1.437245905399322510e-01,1.467040181159973145e-01,1.149226948618888855e-01,-1.296998001635074615e-02,-1.252279281616210938e-01,1.901897788047790527e-02,-3.353030979633331299e-02,-1.150123924016952515e-01,2.034888043999671936e-02,7.332815974950790405e-02
7.449815422296524048e-02,9.671589732170104980e-02,-2.815334498882293701e-02,3.235813602805137634e-02,-9.422781318426132202e-02,5.191161110997200012e-02,-1.624716073274612427e-01,-7.572424411773681641e-02,4.510524868965148926e-02,-1.805628836154937744e-01,1.916463971138000488e-01,8.859059959650039673e-02,-1.486500501632690430e-01,-1.641138643026351929e-01,-2.034937888383865356e-01,1.982633918523788452e-01,8.900674432516098022e-02,-4.745527356863021851e-02,-1.448016166687011719e-01,1.816602200269699097e-01,1.934567391872406006e-01,1.763117760419845581e-01,5.020791664719581604e-02,-2.347895354032516479e-01,2.364884912967681885e-01,2.821566760540008545e-01,-4.491029679775238037e-02,2.083557248115539551e-01,1.332631856203079224e-01,-1.761510372161865234e-01,3.865614533424377441e-02,2.143505066633224487e-01,1.718584820628166199e-02,-1.159315928816795349e-01,9.149655699729919434e-02,-1.354665607213973999e-01,3.200526162981987000e-02,1.140657290816307068e-01,-3.497681021690368652e-01,-2.131349444389343262e-01,7.791394740343093872e-02,7.790112495422363281e-02,8.865913841873407364e-04,-2.614524960517883301e-02,7.916821539402008057e-02,1.629993319511413574e-01,2.306253910064697266e-01,3.694656491279602051e-02,-1.263676583766937256e-01,-9.799115359783172607e-02,1.030485238879919052e-02,1.099629476666450500e-01,2.484343796968460083e-01,2.402959764003753662e-01,-1.041767448186874390e-01,1.052631586790084839e-01,1.734327375888824463e-01,5.676721222698688507e-03,9.052609652280807495e-02,6.868974864482879639e-02,3.159972373396158218e-03,-1.023649945855140686e-01,-1.009288579225540161e-01,-1.252648327499628067e-02,-2.078124284744262695e-01,-2.349804490804672241e-01,1.391117088496685028e-02,1.290149092674255371e-01,1.840687692165374756e-01,-3.203069791197776794e-02,4.699016921222209930e-03,-6.092025339603424072e-02,1.900294721126556396e-01,1.399302929639816284e-01,1.004719212651252747e-01,3.033481538295745850e-03,1.200331524014472961e-01,-5.791461095213890076e-02,1.465829461812973022e-01,1.372193694114685059e-01,-1.005062162876129150e-01,-6.709980312734842300e-03,-2.700552158057689667e-02,-1.258386820554733276e-01,7.842534780502319336e-02,-1.986019127070903778e-02,3.680153191089630127e-02,2.149735540151596069e-01,1.369272172451019287e-01,2.178374975919723511e-01,1.672725826501846313e-01,-3.003396093845367432e-02,-1.319060623645782471e-01,1.500930450856685638e-02,7.537565380334854126e-02,5.692672729492187500e-02,-4.924469068646430969e-02,-1.570751145482063293e-02,1.429298967123031616e-01,1.335281133651733398e-01,-1.549295056611299515e-02,2.983141457661986351e-03,1.695016026496887207e-01,-6.690327078104019165e-02,1.885077804327011108e-01,1.847385615110397339e-02,2.976515144109725952e-02,-2.107023894786834717e-01,2.295840531587600708e-02,1.644835621118545532e-01,1.334180384874343872e-01,1.554209459573030472e-02,3.525007516145706177e-02,8.150687068700790405e-02,2.116034971550107002e-03,-1.076714769005775452e-01,-2.544871717691421509e-02,9.132955223321914673e-03,-1.690799146890640259e-01,6.577392667531967163e-02,-3.201416134834289551e-02,-2.286412864923477173e-01,-1.908391714096069336e-02,-1.023417636752128601e-01,1.839999109506607056e-01,-1.031451951712369919e-02,1.676924154162406921e-02,-2.788776755332946777e-01
1.225442886352539062e-01,1.425899416208267212e-01,-1.051889359951019287e-01,1.267103701829910278e-01,-9.880089201033115387e-03,-1.979901269078254700e-02,3.733146190643310547e-02,1.653789579868316650e-01,6.738109141588211060e-02,2.923447266221046448e-02,-6.966263055801391602e-02,2.948190830647945404e-02,7.020104676485061646e-02,-1.142735704779624939e-01,2.111922353506088257e-01,-3.642963245511054993e-02,-1.550700962543487549e-01,1.149272546172142029e-01,-5.621458590030670166e-02,-1.734527014195919037e-02,-1.056589260697364807e-01,-1.417673472315073013e-02,-9.307970106601715088e-02,-7.805790007114410400e-02,2.022131085395812988e-01,4.778245836496353149e-02,-7.051765918731689453e-02,1.214931067079305649e-02,-5.140564590692520142e-02,1.731682568788528442e-01,-1.300872862339019775e-01,-1.100791394710540771e-01,-1.831247508525848389e-01,-7.069396786391735077e-03,-1.853115409612655640e-01,1.945300400257110596e-02,-1.198723167181015015e-01,1.071454957127571106e-01,-2.944206818938255310e-02,-1.659575663506984711e-02,-9.473980218172073364e-02,-6.363953929394483566e-03,1.258758455514907837e-01,1.609849929809570312e-02,1.628410071134567261e-01,-7.265496999025344849e-02,8.321554400026798248e-03,-1.822036504745483398e-01,-1.467527896165847778e-01,-6.991422921419143677e-02,-6.617868691682815552e-02,-8.735533803701400757e-02,3.574491664767265320e-02,-1.311219483613967896e-01,1.168218925595283508e-01,1.393174529075622559e-01,1.714511364698410034e-01,1.045563817024230957e-01,4.072932153940200806e-02,-1.898744106292724609e-01,7.277567684650421143e-02,-1.164400056004524231e-01,1.391229964792728424e-02,5.661908909678459167e-02,2.190927714109420776e-01,1.896475553512573242e-01,4.086189717054367065e-02,-6.643637269735336304e-02,1.793900877237319946e-01,1.664793938398361206e-01,2.112119197845458984e-01,-1.310318261384963989e-01,-1.458663940429687500e-01,-2.801081910729408264e-02,-1.503596156835556030e-01,-2.444819360971450806e-02,8.964606374502182007e-02,1.575180739164352417e-01,-7.888562977313995361e-03,-9.250827133655548096e-02,-6.751087307929992676e-02,1.053819805383682251e-01,9.971121698617935181e-02,1.583786308765411377e-01,-2.058796025812625885e-02,-1.178049221634864807e-01,1.745623797178268433e-01,1.598122119903564453e-01,-4.768627509474754333e-02,9.873630478978157043e-03,1.613865047693252563e-01,9.856441617012023926e-02,-7.602856028825044632e-03,4.547749459743499756e-02,1.073623746633529663e-01,-2.677525207400321960e-02,2.368805371224880219e-02,-8.391521871089935303e-02,-1.547746211290359497e-01,-1.145535707473754883e-02,-4.234843701124191284e-02,1.075842827558517456e-01,1.089341938495635986e-02,1.130913272500038147e-01,3.316371887922286987e-02,-1.499874591827392578e-01,-1.764342188835144043e-01,-1.240838542580604553e-01,2.974723093211650848e-02,-1.052687759511172771e-03,1.343053430318832397e-01,1.015088334679603577e-01,6.510878354310989380e-02,6.322292238473892212e-02,4.927840083837509155e-02,-2.333412878215312958e-02,1.482673734426498413e-01,-1.182352304458618164e-01,-2.789453230798244476e-02,-7.906697690486907959e-02,2.003596127033233643e-01,1.274966597557067871e-01,7.064274698495864868e-02,8.031855337321758270e-03,-1.555862426757812500e-01,-2.365614101290702820e-02,-6.567748636007308960e-02,1.472498923540115356e-01
3.871759772300720215e-02,-1.130458712577819824e-01,-7.043129950761795044e-02,-1.345996260643005371e-01,-3.732647374272346497e-02,2.336951903998851776e-02,-1.558559089899063110e-01,-1.218574196100234985e-01,9.093786776065826416e-02,1.967574842274188995e-02,-1.059117168188095093e-01,-7.694369554519653320e-02,-1.008948311209678650e-01,1.991310901939868927e-02,-1.203461084514856339e-03,1.538423001766204834e-01,-9.257508814334869385e-02,7.922583073377609253e-02,-8.176777511835098267e-02,-3.493222594261169434e-02,3.020614199340343475e-02,1.061146110296249390e-01,-1.011694371700286865e-01,9.841851890087127686e-02,-1.235852092504501343e-01,-1.262984573841094971e-01,-1.843893378973007202e-01,-1.108215302228927612e-01,5.791003629565238953e-02,1.521694213151931763e-01,-1.952750384807586670e-01,6.102476641535758972e-02,1.953664273023605347e-01,1.247319132089614868e-01,8.201024611480534077e-04,1.130152791738510132e-01,1.067422404885292053e-01,-1.276732236146926880e-01,5.020676553249359131e-02,7.109824568033218384e-02,1.214762255549430847e-01,-5.395047739148139954e-02,-8.668665587902069092e-02,1.182856559753417969e-01,-2.391369082033634186e-02,-1.484508365392684937e-01,-1.310101449489593506e-01,-9.877894073724746704e-02,-2.120228558778762817e-01,-9.572426229715347290e-02,1.191083490848541260e-01,-6.895446032285690308e-02,-8.931583166122436523e-02,-1.324079483747482300e-01,-3.414363414049148560e-02,-1.974312029778957367e-02,1.843274757266044617e-02,-1.033340618014335632e-01,1.101165339350700378e-01,1.201659515500068665e-01,5.633857101202011108e-03,-1.047802418470382690e-01,-2.032294869422912598e-03,-1.890455335378646851e-01,-2.173322066664695740e-02,8.114439249038696289e-02,9.230899065732955933e-02,1.681418567895889282e-01,-1.131913140416145325e-01,-1.122916489839553833e-01,-1.330373138189315796e-01,1.092340722680091858e-01,-3.962140157818794250e-02,-1.495321989059448242e-01,1.017420366406440735e-01,-1.679791808128356934e-01,-1.022316738963127136e-01,1.109483018517494202e-01,1.611846983432769775e-01,-6.561800837516784668e-02,-1.165129095315933228e-01,-6.553678214550018311e-02,1.607092320919036865e-01,-3.811926022171974182e-02,-1.392824202775955200e-01,7.820130139589309692e-02,1.537419408559799194e-01,1.064936723560094833e-02,-1.128003820776939392e-01,3.978271037340164185e-02,8.295699022710323334e-03,-2.929305285215377808e-02,9.861853718757629395e-02,1.339022964239120483e-01,1.133478060364723206e-02,2.117450162768363953e-02,1.250648498535156250e-01,-6.807237118482589722e-02,2.082746624946594238e-01,-1.596828550100326538e-02,3.587213903665542603e-02,1.274649649858474731e-01,-1.393052097409963608e-02,1.153858006000518799e-01,-2.348282188177108765e-02,1.399407088756561279e-01,5.079095810651779175e-02,-1.680518537759780884e-01,-1.174269393086433411e-01,-1.449880152940750122e-01,-6.753258407115936279e-02,1.405378431081771851e-01,-8.531203866004943848e-02,7.101398706436157227e-02,1.320267766714096069e-01,1.266352236270904541e-01,-8.080941438674926758e-02,1.590584963560104370e-01,1.281529068946838379e-01,2.026235610246658325e-01,8.397420495748519897e-02,6.703776866197586060e-02,1.148981824517250061e-01,2.054725438356399536e-01,3.999375179409980774e-02,-3.795798867940902710e-02,1.560597419738769531e-01,-2.065201848745346069e-02
-2.857567369937896729e-01,-1.093795895576477051e-01,1.015118509531021118e-01,-1.186520233750343323e-02,5.516404751688241959e-03,-8.251234143972396851e-02,-1.786076128482818604e-01,8.698156476020812988e-02,5.972730368375778198e-02,3.252774477005004883e-02,1.583516001701354980e-01,-6.655556708574295044e-02,1.025929301977157593e-01,-2.003770917654037476e-01,-1.642107963562011719e-01,3.855925798416137695e-02,1.514609158039093018e-01,6.025906652212142944e-02,-5.675452947616577148e-02,2.108795642852783203e-01,1.323745697736740112e-01,2.649268209934234619e-01,4.192250594496726990e-02,-5.666959285736083984e-02,-2.131275599822402000e-03,1.277534365653991699e-01,-6.740768998861312866e-02,2.378250658512115479e-01,3.708359971642494202e-02,-1.998975872993469238e-01,1.432050168514251709e-01,1.924901455640792847e-01,9.877243638038635254e-02,-1.333762258291244507e-01,1.431738287210464478e-01,-1.693067550659179688e-01,1.687345802783966064e-01,1.771021634340286255e-02,-2.592292726039886475e-01,7.896596938371658325e-02,1.292409189045429230e-02,1.199152022600173950e-01,-1.027310192584991455e-01,-1.252739578485488892e-01,-2.180935889482498169e-01,-3.163336217403411865e-02,-1.658192486502230167e-03,-4.593503102660179138e-02,1.481206864118576050e-01,-8.471665903925895691e-03,1.452202498912811279e-01,2.200488895177841187e-01,2.319900244474411011e-01,1.002352833747863770e-01,1.539261788129806519e-01,1.760563254356384277e-01,7.402200251817703247e-02,-9.340582042932510376e-02,-1.748635917901992798e-01,2.021016031503677368e-01,7.027849555015563965e-02,-8.934451639652252197e-02,7.175182551145553589e-02,-1.782048195600509644e-01,-2.303624302148818970e-01,-8.874553442001342773e-02,-1.390515118837356567e-01,-6.586152315139770508e-02,2.952826321125030518e-01,1.079782322049140930e-01,-1.356336474418640137e-01,-1.711878478527069092e-01,-5.609136447310447693e-02,8.730335533618927002e-02,-2.211677841842174530e-02,4.518903419375419617e-02,-5.124927684664726257e-02,-1.884604990482330322e-02,-8.433862030506134033e-02,7.435660809278488159e-02,-1.473035216331481934e-01,1.696064472198486328e-01,1.159339845180511475e-01,2.389201894402503967e-02,-2.318891882896423340e-01,-2.315005101263523102e-02,-9.531049057841300964e-03,2.146494537591934204e-01,3.008923232555389404e-01,-2.946706861257553101e-02,9.894416481256484985e-02,-1.921923607587814331e-01,2.980275312438607216e-03,2.851708792150020599e-02,1.620747745037078857e-01,1.285870075225830078e-01,-8.779017627239227295e-02,1.513270884752273560e-01,-2.107153274118900299e-02,1.492033451795578003e-01,-1.611680537462234497e-01,1.374571323394775391e-01,2.648725807666778564e-01,-5.756684765219688416e-02,1.385243982076644897e-01,-9.151637554168701172e-03,1.520442664623260498e-01,-1.190784648060798645e-01,-8.883824199438095093e-02,1.600223928689956665e-01,-9.960659593343734741e-02,1.788185238838195801e-01,1.037600338459014893e-01,4.922002181410789490e-02,-6.280649919062852859e-03,1.063672900199890137e-01,1.158189773559570312e-01,-2.228169888257980347e-02,-1.387006640434265137e-01,1.406287658028304577e-03,5.881652608513832092e-02,-9.878543764352798462e-02,9.143225103616714478e-02,-1.218339521437883377e-02,9.036365896463394165e-03,-5.509471520781517029e-02,-1.452385783195495605e-01,-2.081940621137619019e-01
3.952302411198616028e-02,2.099069207906723022e-01,5.560147017240524292e-02,-5.915354937314987183e-02,-1.165714859962463379e-01,-1.581242382526397705e-01,-1.695268899202346802e-01,6.763283908367156982e-02,1.195586472749710083e-01,8.383213728666305542e-02,1.718397438526153564e-01,-1.275878250598907471e-01,1.107319295406341553e-01,1.182853654026985168e-01,1.927230507135391235e-01,-2.527725137770175934e-02,8.345600217580795288e-02,-1.239572241902351379e-01,-1.026090607047080994e-02,-8.821707218885421753e-03,-7.486020773649215698e-02,6.040545180439949036e-02,-5.728724226355552673e-02,1.056493222713470459e-01,-1.575850099325180054e-01,-7.875683158636093140e-02,-4.593400284647941589e-03,1.207059770822525024e-01,-4.396671056747436523e-02,9.269143454730510712e-03,1.662550307810306549e-02,1.444634348154067993e-01,1.240444406867027283e-01,-9.526077657938003540e-02,-1.387787908315658569e-01,-2.428776398301124573e-02,9.582066535949707031e-02,-5.070693045854568481e-02,1.450683623552322388e-01,1.699986904859542847e-01,-3.127574548125267029e-02,1.301803290843963623e-01,4.067104309797286987e-04,9.928420186042785645e-02,7.198130339384078979e-02,-2.443360164761543274e-02,6.898904591798782349e-02,1.750000636093318462e-03,2.275646105408668518e-02,-1.588164269924163818e-01,1.670137047767639160e-01,-3.901129215955734253e-02,7.483552675694227219e-03,-4.412531480193138123e-02,-1.432749778032302856e-01,1.073266863822937012e-01,1.436482220888137817e-01,1.515794247388839722e-01,-7.222412154078483582e-03,-1.820090711116790771e-01,3.362327069044113159e-02,1.829135119915008545e-01,1.032929643988609314e-01,-1.333778649568557739e-01,-1.011759340763092041e-01,1.270298212766647339e-01,-4.108405113220214844e-02,1.855438947677612305e-01,-5.329899117350578308e-02,-7.766151428222656250e-02,1.730871796607971191e-01,-1.080364286899566650e-01,-1.451511085033416748e-01,5.409238114953041077e-02,-1.106556970626115799e-02,-1.032660901546478271e-01,2.360776253044605255e-02,-1.575902402400970459e-01,-1.220343932509422302e-01,-9.823503345251083374e-02,-1.589675247669219971e-01,-4.836927726864814758e-02,1.034610420465469360e-01,4.901718720793724060e-02,-1.470130085945129395e-01,-1.337300837039947510e-01,-6.179270893335342407e-02,8.648184686899185181e-02,-1.988692767918109894e-02,-9.790424257516860962e-02,-2.088245376944541931e-02,1.702514290809631348e-01,-1.859086155891418457e-01,1.566272415220737457e-02,-4.297608882188796997e-02,-1.364986896514892578e-01,-6.920383125543594360e-02,-1.612049490213394165e-01,-1.308881584554910660e-02,1.025083735585212708e-01,-5.454562604427337646e-02,-1.801739097572863102e-03,5.039671063423156738e-02,1.679909378290176392e-01,-1.341879367828369141e-01,3.876794502139091492e-02,-1.098546292632818222e-02,1.205411851406097412e-01,-1.682648509740829468e-01,-9.798216074705123901e-02,-4.919971153140068054e-02,7.878723740577697754e-02,1.833955012261867523e-02,7.865321636199951172e-02,1.811292581260204315e-02,-3.129872493445873260e-03,-1.799931675195693970e-01,1.105949804186820984e-01,6.085079163312911987e-02,-4.455595090985298157e-02,1.690515428781509399e-01,1.732043325901031494e-01,-1.208682134747505188e-01,6.281045824289321899e-02,1.125500202178955078e-01,2.198077738285064697e-03,2.298445068299770355e-02,1.822432577610015869e-01
3.340097516775131226e-02,-1.300251856446266174e-02,-1.216921284794807434e-01,6.411434151232242584e-03,1.805097311735153198e-01,1.125298589468002319e-01,1.613229811191558838e-01,7.402315735816955566e-02,6.866333633661270142e-02,-1.419912725687026978e-01,-3.186463145539164543e-03,-1.313476264476776123e-01,-1.258785277605056763e-01,9.498985111713409424e-02,-3.292302787303924561e-02,1.071720495820045471e-01,1.019951552152633667e-01,-6.497216224670410156e-02,-1.235860213637351990e-01,-5.124649778008460999e-02,-1.737037003040313721e-01,-6.363709922879934311e-03,2.018650919198989868e-01,-7.894901186227798462e-02,-5.745232850313186646e-02,-5.436778068542480469e-02,-2.670811116695404053e-02,7.433782517910003662e-02,-9.876564145088195801e-02,-4.416497424244880676e-02,-1.056975051760673523e-01,-1.527162734419107437e-02,1.637328267097473145e-01,8.054399490356445312e-02,5.948858708143234253e-02,2.004518359899520874e-01,1.605319976806640625e-01,-2.987527847290039062e-02,8.663811534643173218e-02,-7.298739999532699585e-02,-1.634100973606109619e-01,-1.289156228303909302e-01,-5.025219637900590897e-03,9.518819302320480347e-02,-1.125183105468750000e-01,-4.229376465082168579e-02,6.388412415981292725e-02,-1.659471392631530762e-01,7.913019508123397827e-02,-1.644840389490127563e-01,3.442136943340301514e-02,-4.235635697841644287e-02,-1.844260469079017639e-02,-7.815594226121902466e-02,1.490503549575805664e-01,1.380413025617599487e-01,1.616953462362289429e-01,-1.690976470708847046e-01,1.864777952432632446e-01,1.312734633684158325e-01,1.501012593507766724e-01,1.354716159403324127e-02,8.039302378892898560e-02,-1.463752686977386475e-01,4.513156414031982422e-02,-1.050367727875709534e-01,-1.846945583820343018e-01,-1.612841337919235229e-01,1.904821582138538361e-02,2.903032675385475159e-02,9.410757571458816528e-02,2.317156456410884857e-02,-4.853678122162818909e-02,-2.135090157389640808e-02,-4.266980290412902832e-02,8.866814523935317993e-02,-4.833767563104629517e-02,1.115931496024131775e-01,-1.243870928883552551e-01,5.011890828609466553e-02,-9.351756423711776733e-03,1.738274246454238892e-01,1.180748641490936279e-01,-1.672762781381607056e-01,-1.358654946088790894e-01,3.282272443175315857e-02,-1.355614364147186279e-01,9.512721002101898193e-02,-1.396967768669128418e-01,-2.485108375549316406e-02,2.371096052229404449e-02,9.757547825574874878e-02,1.005530655384063721e-01,6.592696905136108398e-02,6.978575885295867920e-02,1.649389714002609253e-01,-1.344632208347320557e-01,-5.625481158494949341e-02,-1.216716542840003967e-01,-1.236392259597778320e-01,1.047929003834724426e-01,1.215446814894676208e-01,-1.003666371107101440e-01,-8.931688964366912842e-02,7.455064356327056885e-02,1.808869070373475552e-03,2.432677196338772774e-03,-3.805487230420112610e-02,-1.392784565687179565e-01,-1.844903975725173950e-01,-1.260600239038467407e-01,-1.185178682208061218e-01,-2.533834427595138550e-02,-1.511221230030059814e-01,9.080042690038681030e-02,-1.026451364159584045e-01,4.196763411164283752e-02,-8.878137450665235519e-04,-1.141644716262817383e-01,4.163143225014209747e-03,-2.195001207292079926e-02,-1.131744831800460815e-01,-1.117869466543197632e-01,-2.908882498741149902e-02,4.274585843086242676e-02,-1.694519221782684326e-01,4.049790650606155396e-02,1.713706254959106445e-01
-1.933077573776245117e-01,-1.282953470945358276e-01,1.208432242274284363e-01,-1.379488687962293625e-02,1.357809361070394516e-02,-1.697713434696197510e-01,5.509630776941776276e-03,1.822938472032546997e-01,1.378765106201171875e-01,-1.449000276625156403e-02,3.210077062249183655e-02,1.206135842949151993e-02,5.803270265460014343e-02,7.789094746112823486e-02,-9.559226781129837036e-02,-6.748732924461364746e-02,9.772972017526626587e-02,-5.034093558788299561e-02,1.205703020095825195e-01,1.005845144391059875e-01,1.550673786550760269e-02,2.243985794484615326e-02,-1.547227352857589722e-01,-2.226845026016235352e-01,1.734229028224945068e-01,-4.391551762819290161e-02,-1.804881691932678223e-01,1.891136467456817627e-01,1.518961340188980103e-01,-2.910282909870147705e-01,-6.852386146783828735e-02,-6.316132098436355591e-02,5.646627023816108704e-02,9.899151325225830078e-02,-2.655238285660743713e-02,5.043340474367141724e-02,8.454069495201110840e-02,1.414818167686462402e-01,-1.719967275857925415e-02,-1.552854180335998535e-01,8.224300295114517212e-02,1.230817958712577820e-01,6.017274037003517151e-02,1.327432096004486084e-01,-1.541476417332887650e-02,1.861841082572937012e-01,6.554088741540908813e-02,-2.080516964197158813e-01,1.310439109802246094e-01,1.231496632099151611e-01,8.483831188641488552e-04,-1.263617426156997681e-01,1.072699949145317078e-01,-1.404561698436737061e-01,-1.767084598541259766e-01,6.118297204375267029e-02,7.629549503326416016e-02,8.227938413619995117e-02,-1.377900242805480957e-01,8.408327400684356689e-02,7.828299701213836670e-02,-1.277120560407638550e-01,1.097676083445549011e-01,-1.442579478025436401e-01,-1.215999945998191833e-01,-1.374436821788549423e-02,-1.018390804529190063e-01,-9.650021791458129883e-02,-5.730798002332448959e-03,1.070025190711021423e-01,1.051381677389144897e-01,2.719407901167869568e-03,-1.181984245777130127e-01,1.072831898927688599e-01,-1.186224520206451416e-01,8.910662680864334106e-02,-9.554696828126907349e-02,1.694490015506744385e-01,1.577895432710647583e-01,6.839557737112045288e-02,-1.639048010110855103e-01,-5.103611201047897339e-02,8.129713684320449829e-02,1.344474256038665771e-01,-1.158243492245674133e-01,-6.168577354401350021e-03,1.356185525655746460e-01,1.209466382861137390e-01,8.423172682523727417e-02,-3.477167338132858276e-02,4.323662444949150085e-02,-2.379156053066253662e-01,5.108071863651275635e-02,1.470645219087600708e-01,-9.495122358202934265e-03,1.455780863761901855e-01,-1.199896037578582764e-01,-9.020418673753738403e-02,-3.743044286966323853e-02,4.721929877996444702e-02,1.613697782158851624e-02,-3.456085175275802612e-02,-2.986636944115161896e-02,3.524341806769371033e-02,-6.577927619218826294e-02,1.301536709070205688e-02,-1.355729699134826660e-01,-1.215420942753553391e-02,-9.664495289325714111e-02,1.429852992296218872e-01,-2.755681425333023071e-02,-1.211499646306037903e-01,-1.097051575779914856e-01,1.820209473371505737e-01,1.854467205703258514e-02,1.614531129598617554e-01,9.325133287347853184e-04,1.630815863609313965e-01,8.527646423317492008e-04,-1.516157984733581543e-01,-1.962113678455352783e-01,-1.645945310592651367e-01,1.639618575572967529e-01,1.348444819450378418e-01,-9.886400401592254639e-02,1.457227319478988647e-01,-9.484832733869552612e-02,-2.103059142827987671e-01
4.003779590129852295e-02,1.607466489076614380e-01,-1.346980929374694824e-01,1.167555972933769226e-01,-1.793131083250045776e-01,-1.765430122613906860e-01,9.064674377441406250e-02,3.644677624106407166e-02,4.671977087855339050e-02,7.494263350963592529e-02,7.861145772039890289e-03,7.141742110252380371e-02,1.223974227905273438e-01,5.656303837895393372e-03,-5.736029148101806641e-02,2.341755628585815430e-01,3.896056488156318665e-02,-2.524814940989017487e-02,2.170456759631633759e-02,-1.723777502775192261e-01,-7.217388600111007690e-02,-1.707345545291900635e-01,-1.252278685569763184e-01,1.673735678195953369e-01,4.716969281435012817e-02,-7.324165105819702148e-02,-1.094499155879020691e-01,5.047297850251197815e-02,-1.596945077180862427e-01,3.960830345749855042e-02,4.139025136828422546e-02,-7.315754145383834839e-02,-1.502483803778886795e-02,-3.032360970973968506e-02,3.760313242673873901e-02,3.170457109808921814e-02,1.687311381101608276e-02,-8.128076791763305664e-02,7.478154450654983521e-02,-9.846931323409080505e-03,-8.853022009134292603e-02,1.085154414176940918e-01,1.206706389784812927e-01,1.925333403050899506e-02,7.392764836549758911e-02,-1.673653572797775269e-01,1.512540280818939209e-01,2.911036908626556396e-01,-1.069276034832000732e-01,-1.016147620975971222e-02,6.631145626306533813e-02,7.211789488792419434e-02,-2.312426865100860596e-01,1.356378942728042603e-01,1.647943556308746338e-01,9.713117778301239014e-02,9.610425680875778198e-02,7.545381039381027222e-02,-2.117973007261753082e-02,-1.226083412766456604e-01,1.608406156301498413e-01,6.708581745624542236e-02,1.359545141458511353e-01,-1.847646683454513550e-01,4.664597287774085999e-02,-1.297044605016708374e-01,7.042151689529418945e-02,1.262604296207427979e-01,1.026205420494079590e-01,-8.099143207073211670e-02,3.339323028922080994e-02,5.033463239669799805e-04,-5.333815887570381165e-02,-5.304565653204917908e-02,4.952806234359741211e-02,9.102746099233627319e-02,6.022865884006023407e-03,3.325035050511360168e-02,-9.123910218477249146e-02,-1.380986273288726807e-01,1.404028944671154022e-02,-7.614628877490758896e-03,9.108493477106094360e-02,-2.031002640724182129e-01,9.913233667612075806e-02,1.433539539575576782e-01,-6.858479976654052734e-02,-2.891192212700843811e-02,-4.587072879076004028e-02,6.216312758624553680e-03,-9.021919220685958862e-02,1.472797095775604248e-01,6.649195402860641479e-02,5.465029180049896240e-02,-8.087249100208282471e-02,-4.636637866497039795e-03,-3.260617330670356750e-02,-6.157007440924644470e-02,4.658105969429016113e-02,1.493816673755645752e-01,-1.140954494476318359e-01,-3.442873805761337280e-02,-1.578156203031539917e-01,5.927073583006858826e-02,1.087838262319564819e-01,-2.709315530955791473e-02,5.410942062735557556e-02,-7.108103483915328979e-02,1.609185785055160522e-01,1.665522903203964233e-02,1.483808159828186035e-01,9.840770065784454346e-02,4.254705458879470825e-02,1.726164072751998901e-01,1.836628019809722900e-01,-5.993308499455451965e-02,1.483228653669357300e-01,-9.125436842441558838e-02,3.044776991009712219e-02,2.321574985980987549e-01,-1.895280368626117706e-02,-1.231167316436767578e-01,-1.703421920537948608e-01,-8.000881224870681763e-02,7.801046222448348999e-02,7.056247442960739136e-02,-1.604387313127517700e-01,1.149355173110961914e-01
6.855458021163940430e-02,-7.621852308511734009e-02,-5.425413325428962708e-02,-2.231909707188606262e-02,1.025693342089653015e-01,1.092876046895980835e-01,1.170865371823310852e-01,-1.340128779411315918e-01,-7.186289131641387939e-02,-1.033583283424377441e-01,4.817232117056846619e-02,1.005571708083152771e-01,2.013015300035476685e-01,1.636863313615322113e-02,1.393382400274276733e-01,2.421926520764827728e-02,1.641810685396194458e-01,-5.499129369854927063e-02,1.632640659809112549e-01,8.295249938964843750e-02,6.106020510196685791e-02,7.301503419876098633e-02,9.769067168235778809e-02,1.482948958873748779e-01,1.272685080766677856e-01,-7.120620459318161011e-02,-1.791095584630966187e-01,1.753331720829010010e-01,-1.556921303272247314e-01,4.283174872398376465e-03,1.020782142877578735e-01,-4.593835026025772095e-02,-4.019607976078987122e-02,-2.140116877853870392e-02,6.973177194595336914e-02,2.353029884397983551e-02,-1.424281597137451172e-01,1.378783285617828369e-01,1.110782921314239502e-01,1.692876517772674561e-01,7.586941868066787720e-02,7.706119865179061890e-02,6.831897795200347900e-02,2.708710730075836182e-02,-1.158274039626121521e-01,1.730408519506454468e-02,-3.842104971408843994e-02,1.514845490455627441e-01,-2.163977175951004028e-01,-4.154168814420700073e-02,1.021929457783699036e-01,-9.632172435522079468e-02,9.237401932477951050e-02,-1.026026904582977295e-01,-5.688701290637254715e-03,1.472309827804565430e-01,-7.916634902358055115e-03,9.130190312862396240e-02,-6.885162740945816040e-02,1.308875679969787598e-01,-2.845374867320060730e-02,-1.591259054839611053e-02,5.384573712944984436e-02,-2.820038236677646637e-02,-7.179396599531173706e-02,1.063828244805335999e-01,1.256112605333328247e-01,1.847365987487137318e-03,-1.447576731443405151e-01,3.777645528316497803e-02,1.299565136432647705e-01,-2.926545217633247375e-02,6.096568703651428223e-02,-9.148678183555603027e-02,3.224271535873413086e-02,-5.496329441666603088e-02,-1.105987504124641418e-01,-4.504923149943351746e-02,1.950732469558715820e-01,-6.878245621919631958e-02,1.470958590507507324e-01,-3.749980404973030090e-02,9.503412293270230293e-04,1.237076073884963989e-01,-1.760384589433670044e-01,1.478443890810012817e-01,-1.845045536756515503e-01,8.852813392877578735e-02,-2.759466134011745453e-02,-1.739947348833084106e-01,-1.925724446773529053e-01,-1.067187637090682983e-01,-2.704224549233913422e-02,2.556238509714603424e-02,5.201999098062515259e-02,-5.905339494347572327e-02,1.429910063743591309e-01,-1.331834793090820312e-01,1.314545422792434692e-01,-7.017486263066530228e-03,1.639652848243713379e-01,1.184460520744323730e-01,2.898617461323738098e-02,2.212379127740859985e-02,6.087354570627212524e-02,-1.207737997174263000e-01,-1.533493250608444214e-01,9.394865483045578003e-02,-2.739819698035717010e-02,1.635740511119365692e-03,9.156356006860733032e-02,-1.378175318241119385e-01,-9.956072270870208740e-02,-9.533204883337020874e-02,-1.906815357506275177e-02,5.618621781468391418e-02,-1.672379970550537109e-01,5.535762757062911987e-02,-1.325463503599166870e-01,1.323211342096328735e-01,8.866436034440994263e-02,-5.641474947333335876e-02,1.169437989592552185e-01,-4.586089029908180237e-02,-1.818083375692367554e-01,-4.590693488717079163e-02,9.343845397233963013e-02,1.115210577845573425e-01
-1.626680195331573486e-01,-1.155711188912391663e-01,2.043038457632064819e-01,1.933898776769638062e-01,-2.071478813886642456e-01,-5.501186847686767578e-02,-1.284755915403366089e-01,-4.893866833299398422e-03,-1.652741618454456329e-02,1.021277979016304016e-01,-3.025636309757828712e-03,-4.220431298017501831e-02,8.787866681814193726e-03,-5.941508337855339050e-02,-3.466728329658508301e-02,-3.892509266734123230e-02,1.051066145300865173e-01,-3.172710910439491272e-02,6.834039092063903809e-02,8.994267135858535767e-02,1.361875832080841064e-01,2.904487252235412598e-01,-1.192302554845809937e-01,9.443181566894054413e-03,-1.519475728273391724e-01,-8.617039769887924194e-02,1.138052195310592651e-01,1.402726769447326660e-01,6.695232540369033813e-02,5.981053784489631653e-02,8.355711400508880615e-02,-1.808501631021499634e-01,8.878722041845321655e-02,3.281763195991516113e-02,-9.369844943284988403e-02,1.355737298727035522e-01,-8.875169605016708374e-02,-1.123461723327636719e-01,-1.885160952806472778e-01,-4.693684726953506470e-02,1.284279823303222656e-01,5.912086367607116699e-02,5.146036297082901001e-02,-1.628011167049407959e-01,-3.267895430326461792e-02,1.459060143679380417e-02,-1.560610830783843994e-01,-2.074869722127914429e-01,-8.405005186796188354e-02,2.466973103582859039e-02,-8.620404452085494995e-02,-3.066903678700327873e-03,-1.006404832005500793e-01,-1.263360381126403809e-01,7.270287722349166870e-02,-4.076617211103439331e-02,-5.943523347377777100e-02,2.136101424694061279e-01,-1.010665073990821838e-01,-9.846347570419311523e-02,1.103459000587463379e-01,1.129621360450983047e-02,1.025501191616058350e-01,7.384563237428665161e-02,1.157326903194189072e-02,-7.208904623985290527e-02,-1.003086939454078674e-01,1.329624652862548828e-01,-3.221620619297027588e-02,-1.991663500666618347e-02,-9.952341020107269287e-02,-1.084259524941444397e-02,-1.527228206396102905e-01,4.088464379310607910e-02,8.319162577390670776e-02,1.355002373456954956e-01,1.988458782434463501e-01,6.695557385683059692e-02,-3.247172757983207703e-02,1.084061637520790100e-01,-1.641499996185302734e-01,8.740748465061187744e-02,1.321459114551544189e-01,-1.606655120849609375e-01,1.203692331910133362e-01,-7.754522562026977539e-02,1.434138417243957520e-01,-8.429704606533050537e-02,2.390182167291641235e-01,-6.004887446761131287e-02,7.941307267174124718e-04,-2.141648530960083008e-01,-1.758887767791748047e-01,1.031920909881591797e-01,1.081564575433731079e-01,5.529908929020166397e-03,-7.727074623107910156e-02,1.412627398967742920e-01,1.311563700437545776e-01,-7.922735065221786499e-02,-3.133186837658286095e-03,-1.198908016085624695e-01,1.855848729610443115e-01,-1.857857704162597656e-01,-9.333725087344646454e-03,9.444426000118255615e-02,-2.406225167214870453e-02,-1.542976647615432739e-01,5.187095701694488525e-02,-1.062840521335601807e-01,1.202182546257972717e-01,1.378128826618194580e-01,1.045505106449127197e-01,6.764737516641616821e-02,8.873807638883590698e-02,1.713499128818511963e-01,-1.950659230351448059e-02,-8.226191997528076172e-02,-4.459445830434560776e-03,-1.147465705871582031e-01,-9.843879938125610352e-02,-1.499294955283403397e-02,1.815452985465526581e-02,-1.270505338907241821e-01,-2.353952080011367798e-02,2.469726502895355225e-01,1.456106007099151611e-01,3.803176060318946838e-02
-5.268761143088340759e-02,-1.408059746026992798e-01,1.168939694762229919e-01,2.359310351312160492e-02,-5.626816675066947937e-02,1.169058233499526978e-01,-1.950938850641250610e-01,9.730477631092071533e-02,9.085838496685028076e-02,1.809315383434295654e-01,-1.651545464992523193e-01,-1.112644374370574951e-01,5.784560739994049072e-02,1.222847774624824524e-01,1.478489954024553299e-02,8.138152211904525757e-02,1.184765547513961792e-01,1.515367180109024048e-01,6.839492172002792358e-02,1.613891273736953735e-01,-7.898788154125213623e-02,-3.079790435731410980e-02,2.876276522874832153e-02,1.751343160867691040e-01,1.303160190582275391e-01,8.744926750659942627e-02,-8.468000590801239014e-02,8.049522340297698975e-02,2.748059295117855072e-02,-3.674233332276344299e-02,1.829935759305953979e-01,2.677152119576931000e-02,-7.471935451030731201e-02,8.698596060276031494e-02,4.672586545348167419e-02,2.630821615457534790e-02,1.303111910820007324e-01,1.821082532405853271e-01,9.495073556900024414e-02,-2.033754885196685791e-01,-4.526085406541824341e-02,2.843319810926914215e-02,-2.690833248198032379e-02,1.499093044549226761e-02,-1.010085493326187134e-01,-1.293564587831497192e-01,-4.283383861184120178e-02,5.041157081723213196e-02,1.356255263090133667e-01,5.512329563498497009e-02,-1.377141773700714111e-01,-1.106421202421188354e-01,8.312941342592239380e-02,-1.058385893702507019e-01,1.971525102853775024e-01,-9.227536618709564209e-02,-1.850266009569168091e-02,-1.851327270269393921e-01,3.620320640038698912e-04,-3.694622544571757317e-03,8.336988091468811035e-02,-1.601814478635787964e-01,7.656913995742797852e-02,1.396426409482955933e-01,-3.626354783773422241e-02,4.396826028823852539e-02,-1.134920716285705566e-01,-9.518619626760482788e-02,1.583049595355987549e-01,1.289908289909362793e-01,1.475679725408554077e-01,2.428995259106159210e-02,-9.450920671224594116e-02,-1.425523757934570312e-01,6.904144305735826492e-03,2.146708220243453979e-02,-1.800131797790527344e-01,-1.334149986505508423e-01,1.303302347660064697e-01,7.911272346973419189e-02,-8.701431751251220703e-02,-1.552458554506301880e-01,-1.085897628217935562e-02,1.046648016199469566e-03,-5.869339406490325928e-02,1.226856634020805359e-01,-7.920234650373458862e-02,-1.202326193451881409e-01,-1.025001257658004761e-01,-1.182815209031105042e-01,1.626248061656951904e-01,-2.427095361053943634e-02,3.225397318601608276e-02,-2.514849416911602020e-02,1.769954264163970947e-01,-8.891977369785308838e-02,-1.266961693763732910e-01,-2.013940215110778809e-01,-1.154680103063583374e-01,-4.270325228571891785e-02,-2.258892655372619629e-01,1.196371838450431824e-01,-8.053226023912429810e-02,-9.079868346452713013e-02,-2.874172478914260864e-02,-8.377537131309509277e-02,7.003769278526306152e-02,9.105164557695388794e-02,3.880755230784416199e-02,1.310846507549285889e-01,1.506943106651306152e-01,-7.021369040012359619e-02,-1.584404855966567993e-01,9.721435606479644775e-03,-1.706296950578689575e-01,3.139597550034523010e-02,-1.225726678967475891e-03,-1.203128397464752197e-01,-1.400224119424819946e-01,-4.567267000675201416e-02,-5.734438449144363403e-02,1.235122904181480408e-01,-2.555407769978046417e-02,-1.173922121524810791e-01,-1.816043406724929810e-01,2.015167148783802986e-03,-1.189768463373184204e-01,1.272030323743820190e-01
-2.542371489107608795e-02,-1.358132809400558472e-01,-6.025964021682739258e-02,1.104279458522796631e-01,3.574438393115997314e-02,-1.302148848772048950e-01,2.819854021072387695e-02,-8.865087875165045261e-04,-3.929957374930381775e-02,-4.937802627682685852e-02,7.451417623087763786e-04,1.374120563268661499e-01,1.386160701513290405e-01,1.012552082538604736e-01,-4.948408529162406921e-02,-1.549997925758361816e-01,-1.304157823324203491e-01,-6.027445569634437561e-02,-1.833843588829040527e-01,-2.179074473679065704e-02,-1.357478946447372437e-01,8.636513352394104004e-02,3.614516928791999817e-03,1.956712901592254639e-01,1.542363408952951431e-02,-1.007531583309173584e-01,-1.158630996942520142e-01,-1.463307440280914307e-01,-7.144547253847122192e-02,-1.270295586436986923e-02,1.797042787075042725e-01,-2.096440410241484642e-03,7.787472009658813477e-02,-1.434319019317626953e-01,4.628641158342361450e-02,-1.482196301221847534e-01,-5.829995125532150269e-02,-5.640242993831634521e-02,-1.339568048715591431e-01,-4.245732724666595459e-02,-1.077359914779663086e-01,8.684793114662170410e-02,2.370249107480049133e-02,1.022220775485038757e-01,1.672893613576889038e-01,-1.840684711933135986e-01,-1.525390241295099258e-02,7.422004709951579571e-04,-1.232966631650924683e-01,3.847877308726310730e-02,6.910550594329833984e-02,-1.039261221885681152e-01,1.375451125204563141e-02,3.202302381396293640e-02,1.635729223489761353e-01,4.565918073058128357e-02,9.241922199726104736e-02,1.533948928117752075e-01,1.036957353353500366e-01,-1.089422218501567841e-02,1.337978690862655640e-01,6.085816770792007446e-02,-3.681110218167304993e-02,-5.500004440546035767e-02,-2.269659005105495453e-02,1.270696669816970825e-01,-1.058416888117790222e-01,-1.375547051429748535e-01,8.175772428512573242e-02,-4.582711309194564819e-02,-1.705100387334823608e-01,-6.841543596237897873e-03,-1.044651716947555542e-01,6.528772413730621338e-02,1.041484065353870392e-02,1.280827671289443970e-01,-6.521688401699066162e-02,-1.222214847803115845e-01,7.032221555709838867e-02,6.912368815392255783e-03,5.314160883426666260e-02,1.230616718530654907e-01,1.515416800975799561e-01,-1.807876825332641602e-01,-5.310015752911567688e-02,1.357549875974655151e-01,-1.798287183046340942e-01,5.111410841345787048e-02,-1.122406646609306335e-01,-5.696794018149375916e-02,8.587862551212310791e-02,-7.548453658819198608e-02,7.877722382545471191e-02,1.412322465330362320e-02,2.009029388427734375e-01,1.180827841162681580e-01,1.126025319099426270e-01,9.288429468870162964e-02,-1.346520520746707916e-02,4.524961486458778381e-02,1.774947345256805420e-01,7.686412427574396133e-03,-6.607106328010559082e-02,1.194214150309562683e-01,5.605279281735420227e-02,1.195274293422698975e-02,1.536608934402465820e-01,6.179264560341835022e-02,-1.046683117747306824e-01,1.370351165533065796e-01,5.931732058525085449e-02,-8.942808210849761963e-02,-7.614188641309738159e-02,-1.214474588632583618e-01,-1.274233758449554443e-01,1.464366316795349121e-01,-5.501667782664299011e-02,6.673867255449295044e-02,-6.232992559671401978e-02,1.663984656333923340e-01,-1.333502531051635742e-01,-1.452159285545349121e-01,-1.613311171531677246e-01,1.246698796749114990e-01,4.888908006250858307e-03,-4.373741149902343750e-02,3.128716954961419106e-03,6.657877564430236816e-02
2.076634317636489868e-01,-4.263583570718765259e-02,1.938370913267135620e-01,9.363420307636260986e-02,-1.539951115846633911e-01,-9.709352999925613403e-02,8.016859740018844604e-02,-7.514286786317825317e-02,-1.398379355669021606e-01,-1.291415095329284668e-01,-1.615093648433685303e-01,4.819524288177490234e-02,3.245609998703002930e-02,-7.820966094732284546e-02,-1.950163394212722778e-01,1.306122392416000366e-01,2.253577560186386108e-01,-1.433161050081253052e-01,-8.052111417055130005e-02,1.769459396600723267e-01,-1.270328368991613388e-02,9.106791019439697266e-02,-2.514246292412281036e-02,1.580773741006851196e-01,-7.223310321569442749e-02,1.153320744633674622e-01,-1.097383201122283936e-01,1.144048422574996948e-01,7.734880317002534866e-03,2.001335769891738892e-01,-1.404614001512527466e-01,5.787787213921546936e-02,1.515238136053085327e-01,-9.620162099599838257e-02,1.283000707626342773e-01,-1.372980028390884399e-01,-2.977608889341354370e-02,-8.248609304428100586e-02,5.456770211458206177e-02,-4.933450371026992798e-02,-1.916710883378982544e-01,4.134101420640945435e-02,-1.277057379484176636e-01,1.904580444097518921e-01,-1.051998063921928406e-01,-2.687341570854187012e-01,-3.652562573552131653e-02,2.178498804569244385e-01,6.871967017650604248e-02,-1.904520839452743530e-01,1.007225960493087769e-01,1.735264062881469727e-01,-5.533558875322341919e-02,1.037864461541175842e-01,-8.055944740772247314e-02,-2.144415378570556641e-01,1.305623538792133331e-02,-5.879199877381324768e-02,-1.520889252424240112e-01,1.613606214523315430e-01,-1.622670441865921021e-01,1.577031761407852173e-01,-1.070234179496765137e-01,7.515691965818405151e-02,2.841602079570293427e-02,-1.811496168375015259e-02,-2.682153508067131042e-02,-1.285814642906188965e-01,-1.411385238170623779e-01,7.245475426316261292e-03,-3.034873306751251221e-02,1.523508429527282715e-01,8.306664228439331055e-02,8.898231387138366699e-02,1.650513112545013428e-01,-1.840636879205703735e-01,8.141514658927917480e-02,5.356479808688163757e-02,-3.215035051107406616e-02,-1.962294429540634155e-01,-2.163292653858661652e-02,1.865078508853912354e-01,2.178277075290679932e-01,1.965537294745445251e-02,-8.405145257711410522e-02,1.374271064996719360e-01,-3.114734077826142311e-03,-2.123854160308837891e-01,2.630703523755073547e-02,7.274579256772994995e-02,9.405905008316040039e-02,2.712080813944339752e-02,-1.288778632879257202e-01,3.565824404358863831e-02,-6.559790670871734619e-02,5.262570828199386597e-02,-1.910761743783950806e-01,-1.229537352919578552e-01,9.220712631940841675e-02,-2.464582175016403198e-01,4.439688473939895630e-02,2.265641391277313232e-01,-8.926963061094284058e-02,-1.796436123549938202e-02,-2.639944851398468018e-01,2.104455232620239258e-01,-1.901556402444839478e-01,1.190559342503547668e-01,-1.735486537218093872e-01,9.239210188388824463e-02,5.524896457791328430e-02,1.414403878152370453e-02,-1.437297463417053223e-01,4.076546058058738708e-02,-4.553554207086563110e-02,-1.398298442363739014e-01,4.720328003168106079e-02,-8.255983144044876099e-02,1.755155324935913086e-01,1.489199548959732056e-01,2.444278262555599213e-02,-1.630598865449428558e-02,7.756466418504714966e-02,6.170527264475822449e-02,1.949178278446197510e-01,2.583030164241790771e-01,-6.810238957405090332e-02,2.229436337947845459e-01
5.851292610168457031e-02,1.202844753861427307e-01,-9.428927674889564514e-03,-1.760418526828289032e-04,-1.727429926395416260e-01,-1.400878280401229858e-01,-6.794223934412002563e-02,-1.641775965690612793e-01,1.330481469631195068e-01,-7.842157036066055298e-03,-5.990510806441307068e-02,6.971664726734161377e-02,-1.424739956855773926e-01,4.646511806640774012e-04,8.239790052175521851e-02,1.155383735895156860e-01,-8.277807384729385376e-02,2.868702635169029236e-02,-3.171236813068389893e-02,1.458682715892791748e-01,-1.356765627861022949e-01,-6.927704066038131714e-02,5.014313757419586182e-02,1.046095415949821472e-02,3.288136422634124756e-02,8.728216588497161865e-02,1.042770966887474060e-01,1.614285260438919067e-01,-4.868272691965103149e-02,-7.706886529922485352e-02,-8.598797768354415894e-02,5.727851390838623047e-02,-1.241592839360237122e-01,-2.570180781185626984e-02,1.042621508240699768e-01,-7.412289828062057495e-02,1.470406353473663330e-01,2.357935346662998199e-02,-5.277437344193458557e-02,-3.058540448546409607e-02,-8.343968540430068970e-02,8.412770181894302368e-02,1.438259333372116089e-01,-1.327019482851028442e-01,-4.359257221221923828e-02,1.817484200000762939e-01,7.344863843172788620e-03,-1.583719812333583832e-02,-1.181970760226249695e-01,1.135015189647674561e-01,7.586639374494552612e-02,-6.870154291391372681e-02,-3.197705373167991638e-03,-1.568937115371227264e-02,9.334919601678848267e-02,-4.726401064544916153e-03,-1.286384910345077515e-01,-1.870101201348006725e-03,-1.721662282943725586e-01,-1.345836520195007324e-01,1.748680472373962402e-01,8.517763763666152954e-02,-1.580846756696701050e-01,4.891762137413024902e-02,-1.434245519340038300e-02,7.691986113786697388e-02,1.954733729362487793e-01,7.354340702295303345e-02,8.301761746406555176e-02,6.141282618045806885e-02,1.130755394697189331e-01,-1.747940480709075928e-01,-1.143530830740928650e-01,-1.426160335540771484e-01,-1.051682606339454651e-01,5.188252311199903488e-03,-5.694615095853805542e-02,-1.093365773558616638e-01,1.496630758047103882e-01,-5.993494391441345215e-02,-1.602811813354492188e-01,9.865605086088180542e-02,6.588962674140930176e-02,-4.726376384496688843e-03,-2.121141646057367325e-03,-7.237059529870748520e-03,-6.054943427443504333e-02,-4.390827938914299011e-02,-1.640586405992507935e-01,-5.704968795180320740e-02,5.390012264251708984e-02,1.382267773151397705e-01,5.079595744609832764e-02,9.210862219333648682e-02,-1.442519277334213257e-01,4.575033206492662430e-03,-8.078388124704360962e-02,-1.303682178258895874e-01,7.470727711915969849e-02,4.943687841296195984e-02,-1.524027734994888306e-01,4.759155586361885071e-02,-9.784674644470214844e-02,-1.564855873584747314e-01,-1.739864796400070190e-01,-1.763803362846374512e-01,-1.275572031736373901e-01,-5.261125415563583374e-02,-1.066533029079437256e-01,1.486418545246124268e-01,-1.617161631584167480e-01,1.967293024063110352e-01,-8.788601309061050415e-02,4.636918008327484131e-02,8.388183265924453735e-02,-1.776314526796340942e-01,1.309297233819961548e-01,-1.465736180543899536e-01,1.224206611514091492e-01,2.851628139615058899e-02,-2.088788896799087524e-02,-1.222612783312797546e-01,1.761048585176467896e-01,-4.634509608149528503e-02,-1.917575299739837646e-01,-4.485314711928367615e-02,4.286150634288787842e-02,-3.833479434251785278e-02
1.325973421335220337e-01,-6.281942129135131836e-02,-6.537485867738723755e-02,-4.562871996313333511e-03,3.872029110789299011e-02,2.838415838778018951e-02,1.205713823437690735e-01,4.427884146571159363e-02,-1.222241371870040894e-01,-1.765789836645126343e-01,-5.919214710593223572e-02,7.565045356750488281e-02,-8.692301809787750244e-02,-6.552531570196151733e-02,-8.391734957695007324e-02,-9.547437727451324463e-02,2.043190449476242065e-01,-1.978939026594161987e-02,2.374743926338851452e-04,2.527669444680213928e-02,6.220714747905731201e-02,5.711606889963150024e-02,1.846766918897628784e-01,1.034931764006614685e-01,4.668974503874778748e-02,1.010904833674430847e-01,-9.553639590740203857e-02,-1.251405775547027588e-01,-5.764960870146751404e-02,8.134195208549499512e-02,-1.162616834044456482e-01,3.477395698428153992e-02,5.812646448612213135e-02,5.280607193708419800e-02,-1.672343909740447998e-01,-1.373069137334823608e-01,-2.866598404943943024e-02,-9.856041520833969116e-02,-1.184017509222030640e-01,-1.110965162515640259e-01,-7.202899456024169922e-02,-7.795965764671564102e-03,3.251653909683227539e-02,-5.710328742861747742e-02,-7.452031224966049194e-02,-2.606277167797088623e-02,4.011759907007217407e-02,5.325556173920631409e-02,-7.300339057110249996e-04,6.746438890695571899e-02,-5.367755144834518433e-02,1.456893086433410645e-01,-9.098808467388153076e-02,6.479578465223312378e-02,5.942232906818389893e-02,-2.965385466814041138e-02,1.337672472000122070e-01,-1.081504002213478088e-01,1.045327037572860718e-01,-5.558506771922111511e-02,3.565715253353118896e-02,1.271283626556396484e-01,1.503679454326629639e-01,-3.308030590415000916e-02,-1.511302292346954346e-01,1.777058690786361694e-01,-1.106213629245758057e-01,1.267309486865997314e-01,-6.394275277853012085e-02,-1.556453406810760498e-01,-2.626659534871578217e-02,-7.956656813621520996e-02,-6.342978775501251221e-02,-1.143799599958583713e-04,1.077695935964584351e-01,-7.265545427799224854e-02,-3.089462779462337494e-02,9.465690702199935913e-02,1.397563368082046509e-01,-1.135440096259117126e-01,-1.014223322272300720e-02,4.198954440653324127e-03,-1.424305373802781105e-03,1.080373004078865051e-01,-1.563707292079925537e-01,1.233299225568771362e-01,9.685649722814559937e-02,8.112914115190505981e-02,-6.817138940095901489e-02,-5.596256256103515625e-02,-4.341083392500877380e-02,-1.289602816104888916e-01,3.020367212593555450e-02,-1.147439032793045044e-01,-3.371345996856689453e-02,6.131634861230850220e-02,5.485284328460693359e-02,-4.476212337613105774e-02,-6.476314738392829895e-03,-1.361510753631591797e-01,-5.968265980482101440e-02,-1.034340336918830872e-01,-5.243176594376564026e-02,1.490432769060134888e-01,3.962873294949531555e-02,1.676778644323348999e-01,3.703797981142997742e-02,-2.658118121325969696e-02,1.593756228685379028e-01,-7.464588433504104614e-02,-5.185846984386444092e-02,-1.264920681715011597e-01,-2.334226667881011963e-02,-1.088611930608749390e-01,-5.066626146435737610e-02,1.219436675310134888e-01,1.172197088599205017e-01,9.591771662235260010e-02,-7.658096030354499817e-03,2.128945896402001381e-03,-1.879054494202136993e-02,-1.568043529987335205e-01,9.461626410484313965e-02,5.664212629199028015e-02,-1.255594342947006226e-01,7.919836044311523438e-02,-1.376755386590957642e-01,9.660051017999649048e-02
2.738414406776428223e-01,3.384143114089965820e-02,3.235304355621337891e-01,1.574828624725341797e-01,-6.243815645575523376e-03,6.147998571395874023e-02,-9.465348720550537109e-02,9.593322873115539551e-02,1.446963567286729813e-02,-1.064339429140090942e-01,3.671192750334739685e-02,2.192688435316085815e-01,-1.677487790584564209e-01,2.041937410831451416e-01,-4.396262113004922867e-03,2.366593182086944580e-01,-1.242426317185163498e-02,-1.648103259503841400e-02,1.354185938835144043e-01,4.084854200482368469e-02,1.228546053171157837e-01,1.945413649082183838e-01,-1.437074989080429077e-01,3.425853848457336426e-01,-4.207197111099958420e-03,2.470337301492691040e-01,1.308702677488327026e-01,8.269417285919189453e-02,1.790141612291336060e-01,-6.196901947259902954e-02,6.162684876471757889e-03,-3.871599212288856506e-02,1.452933996915817261e-01,-1.795644313097000122e-01,-8.313242346048355103e-03,4.629057273268699646e-02,-2.263197302818298340e-01,-1.547377407550811768e-01,1.893654018640518188e-01,6.050063669681549072e-02,-1.910851597785949707e-01,-2.045168578624725342e-01,-1.964499950408935547e-01,7.554208859801292419e-03,1.303565800189971924e-01,-1.257459819316864014e-01,2.092056535184383392e-02,1.413249522447586060e-01,6.957396864891052246e-02,-1.782951503992080688e-01,-5.165844038128852844e-02,2.146361768245697021e-01,-2.110752016305923462e-01,-7.710170000791549683e-02,-2.053691297769546509e-01,-1.232930645346641541e-02,-1.308005303144454956e-02,1.013678014278411865e-01,-1.933381110429763794e-01,-5.130239576101303101e-02,1.480374578386545181e-02,-9.487675130367279053e-02,6.294012069702148438e-02,-3.995370119810104370e-02,-2.659029141068458557e-02,3.255996108055114746e-02,-1.947801262140274048e-01,-3.408455103635787964e-02,5.348269268870353699e-02,-3.345471918582916260e-01,-1.139234304428100586e-01,-2.119193971157073975e-02,1.497305184602737427e-01,5.065073072910308838e-02,2.414690256118774414e-01,-5.763081461191177368e-02,1.279598176479339600e-01,5.060894787311553955e-02,-9.078912436962127686e-02,-3.386456519365310669e-02,1.951864510774612427e-01,3.003117144107818604e-01,4.622533544898033142e-02,-1.520765423774719238e-01,-8.474084734916687012e-02,-9.912089258432388306e-02,-7.923740148544311523e-02,-1.962309479713439941e-01,4.769705608487129211e-02,7.329399697482585907e-03,-1.062517911195755005e-01,-9.536702185869216919e-02,-1.137865334749221802e-01,2.905376255512237549e-01,1.805431991815567017e-01,7.455758750438690186e-02,-1.490901708602905273e-01,2.030150443315505981e-01,-1.114632338285446167e-01,-3.141000866889953613e-02,-8.161260932683944702e-02,2.721196413040161133e-01,-4.976683482527732849e-02,3.664044663310050964e-02,-2.690925896167755127e-01,2.774911522865295410e-01,9.365496225655078888e-03,3.005684614181518555e-01,-2.715213894844055176e-01,-1.834726929664611816e-01,-1.579202413558959961e-01,-2.065072059631347656e-01,-6.127205491065979004e-02,1.062133908271789551e-01,-2.297664433717727661e-01,-9.291547536849975586e-02,6.974007189273834229e-02,-6.599944084882736206e-02,1.699690520763397217e-02,2.813762426376342773e-01,5.361006036400794983e-02,2.306979894638061523e-01,2.765890359878540039e-01,2.288472205400466919e-01,-5.964835290797054768e-04,8.787150727584958076e-04,-4.663860797882080078e-02,-2.627969905734062195e-02
8.891954086720943451e-03,-9.092729538679122925e-02,-1.311151087284088135e-01,-4.013022780418395996e-02,1.351652294397354126e-01,7.954298704862594604e-02,-1.144907101988792419e-01,-7.749644666910171509e-02,-1.119034886360168457e-01,1.616595685482025146e-01,4.303949698805809021e-02,3.934072703123092651e-02,-1.492144912481307983e-01,-7.552887499332427979e-02,-1.030864790081977844e-01,-1.118772849440574646e-01,-1.170356050133705139e-01,-6.879074126482009888e-02,-1.831744983792304993e-02,-1.009491384029388428e-01,-1.417753398418426514e-01,-1.237788870930671692e-01,1.497246176004409790e-01,-5.036488175392150879e-02,4.907297715544700623e-02,-7.848272472620010376e-02,-1.698912680149078369e-01,-4.535454139113426208e-02,7.752881851047277451e-03,8.643584698438644409e-02,9.784891456365585327e-02,1.774632781744003296e-01,4.381654039025306702e-02,1.821223944425582886e-01,-3.008569357916712761e-03,1.198260560631752014e-01,1.604671478271484375e-01,1.540732234716415405e-01,5.864912644028663635e-02,1.246257126331329346e-01,1.067083030939102173e-01,-1.412659138441085815e-01,1.699097901582717896e-01,-1.369423121213912964e-01,1.230478137731552124e-01,1.204354166984558105e-01,3.016478195786476135e-02,-1.567324846982955933e-01,-1.676521301269531250e-01,6.995058804750442505e-02,9.132445789873600006e-03,7.980161160230636597e-02,9.104831144213676453e-03,-5.187851190567016602e-02,1.785242557525634766e-02,-1.662532091140747070e-01,-1.021727770566940308e-01,-2.763539366424083710e-02,-6.132360175251960754e-02,-1.443942934274673462e-01,-1.556676924228668213e-01,6.219143792986869812e-02,3.515591472387313843e-02,-1.002357676625251770e-01,1.200644224882125854e-01,-1.437283009290695190e-01,1.027111709117889404e-01,1.536924391984939575e-01,-8.476536720991134644e-02,1.679782569408416748e-01,1.878363788127899170e-01,-2.154347673058509827e-02,8.865264058113098145e-02,1.144658699631690979e-01,-1.586879491806030273e-01,1.312601193785667419e-02,-6.791532039642333984e-02,4.992358013987541199e-02,1.567824371159076691e-02,-4.984189569950103760e-02,-3.278952091932296753e-02,-9.964347630739212036e-02,9.047286212444305420e-02,1.344735175371170044e-01,-6.068925186991691589e-02,-4.294846206903457642e-02,-7.728220522403717041e-02,1.474957680329680443e-04,-5.910730361938476562e-02,-9.348764084279537201e-03,3.606647020205855370e-03,3.959282115101814270e-02,5.370268970727920532e-02,7.274676859378814697e-02,-1.487385183572769165e-01,1.504958420991897583e-01,1.626753211021423340e-01,-1.123641338199377060e-02,-1.094197481870651245e-01,-9.266562759876251221e-03,-1.178520843386650085e-01,-9.987735003232955933e-02,5.032786726951599121e-02,1.202624440193176270e-01,1.184486970305442810e-01,3.055188339203596115e-03,2.991793118417263031e-02,-1.157326400279998779e-01,-9.609450586140155792e-03,-1.245013810694217682e-02,6.679398473352193832e-03,2.994383126497268677e-02,-1.297626793384552002e-01,-6.387547403573989868e-02,-1.381340175867080688e-01,1.141000017523765564e-01,-1.307276636362075806e-01,-1.126569062471389771e-01,1.202488765120506287e-01,1.494490355253219604e-01,9.888094663619995117e-02,-5.536538735032081604e-02,-8.744129538536071777e-02,4.640073701739311218e-02,-1.885329037904739380e-01,-1.496079713106155396e-01,1.730049699544906616e-01,1.731388866901397705e-01
-3.558561950922012329e-02,-1.114916428923606873e-01,1.707329154014587402e-01,1.136405244469642639e-01,-3.536189347505569458e-02,1.369265764951705933e-01,-1.065969616174697876e-01,1.016541272401809692e-01,9.573243558406829834e-02,1.543485671281814575e-01,2.938076853752136230e-02,1.354956179857254028e-01,1.171151995658874512e-01,-9.627778083086013794e-02,-5.974960979074239731e-03,2.536965906620025635e-02,5.795696005225181580e-02,1.388308405876159668e-01,-9.089687466621398926e-02,-8.755701780319213867e-02,2.877038670703768730e-03,-4.148557782173156738e-02,1.566320657730102539e-01,1.626406908035278320e-01,4.316771775484085083e-02,-6.984981894493103027e-02,-1.034733578562736511e-01,1.059719622135162354e-01,1.650581657886505127e-01,-6.873822212219238281e-02,-2.190243825316429138e-02,-6.085632368922233582e-02,6.240046769380569458e-02,5.123686417937278748e-02,1.554453521966934204e-01,1.941213160753250122e-01,1.047727391123771667e-01,1.934413425624370575e-02,1.990711987018585205e-01,1.834395080804824829e-01,1.030153036117553711e-01,4.585435613989830017e-02,-2.158493548631668091e-02,1.266917437314987183e-01,7.564254850149154663e-02,-3.878724947571754456e-02,-1.238332986831665039e-01,-6.158996000885963440e-02,-1.492108684033155441e-03,1.019462347030639648e-01,-6.422064453363418579e-02,4.940804559737443924e-03,5.788548663258552551e-02,-1.586391590535640717e-02,-4.091899842023849487e-02,1.610489934682846069e-01,-3.292028233408927917e-02,-1.705550551414489746e-01,7.033626735210418701e-02,1.427626460790634155e-01,6.624127179384231567e-02,-6.115466356277465820e-02,1.366362869739532471e-01,1.035648435354232788e-01,4.640451818704605103e-02,7.890924462117254734e-04,-2.169459126889705658e-02,-1.203269287943840027e-01,-2.460798621177673340e-02,6.498237699270248413e-02,1.219571456313133240e-01,1.979005634784698486e-01,-1.393150538206100464e-01,-1.281151175498962402e-01,-5.822067335247993469e-02,-2.204836532473564148e-02,-1.830035746097564697e-01,4.617751017212867737e-02,4.200770333409309387e-02,9.712469577789306641e-02,1.017103716731071472e-01,5.393417179584503174e-02,3.594821691513061523e-02,-1.606903374195098877e-01,-1.658932119607925415e-01,-1.426153182983398438e-01,-5.763339996337890625e-02,2.481530234217643738e-02,-3.771796077489852905e-02,-2.480457909405231476e-02,3.527733311057090759e-02,-8.984330296516418457e-02,-9.112762659788131714e-02,1.731865257024765015e-01,1.746545135974884033e-01,1.111543998122215271e-01,1.504939496517181396e-01,1.229603439569473267e-01,1.781407594680786133e-01,2.601613663136959076e-02,1.631055474281311035e-01,-9.692678600549697876e-02,-9.215207397937774658e-02,-6.743293255567550659e-02,3.866906091570854187e-02,-1.534364670515060425e-01,1.067108213901519775e-01,-8.762826025485992432e-02,-1.742824353277683258e-02,3.126427531242370605e-02,1.210514530539512634e-01,7.405608892440795898e-02,3.773949667811393738e-02,1.739529222249984741e-01,-1.162550076842308044e-01,-6.070563197135925293e-02,-1.158418729901313782e-01,-2.483872137963771820e-02,-1.641146987676620483e-01,-1.050547510385513306e-02,1.999914497137069702e-01,1.048744842410087585e-01,4.021015949547290802e-03,1.834380924701690674e-01,7.880142331123352051e-02,-6.456367671489715576e-02,-1.475485265254974365e-01,5.733994767069816589e-02
2.714611217379570007e-02,1.187840476632118225e-01,-1.025004461407661438e-01,1.918000914156436920e-02,-1.793379783630371094e-01,-1.391097623854875565e-02,1.794024705886840820e-01,4.216939583420753479e-02,-1.574132889509201050e-01,-7.117088139057159424e-02,1.105253100395202637e-01,3.874590992927551270e-02,-1.740026772022247314e-01,-7.873585075139999390e-02,2.778647094964981079e-02,-1.428059041500091553e-01,-2.009906917810440063e-01,-1.457564681768417358e-01,3.277926146984100342e-02,-9.758403152227401733e-02,-9.772903472185134888e-02,-4.268894344568252563e-02,-1.050814287737011909e-03,-2.119161188602447510e-02,1.030577197670936584e-01,1.422908250242471695e-02,-1.572155207395553589e-01,-1.621569544076919556e-01,-4.711447283625602722e-02,-1.661249697208404541e-01,1.668643653392791748e-01,2.255943045020103455e-02,-1.733257919549942017e-01,-4.969466850161552429e-02,-1.695127226412296295e-02,7.805431634187698364e-02,7.078007608652114868e-02,7.342812418937683105e-02,3.945738449692726135e-02,-1.551558226346969604e-01,1.976765543222427368e-01,1.272207647562026978e-01,-1.590207591652870178e-02,-1.973674595355987549e-01,-2.657881751656532288e-02,-8.682520687580108643e-02,1.000859811902046204e-01,-1.389089971780776978e-01,1.129397898912429810e-01,-1.358617395162582397e-01,-1.678754538297653198e-01,5.783916637301445007e-02,9.714844822883605957e-02,-5.257496610283851624e-02,-1.265508830547332764e-01,-1.376420706510543823e-01,3.191495314240455627e-02,1.117263883352279663e-01,1.146515905857086182e-01,-1.532090753316879272e-01,1.279320102185010910e-02,-1.020652055740356445e-01,7.012601196765899658e-02,1.761063784360885620e-01,-1.291694790124893188e-01,-1.486803889274597168e-01,-3.556554391980171204e-02,-7.138383388519287109e-02,5.537387356162071228e-02,3.650402650237083435e-02,5.953835323452949524e-02,1.000777184963226318e-01,-1.498131304979324341e-01,3.468779847025871277e-02,-3.037836588919162750e-02,1.135223917663097382e-02,1.763997226953506470e-01,-1.073137894272804260e-01,6.283181905746459961e-02,-1.623768955469131470e-01,-6.906510889530181885e-02,1.399113889783620834e-02,-1.474926322698593140e-01,-9.589930064976215363e-03,8.885852992534637451e-02,-1.318500787019729614e-01,1.076562255620956421e-01,8.037815801799297333e-03,-1.180354133248329163e-01,9.066300094127655029e-02,1.521481759846210480e-02,7.294127345085144043e-02,-9.636858105659484863e-02,-4.532682150602340698e-02,-9.450442157685756683e-03,-1.707595139741897583e-01,2.120365388691425323e-02,-4.983676597476005554e-02,-3.363645821809768677e-02,1.027324721217155457e-01,-6.998344510793685913e-02,-1.620494574308395386e-01,6.033971905708312988e-02,1.729159355163574219e-01,-4.084606468677520752e-02,1.817218214273452759e-02,2.268288470804691315e-02,-1.438767015933990479e-01,-8.361149579286575317e-02,-5.979962646961212158e-02,1.810402125120162964e-01,-1.134360954165458679e-01,1.290131509304046631e-01,-1.284993588924407959e-01,-4.664802178740501404e-02,2.413732558488845825e-02,3.284086240455508232e-03,1.899466812610626221e-01,1.627496331930160522e-01,-1.983028501272201538e-01,6.347316503524780273e-02,-1.990156322717666626e-01,8.812788873910903931e-03,-6.758464872837066650e-02,8.518140763044357300e-02,-3.015724569559097290e-02,-7.756543159484863281e-02,9.626504778861999512e-02
2.139130383729934692e-01,-5.445353221148252487e-03,1.575619913637638092e-02,1.570484042167663574e-01,-2.051834762096405029e-02,2.228501811623573303e-02,-9.463664144277572632e-02,-1.109904944896697998e-01,4.451955109834671021e-02,-9.678153693675994873e-02,-1.132648065686225891e-01,-6.997981667518615723e-02,-8.891466073691844940e-03,-4.623096063733100891e-02,8.716514706611633301e-02,-3.680448606610298157e-02,-7.306706905364990234e-02,-2.751159854233264923e-02,-1.442571431398391724e-01,-1.123004476539790630e-03,8.883773535490036011e-02,-7.127698510885238647e-02,-1.478391438722610474e-01,4.113096371293067932e-02,-1.356703042984008789e-01,-7.948958873748779297e-02,-1.032347753643989563e-01,-6.796316802501678467e-02,-6.207562983036041260e-03,-1.374511569738388062e-01,5.043774843215942383e-02,7.927699387073516846e-02,-1.095321252942085266e-01,-1.904263198375701904e-01,-2.521030232310295105e-02,8.549973368644714355e-03,4.051405191421508789e-02,1.447015702724456787e-01,-1.102108806371688843e-01,7.325661927461624146e-02,-1.914653927087783813e-01,-1.103795948438346386e-03,1.069788262248039246e-01,2.130221724510192871e-01,-3.851161897182464600e-02,4.855165630578994751e-02,1.235767900943756104e-01,1.357029825448989868e-01,7.132373005151748657e-02,-1.075757741928100586e-01,1.123570725321769714e-01,9.609980136156082153e-02,-1.747364103794097900e-01,1.526588797569274902e-01,1.846069693565368652e-01,-1.630353778600692749e-01,5.629105865955352783e-02,-1.117823645472526550e-01,1.457375735044479370e-01,-6.317024677991867065e-02,2.514276094734668732e-02,1.471098959445953369e-01,-1.782973706722259521e-01,1.111181899905204773e-01,-1.234280541539192200e-01,-1.032187491655349731e-01,-7.449033111333847046e-02,1.050350442528724670e-01,1.157196536660194397e-01,-2.151786535978317261e-02,3.614478558301925659e-02,1.957718133926391602e-01,1.199139878153800964e-01,-1.910580508410930634e-02,1.599615067243576050e-01,1.929843984544277191e-02,-1.236809119582176208e-01,1.244576349854469299e-01,-2.521975897252559662e-02,-1.162688806653022766e-01,8.004289120435714722e-02,1.860485672950744629e-01,7.506410032510757446e-02,-6.844525784254074097e-02,-5.991135165095329285e-02,2.008970975875854492e-01,-9.546663612127304077e-02,1.245098933577537537e-01,1.706994026899337769e-01,7.190360873937606812e-02,5.656397715210914612e-02,-7.322953641414642334e-02,3.061129339039325714e-02,2.858449891209602356e-02,-8.022689726203680038e-04,-2.074435353279113770e-01,-1.888356171548366547e-02,4.600610584020614624e-02,-1.289799511432647705e-01,-1.751189380884170532e-01,-7.611762732267379761e-02,9.849587827920913696e-02,-1.595455408096313477e-01,1.272230297327041626e-01,1.082313619554042816e-02,1.565649509429931641e-01,-7.623429875820875168e-03,5.754974856972694397e-02,5.873894691467285156e-02,2.131072105839848518e-03,-1.271881163120269775e-02,-8.676623553037643433e-02,-3.411412611603736877e-02,1.888188719749450684e-01,1.819467544555664062e-01,-1.434022784233093262e-01,-8.891493082046508789e-02,7.856483757495880127e-02,1.076903417706489563e-01,1.559573411941528320e-01,4.092310369014739990e-02,-1.266263723373413086e-01,1.300007849931716919e-01,6.071488931775093079e-02,-1.315678060054779053e-01,2.098239958286285400e-02,-1.404849588871002197e-01,4.987319558858871460e-02
