1.484522521495819092e-01,7.133455574512481689e-02,-1.822865754365921021e-01,5.057025700807571411e-02,-1.401991248130798340e-01,1.248819157481193542e-01,-1.239961385726928711e-01,-4.015804454684257507e-02,1.786373853683471680e-01,9.632629156112670898e-02,-1.583682596683502197e-01,1.582021266222000122e-01,-1.124615781009197235e-02,-7.662836462259292603e-03,1.262630671262741089e-01,9.126908332109451294e-02,3.249350469559431076e-03,1.199688687920570374e-01,-3.872624784708023071e-02,8.754115551710128784e-02,6.539648771286010742e-02,4.210149124264717102e-02,1.582136750221252441e-01,7.552346587181091309e-02,-1.048739105463027954e-01,3.728467226028442383e-02,1.032165512442588806e-01,-1.043203026056289673e-01,8.221573196351528168e-03,7.645080238580703735e-02,6.493921577930450439e-02,1.415341161191463470e-02,6.635602563619613647e-02,1.269557476043701172e-01,8.362051844596862793e-02,-1.143189296126365662e-01,2.433696202933788300e-02,1.297039724886417389e-02,-9.520627558231353760e-02,-1.298271864652633667e-01,1.803095191717147827e-01,-2.814126387238502502e-02,-4.064593836665153503e-02,-9.132923185825347900e-02,2.322535365819931030e-01,2.639971077442169189e-01,5.970590189099311829e-02,4.983725398778915405e-02,-8.716443181037902832e-02,4.199336469173431396e-02,2.418759912252426147e-01,-5.755129829049110413e-02,4.274076595902442932e-02,-3.920330479741096497e-02,-1.843545287847518921e-01,7.100377231836318970e-02,-3.645809367299079895e-02,1.373193413019180298e-01,6.005201116204261780e-02,2.602835558354854584e-02,7.943034917116165161e-02,-4.743612837046384811e-03,1.082382202148437500e-01,-1.099784523248672485e-01
2.067277431488037109e-01,-9.094545990228652954e-02,6.744007579982280731e-03,9.829172864556312561e-03,1.711189001798629761e-01,-1.630896627902984619e-01,-8.732587844133377075e-02,1.940864622592926025e-01,2.341134287416934967e-02,-3.414723649621009827e-02,1.740201376378536224e-02,2.020107805728912354e-01,1.339577287435531616e-01,2.335445582866668701e-02,1.457719206809997559e-01,1.497884839773178101e-01,4.273011349141597748e-03,1.572953313589096069e-01,-1.983285695314407349e-02,-4.092392325401306152e-02,2.373880743980407715e-01,-1.559625715017318726e-01,8.980263024568557739e-02,-3.416703641414642334e-02,-5.276026576757431030e-02,5.274603888392448425e-02,-4.213800281286239624e-02,1.804885454475879669e-02,-1.740194670855998993e-02,1.136786043643951416e-01,7.867464423179626465e-02,2.896488457918167114e-02,1.109290048480033875e-01,-1.351320296525955200e-01,1.025287210941314697e-01,1.400561183691024780e-01,1.578929573297500610e-01,-7.777883857488632202e-02,-9.288687258958816528e-02,1.769628822803497314e-01,-3.518513590097427368e-02,3.428173437714576721e-02,-5.100369080901145935e-02,-1.281702220439910889e-01,-1.237167045474052429e-02,-2.059348672628402710e-02,3.030510060489177704e-02,1.295831054449081421e-01,2.436389960348606110e-02,-2.098694210872054100e-03,1.252802740782499313e-02,1.440728902816772461e-01,-1.086463034152984619e-01,1.477399319410324097e-01,1.099869757890701294e-01,1.316289752721786499e-01,1.367879100143909454e-02,-9.799335896968841553e-02,9.281398355960845947e-02,9.880881756544113159e-03,5.461061373353004456e-02,-2.680301852524280548e-02,-1.840882003307342529e-02,-3.181572537869215012e-03
-2.737261541187763214e-02,-1.016110926866531372e-01,1.039310544729232788e-01,1.181728616356849670e-01,1.615954339504241943e-01,1.096665039658546448e-01,2.730450034141540527e-01,9.681908786296844482e-02,5.525771901011466980e-02,-4.779837280511856079e-02,-3.906992496922612190e-04,1.225399151444435120e-01,-3.293571621179580688e-02,6.302370876073837280e-02,9.550670534372329712e-02,4.086287692189216614e-02,2.891976572573184967e-02,1.307405680418014526e-01,1.641731411218643188e-01,1.076641827821731567e-01,6.009519100189208984e-02,1.373453885316848755e-01,-1.571974158287048340e-01,-1.328910700976848602e-03,-6.592596322298049927e-02,1.315355896949768066e-01,1.124916481785476208e-03,-5.703806132078170776e-02,2.466734647750854492e-01,1.149443387985229492e-01,-3.955617174506187439e-02,-1.577013544738292694e-02,-5.025521665811538696e-02,1.637858748435974121e-01,8.461564034223556519e-02,1.851843297481536865e-02,-1.286909580230712891e-01,-2.069580554962158203e-01,2.591238021850585938e-01,7.512393593788146973e-02,2.437177449464797974e-01,-1.663189530372619629e-01,-5.011135339736938477e-02,-1.462308107875287533e-03,6.999728083610534668e-02,1.645743250846862793e-01,1.388661265373229980e-01,6.078488379716873169e-02,-1.851853355765342712e-02,2.495757043361663818e-01,-2.207642607390880585e-02,-8.804100751876831055e-02,1.465855836868286133e-01,-1.980710178613662720e-01,-1.230288743972778320e-01,1.278854310512542725e-01,-2.322903573513031006e-01,1.685755550861358643e-01,7.513599842786788940e-02,2.638469636440277100e-01,-7.701553869992494583e-03,-1.966270059347152710e-01,1.456317454576492310e-01,1.343864668160676956e-02
-3.256173571571707726e-03,1.262646317481994629e-01,1.344072967767715454e-01,-1.675645709037780762e-01,8.404985070228576660e-02,-9.599959850311279297e-02,6.861509382724761963e-02,-1.618571728467941284e-01,1.411576271057128906e-01,-1.377154886722564697e-01,1.877158880233764648e-01,2.445635646581649780e-01,5.904407426714897156e-02,-1.478534340858459473e-01,-3.281288594007492065e-02,-1.563620418310165405e-01,-5.739124491810798645e-02,1.120957359671592712e-01,-4.248727113008499146e-02,1.731792092323303223e-01,1.748889535665512085e-01,-1.200105622410774231e-01,-1.427319347858428955e-01,9.148865006864070892e-03,2.180356904864311218e-02,-1.460175365209579468e-01,1.173735260963439941e-01,2.785590663552284241e-02,1.568811535835266113e-01,-7.005907595157623291e-02,1.208997443318367004e-01,-1.372819691896438599e-01,1.429597884416580200e-01,-5.006653070449829102e-02,1.050868444144725800e-02,1.203704043291509151e-03,-8.234052360057830811e-02,-9.644922614097595215e-02,1.487770974636077881e-01,2.555819787085056305e-02,1.931837946176528931e-01,1.589097678661346436e-01,-1.389178335666656494e-01,7.610106468200683594e-02,1.552159339189529419e-01,-1.316117309033870697e-02,3.552310541272163391e-02,-4.324490204453468323e-02,-1.389756053686141968e-01,7.859536446630954742e-03,-1.631482876837253571e-02,7.567803561687469482e-02,-1.146320924162864685e-01,-9.313630312681198120e-02,-1.927388161420822144e-01,1.965464800596237183e-01,1.468807160854339600e-01,-5.564992874860763550e-02,1.294698417186737061e-01,1.277508139610290527e-01,-1.321347504854202271e-01,4.355631303042173386e-03,7.509296387434005737e-02,9.935713559389114380e-02
8.836238831281661987e-02,-4.140776023268699646e-02,-3.771713376045227051e-02,2.583762817084789276e-02,-1.249923855066299438e-01,2.407054603099822998e-02,-4.357568453997373581e-03,-1.366953253746032715e-01,1.303759813308715820e-01,6.923635303974151611e-02,2.359766513109207153e-01,1.036705970764160156e-01,7.631815969944000244e-02,2.185369879007339478e-01,6.733074039220809937e-02,-1.364277899265289307e-01,-7.743083685636520386e-02,-7.395207136869430542e-02,-1.922845840454101562e-01,-9.572203271090984344e-03,2.677850797772407532e-02,-1.282624900341033936e-02,1.759064495563507080e-01,-1.142910420894622803e-01,-3.090636059641838074e-02,1.050626635551452637e-01,1.711658388376235962e-01,1.959109157323837280e-01,-1.655690073966979980e-01,1.002138853073120117e-01,-4.815318435430526733e-02,1.348330527544021606e-01,1.527566313743591309e-01,-1.020323187112808228e-01,-1.305193901062011719e-01,8.110933750867843628e-02,1.461972594261169434e-01,-2.723671309649944305e-02,1.168017238378524780e-01,1.245653256773948669e-01,9.678002446889877319e-02,7.710824161767959595e-02,1.821761578321456909e-01,7.298180460929870605e-02,-1.494423300027847290e-01,1.315221935510635376e-01,-1.291048526763916016e-01,1.321118921041488647e-01,1.119794975966215134e-02,6.169146299362182617e-02,7.894947379827499390e-02,-1.609231531620025635e-01,-1.548980027437210083e-01,1.460087895393371582e-01,-1.563387960195541382e-01,-1.338614374399185181e-01,6.198709458112716675e-02,-9.655086696147918701e-02,1.220951322466135025e-02,-2.566933259367942810e-02,-4.322004970163106918e-04,2.321759052574634552e-02,-5.327156279236078262e-03,4.887026920914649963e-02
-2.159477956593036652e-02,-1.934728622436523438e-01,-2.486848272383213043e-02,-3.392395004630088806e-02,-5.673803761601448059e-02,-4.387250542640686035e-02,-1.483236532658338547e-02,1.541099995374679565e-01,1.637417823076248169e-01,-1.255066245794296265e-01,3.453369811177253723e-02,1.445516645908355713e-01,-4.080063197761774063e-03,-7.667008321732282639e-03,4.727977141737937927e-02,1.111575737595558167e-01,4.303305596113204956e-02,3.883818164467811584e-02,-5.663707107305526733e-02,1.194841116666793823e-01,1.312856525182723999e-01,1.722581088542938232e-01,-6.705398857593536377e-02,-1.555478274822235107e-01,-3.967952728271484375e-02,-5.193403735756874084e-02,1.232123672962188721e-01,-1.058744415640830994e-01,-6.755672395229339600e-03,1.749544739723205566e-01,1.006350517272949219e-01,-8.350574225187301636e-02,-7.555671036243438721e-02,-9.554605185985565186e-02,-1.850546598434448242e-01,2.076548784971237183e-01,5.438628792762756348e-02,1.349915564060211182e-01,-1.190203614532947540e-02,1.946449428796768188e-01,3.648736281320452690e-03,-1.326228529214859009e-01,1.406355202198028564e-01,-9.166135638952255249e-02,8.630374073982238770e-02,-4.643021151423454285e-02,2.057174034416675568e-02,-7.369795441627502441e-02,-1.880281418561935425e-01,2.314762771129608154e-01,-1.452603191137313843e-01,4.366024513728916645e-04,-1.141648143529891968e-01,9.886939078569412231e-02,3.574406355619430542e-02,2.266135998070240021e-02,3.434949219226837158e-01,-1.086031273007392883e-01,1.244932264089584351e-01,-4.724685847759246826e-02,6.697535514831542969e-02,1.762832254171371460e-01,-9.033542871475219727e-02,1.455107182264328003e-01
-5.112196877598762512e-02,5.224996805191040039e-02,1.033645123243331909e-01,6.880142539739608765e-02,-3.857951611280441284e-02,-1.453159600496292114e-01,-6.865853816270828247e-02,5.330615490674972534e-02,7.072462141513824463e-02,1.269527077674865723e-01,-1.059390679001808167e-01,8.627545088529586792e-03,-1.635181158781051636e-01,-1.701284050941467285e-01,3.579026088118553162e-02,2.544549293816089630e-02,1.144758015871047974e-01,1.422264575958251953e-01,1.663802415132522583e-01,2.062183022499084473e-01,-3.097322955727577209e-02,1.362867802381515503e-01,-3.881699591875076294e-02,4.434558749198913574e-02,8.166285604238510132e-02,1.522794961929321289e-01,-1.651892662048339844e-01,7.737098634243011475e-02,-4.875559359788894653e-03,-1.525093615055084229e-01,-2.800768055021762848e-02,-1.489573121070861816e-01,-7.389768213033676147e-02,1.088697314262390137e-01,5.455829203128814697e-02,-1.081990599632263184e-01,-2.119209617376327515e-01,-3.526541963219642639e-02,1.539785712957382202e-01,9.558489918708801270e-02,-1.388572156429290771e-01,-4.352595284581184387e-02,-1.613282114267349243e-01,-1.229048520326614380e-01,1.125408411026000977e-01,1.881847679615020752e-01,-6.362240761518478394e-02,1.010038051754236221e-02,-1.893519312143325806e-01,8.894962817430496216e-02,-5.745686590671539307e-02,1.925460100173950195e-01,6.330188363790512085e-02,-6.932351738214492798e-02,8.850201964378356934e-02,-9.344246238470077515e-02,-8.000288158655166626e-03,6.110967695713043213e-02,1.049916744232177734e-01,2.220222800970077515e-01,1.102220192551612854e-01,9.590081125497817993e-02,-1.776380240917205811e-01,-2.411385625600814819e-02
9.237598627805709839e-03,-7.901085168123245239e-02,-8.401871658861637115e-03,9.200298786163330078e-02,-3.200440481305122375e-02,-4.103820025920867920e-02,4.737005010247230530e-02,-1.402103155851364136e-01,-6.118940934538841248e-02,3.769857063889503479e-02,-9.468842297792434692e-02,1.266851723194122314e-01,-8.215194940567016602e-02,1.278771758079528809e-01,8.653824217617511749e-03,-4.872260242700576782e-02,1.529521495103836060e-01,-1.214413344860076904e-01,8.375234156847000122e-02,-1.165116727352142334e-01,8.602793514728546143e-02,-1.930217631161212921e-02,1.972007304430007935e-01,-1.129982396960258484e-01,6.031221151351928711e-02,1.052147746086120605e-01,9.321649372577667236e-02,1.722887456417083740e-01,-3.439066186547279358e-02,8.121190965175628662e-02,-1.868307143449783325e-01,2.932592853903770447e-02,4.830911755561828613e-02,-7.598646730184555054e-02,1.001535952091217041e-01,2.009726315736770630e-01,-7.357487082481384277e-02,1.682018488645553589e-01,-1.640684157609939575e-01,-2.646918781101703644e-02,-3.226440772414207458e-02,5.177851393818855286e-02,6.452108919620513916e-02,-8.609005808830261230e-02,4.256844054907560349e-03,1.214404106140136719e-01,-5.822675302624702454e-02,1.447786092758178711e-01,-1.292124539613723755e-01,-1.452794820070266724e-01,6.290645897388458252e-02,-1.916052773594856262e-02,9.018288552761077881e-02,-3.794341161847114563e-02,2.194662690162658691e-01,1.526888310909271240e-01,-1.361243277788162231e-01,6.142803281545639038e-02,9.175854176282882690e-02,-1.329461634159088135e-01,7.005835324525833130e-02,1.013174466788768768e-02,2.543295361101627350e-02,-9.124994277954101562e-02
1.933510415256023407e-02,-7.194793224334716797e-02,-5.730855464935302734e-02,-1.095347553491592407e-01,-1.180096864700317383e-01,2.381862699985504150e-02,-4.341280460357666016e-02,-1.083424091339111328e-01,6.295672804117202759e-02,7.260811328887939453e-02,1.526210159063339233e-01,1.512416750192642212e-01,-2.585538290441036224e-02,5.726541578769683838e-02,-5.768506601452827454e-02,-1.518792957067489624e-01,-4.380007460713386536e-02,1.627837866544723511e-01,4.933231696486473083e-02,4.123335704207420349e-02,2.357576787471771240e-02,7.888139039278030396e-02,2.094322293996810913e-01,-3.450423851609230042e-02,-1.573025733232498169e-01,5.266631767153739929e-02,-9.500937908887863159e-02,2.259025573730468750e-01,-1.443045288324356079e-01,-1.930551975965499878e-02,-1.708889752626419067e-01,-1.440417319536209106e-01,1.277771443128585815e-01,6.244153901934623718e-02,-2.578875981271266937e-03,9.284475445747375488e-02,5.224326625466346741e-03,-2.225115150213241577e-02,1.269120424985885620e-01,6.307666748762130737e-02,-4.141513258218765259e-02,-8.443613350391387939e-02,2.076202481985092163e-01,1.544137001037597656e-01,1.130562648177146912e-01,7.119365036487579346e-02,-1.403685659170150757e-01,-6.558480113744735718e-02,-1.054773628711700439e-01,-1.039507240056991577e-01,-1.702776253223419189e-01,-5.067679658532142639e-02,1.412957459688186646e-01,1.779193431138992310e-01,9.308101981878280640e-02,6.635333597660064697e-02,9.698517620563507080e-02,-3.830162575468420982e-03,1.543221473693847656e-01,-6.413679802790284157e-04,1.618210673332214355e-01,1.518263220787048340e-01,-1.520181745290756226e-01,-2.047242783010005951e-02
2.120212167501449585e-01,-7.574614137411117554e-04,1.230555474758148193e-01,1.395769119262695312e-01,-2.061881683766841888e-02,9.124516695737838745e-02,2.094265632331371307e-02,-7.295101881027221680e-02,1.627535969018936157e-01,-5.766664072871208191e-02,7.715656608343124390e-02,1.802411526441574097e-01,4.692243039608001709e-02,-2.466659992933273315e-02,-6.290659308433532715e-02,3.916038572788238525e-02,2.256858795881271362e-01,7.278221845626831055e-02,1.168189272284507751e-01,-8.224777877330780029e-02,-4.749026522040367126e-02,-1.051197499036788940e-01,1.191594302654266357e-01,1.240351144224405289e-02,1.559653878211975098e-01,7.188206166028976440e-02,-9.861420094966888428e-02,-1.093819364905357361e-02,1.836741566658020020e-01,4.585117101669311523e-02,1.353197544813156128e-01,2.196350991725921631e-01,-5.641430243849754333e-02,6.783951073884963989e-02,-1.926977783441543579e-01,5.164635553956031799e-02,1.679536849260330200e-01,1.440723985433578491e-01,-1.412494778633117676e-01,8.131416141986846924e-02,-3.793032094836235046e-02,-1.501937061548233032e-01,-4.371200129389762878e-02,1.332817375659942627e-01,1.357169449329376221e-01,-1.818187087774276733e-01,-7.211307436227798462e-02,7.808459550142288208e-02,-1.459598243236541748e-01,-1.464990377426147461e-01,-1.596096158027648926e-01,-8.736430108547210693e-02,5.769957974553108215e-02,-1.402749270200729370e-01,-1.163306310772895813e-01,-4.836017265915870667e-02,5.974004045128822327e-03,-1.714380085468292236e-01,-3.714960813522338867e-02,-1.312153041362762451e-01,-5.837126448750495911e-02,1.104332581162452698e-01,-1.106436252593994141e-01,1.693353652954101562e-01
7.888887822628021240e-02,1.098054498434066772e-01,-6.587190553545951843e-03,-1.239390298724174500e-01,-1.586389094591140747e-01,-8.014737814664840698e-02,-9.280288219451904297e-02,1.512034535408020020e-01,-7.661938667297363281e-02,-1.535923480987548828e-01,-1.054820418357849121e-01,5.648601800203323364e-02,-8.126465231180191040e-02,1.991148591041564941e-01,1.641876697540283203e-01,9.561200626194477081e-03,8.604643493890762329e-02,9.123873710632324219e-02,-2.675568312406539917e-02,-1.648416668176651001e-01,-1.406631916761398315e-01,1.129048392176628113e-01,-7.149186730384826660e-02,-8.058924973011016846e-02,3.181800991296768188e-02,1.012408062815666199e-01,9.564031660556793213e-02,1.006202697753906250e-01,9.104831516742706299e-02,1.316694170236587524e-01,1.629439890384674072e-01,-1.193156745284795761e-02,-4.043077677488327026e-02,-4.055761918425559998e-02,8.628948032855987549e-02,1.295378208160400391e-01,-1.027870103716850281e-01,2.315354198217391968e-01,1.608898788690567017e-01,2.782300114631652832e-02,5.628252029418945312e-02,-6.612831354141235352e-02,8.508744835853576660e-02,1.267759352922439575e-01,5.857911426573991776e-03,-4.084800183773040771e-02,-1.989037916064262390e-02,-7.268372457474470139e-03,-1.388880517333745956e-02,9.246166050434112549e-02,1.731123179197311401e-01,-1.225449144840240479e-01,5.511262640357017517e-02,1.623790562152862549e-01,9.742096811532974243e-02,2.562461420893669128e-02,7.356976717710494995e-02,4.487405344843864441e-02,-6.362173706293106079e-02,1.866519302129745483e-01,-2.892153337597846985e-02,1.461924314498901367e-01,-1.553964763879776001e-01,1.754549443721771240e-01
9.071948379278182983e-02,4.544004052877426147e-02,-1.401748210191726685e-01,1.643967032432556152e-01,6.959076225757598877e-02,-1.455143839120864868e-01,1.939997673034667969e-01,-1.769112050533294678e-02,-7.735723257064819336e-02,-9.379775077104568481e-02,-3.805414214730262756e-02,6.524918228387832642e-02,4.689066112041473389e-02,-3.478147462010383606e-02,-2.644648216664791107e-02,4.334042314440011978e-03,1.731261238455772400e-02,-1.445884406566619873e-01,-1.858101598918437958e-02,2.045437842607498169e-01,4.294467717409133911e-02,1.385666988790035248e-02,1.036584451794624329e-01,1.154118999838829041e-01,1.616543680429458618e-01,8.596190810203552246e-02,5.877730622887611389e-02,9.656570851802825928e-02,9.293521195650100708e-02,-7.254313677549362183e-02,-1.500213742256164551e-01,-1.223108172416687012e-01,1.507556289434432983e-01,1.230929493904113770e-01,1.006223708391189575e-01,4.790091887116432190e-03,1.687343567609786987e-01,8.992477320134639740e-03,-1.599349640309810638e-02,-1.480519920587539673e-01,1.190184503793716431e-01,6.963972002267837524e-02,-7.344036549329757690e-02,-9.894216805696487427e-02,-8.698676526546478271e-02,1.080620568245649338e-03,-1.028402000665664673e-01,-1.106868237257003784e-01,-7.538620382547378540e-02,-3.879620879888534546e-02,-9.466182440519332886e-02,-2.632487379014492035e-02,-4.360613971948623657e-02,8.504180237650871277e-03,-1.257293224334716797e-01,-8.535114675760269165e-02,-9.046056121587753296e-02,-1.805642098188400269e-01,1.659018993377685547e-01,-2.521215938031673431e-02,-1.220886409282684326e-01,-1.156428381800651550e-01,2.128662355244159698e-02,1.489415019750595093e-01
1.720773428678512573e-01,2.101108580827713013e-01,5.839718040078878403e-03,-9.144280850887298584e-02,-1.128042787313461304e-01,1.503338664770126343e-01,-1.528714597225189209e-02,7.365024089813232422e-02,-2.561492845416069031e-02,9.252079576253890991e-02,8.858719468116760254e-02,-1.535228341817855835e-01,-6.256826967000961304e-02,1.050611138343811035e-01,-2.039037197828292847e-01,-6.816534698009490967e-02,2.898178994655609131e-02,-7.932946830987930298e-02,-7.749699056148529053e-02,-6.771726161241531372e-02,-1.449563801288604736e-01,-1.719218194484710693e-01,2.763000503182411194e-02,-5.644176155328750610e-02,1.095468029379844666e-01,1.277507003396749496e-02,7.785186916589736938e-02,-5.684544891119003296e-02,1.350159756839275360e-02,-1.358996182680130005e-01,8.195263147354125977e-02,-1.057242453098297119e-01,1.652927994728088379e-01,2.427933271974325180e-03,5.077428370714187622e-02,1.018892228603363037e-01,1.708609759807586670e-01,2.232384085655212402e-01,-2.003667354583740234e-01,3.969251364469528198e-02,-7.277680933475494385e-02,2.012241035699844360e-01,6.000278517603874207e-02,1.526408791542053223e-01,-1.879931390285491943e-01,-2.773049846291542053e-02,2.938740514218807220e-02,-5.201816931366920471e-02,1.924500986933708191e-02,9.979850798845291138e-02,-7.852149754762649536e-02,1.413124799728393555e-01,1.496803611516952515e-01,-5.653059110045433044e-02,-3.996714577078819275e-02,-7.239968329668045044e-02,1.918715834617614746e-01,-9.269104897975921631e-02,3.261598944664001465e-02,3.135745227336883545e-02,1.534696221351623535e-01,-6.842478364706039429e-02,1.622735261917114258e-01,-7.979825884103775024e-02
-1.367647796869277954e-01,8.806769549846649170e-02,2.744553051888942719e-02,1.686642691493034363e-02,-1.302333455532789230e-02,-1.090770661830902100e-01,-2.996480837464332581e-02,1.430706083774566650e-01,2.015816122293472290e-01,-1.423892080783843994e-01,-8.588539063930511475e-02,-6.945817172527313232e-02,1.588668078184127808e-01,1.339964568614959717e-01,-5.305372178554534912e-02,5.769680067896842957e-02,6.161306425929069519e-02,3.509749472141265869e-02,1.264145374298095703e-01,1.231676116585731506e-01,-7.420083135366439819e-02,-1.119916513562202454e-02,-6.617021560668945312e-02,-6.846504658460617065e-02,-6.473522167652845383e-03,-8.411179482936859131e-02,3.210594132542610168e-02,1.856037229299545288e-02,1.600967794656753540e-01,-2.785322256386280060e-02,1.676141023635864258e-01,1.301637198776006699e-02,-2.368220873177051544e-02,-9.823742508888244629e-02,-6.232567876577377319e-02,-5.743174627423286438e-02,4.637695103883743286e-02,1.502280086278915405e-01,-3.429893031716346741e-02,-1.928618922829627991e-02,-2.884550206363201141e-02,-2.948620356619358063e-02,-1.547309160232543945e-01,6.645267456769943237e-02,1.536306440830230713e-01,-9.074969589710235596e-02,-1.161263883113861084e-01,-7.493872195482254028e-02,-5.521133542060852051e-02,2.084172330796718597e-02,6.796560436487197876e-02,1.259464323520660400e-01,-5.155103653669357300e-02,-1.700709164142608643e-01,3.741986304521560669e-02,-1.614202372729778290e-02,-1.107773035764694214e-01,2.007842622697353363e-02,-1.233221441507339478e-01,-2.498641423881053925e-02,7.797511667013168335e-02,-7.904060184955596924e-02,-1.054091677069664001e-01,2.574860677123069763e-02
1.423761993646621704e-01,-3.883347660303115845e-02,1.328700631856918335e-01,-7.800301909446716309e-02,-5.034818872809410095e-02,-1.387783586978912354e-01,-2.537428587675094604e-02,-5.843885242938995361e-02,2.350981533527374268e-01,9.872766584157943726e-02,-4.891363158822059631e-02,-1.505125500261783600e-02,-9.210962057113647461e-02,1.787698864936828613e-01,-3.286606818437576294e-02,1.086593419313430786e-01,4.897747933864593506e-02,-6.824367493391036987e-02,-1.133202761411666870e-01,-1.492977589368820190e-01,2.283132672309875488e-01,-6.492760032415390015e-02,-6.704284995794296265e-02,-5.666478350758552551e-02,1.465140730142593384e-01,1.508581936359405518e-01,-2.041817456483840942e-02,5.050902068614959717e-02,-1.973354071378707886e-02,6.096811033785343170e-03,-8.710669726133346558e-02,2.495759278535842896e-01,2.194184213876724243e-01,-1.331601291894912720e-01,5.682850629091262817e-02,-3.421853855252265930e-02,8.430327475070953369e-02,-4.423040896654129028e-02,-1.151457652449607849e-01,3.273941203951835632e-02,-4.961013048887252808e-02,-4.431633651256561279e-02,1.599417179822921753e-01,-4.595011845231056213e-02,7.362660020589828491e-02,-1.465778332203626633e-02,1.875343620777130127e-01,8.342666923999786377e-02,7.921582437120378017e-04,1.697315722703933716e-01,-3.627302497625350952e-02,2.011034935712814331e-01,-7.506648451089859009e-02,-5.971162021160125732e-02,-4.356733709573745728e-02,1.120942533016204834e-01,4.944387823343276978e-02,-1.524599641561508179e-01,-7.290148735046386719e-02,-2.570972591638565063e-02,2.035330832004547119e-01,1.918863505125045776e-01,1.436397731304168701e-01,5.033055786043405533e-03
1.301023270934820175e-02,1.951082497835159302e-01,1.230506040155887604e-02,9.826330095529556274e-02,2.739963829517364502e-01,-5.054507032036781311e-02,3.371433168649673462e-02,-2.671845555305480957e-01,-1.192144602537155151e-01,-6.143814325332641602e-02,-6.099035963416099548e-02,8.031948655843734741e-02,-6.732502579689025879e-02,-1.904571354389190674e-01,-5.756711587309837341e-02,1.103496775031089783e-01,-1.773809827864170074e-02,-2.508794143795967102e-02,1.304231435060501099e-01,7.336857914924621582e-02,9.494934231042861938e-02,-6.596539169549942017e-02,-9.795060008764266968e-02,7.198247476480901241e-04,3.324411227367818356e-04,1.270121186971664429e-01,1.182424575090408325e-01,-2.597799897193908691e-02,-1.538895368576049805e-01,4.341164603829383850e-02,1.371538490056991577e-01,9.478203207254409790e-02,1.172528043389320374e-02,2.717957794666290283e-01,1.557179689407348633e-01,-1.924529075622558594e-01,-1.085518896579742432e-01,9.598232805728912354e-02,-2.010433375835418701e-01,-4.998347908258438110e-02,-2.415600791573524475e-02,2.598293721675872803e-01,-1.709149777889251709e-01,1.238202229142189026e-01,-7.910856604576110840e-02,8.895509690046310425e-02,1.497914642095565796e-01,1.711605042219161987e-01,-4.795329272747039795e-02,1.414730399847030640e-01,1.201817318797111511e-01,3.970795869827270508e-02,6.219855323433876038e-02,6.243531778454780579e-02,1.298832595348358154e-01,2.541889846324920654e-01,-2.637567520141601562e-01,2.482839524745941162e-01,1.183122694492340088e-01,7.205213420093059540e-03,-6.941867619752883911e-02,-1.596955507993698120e-01,5.266311764717102051e-02,8.387415111064910889e-02
2.370034530758857727e-02,2.413736470043659210e-02,6.844338029623031616e-02,6.027248874306678772e-02,1.275421977043151855e-01,-1.130838170647621155e-01,1.290668845176696777e-01,-8.681187033653259277e-02,-1.326720714569091797e-01,1.495854407548904419e-01,-1.414297819137573242e-01,2.028961032629013062e-01,-3.672016784548759460e-02,1.469283103942871094e-01,-4.184411093592643738e-02,-1.525474190711975098e-01,-3.619010001420974731e-02,-4.090862814337015152e-03,-2.684383094310760498e-02,-2.294487878680229187e-02,-4.202799499034881592e-02,-1.632030308246612549e-01,-4.347613081336021423e-02,-8.261178433895111084e-02,9.198884665966033936e-02,8.094806969165802002e-02,1.415107101202011108e-01,1.561813652515411377e-01,8.717811852693557739e-02,4.875313956290483475e-03,4.899090901017189026e-02,1.482496857643127441e-01,-4.398670420050621033e-02,1.027294993400573730e-01,2.878523766994476318e-01,-4.385282844305038452e-02,-6.531053781509399414e-02,1.135826408863067627e-01,-2.632412500679492950e-02,1.889469847083091736e-02,3.240473195910453796e-02,1.151446476578712463e-01,4.515383020043373108e-02,2.372840046882629395e-01,-7.286916952580213547e-03,2.382402867078781128e-01,2.138607576489448547e-02,1.812340170145034790e-01,1.252107024192810059e-01,9.041206538677215576e-02,9.640653152018785477e-04,-1.702463328838348389e-01,1.741774231195449829e-01,2.230452559888362885e-02,-1.087371408939361572e-01,7.704689353704452515e-02,-2.250273227691650391e-01,1.813051253557205200e-01,1.470047831535339355e-01,-4.771206900477409363e-02,-9.860528260469436646e-02,-1.364095509052276611e-01,-1.227591186761856079e-02,1.319327652454376221e-01
-1.033785343170166016e-01,-1.740812957286834717e-01,-4.955802857875823975e-02,-5.243930220603942871e-02,-4.696542397141456604e-02,9.146487340331077576e-03,2.090175747871398926e-01,1.257858276367187500e-01,-7.875838875770568848e-02,8.601474761962890625e-02,1.274823248386383057e-01,-6.890249252319335938e-02,-7.061020284891128540e-02,-1.531252712011337280e-01,-6.553099304437637329e-02,-1.459554731845855713e-01,-6.746374815702438354e-02,1.674372889101505280e-02,1.259536296129226685e-01,-1.315346509218215942e-01,-1.551036238670349121e-01,-1.269041597843170166e-01,-7.356320507824420929e-03,1.002180501818656921e-01,-6.758894771337509155e-02,-1.304134279489517212e-01,3.842045739293098450e-02,1.892875283956527710e-01,-8.202099800109863281e-02,1.077880784869194031e-01,1.554748266935348511e-01,1.739383637905120850e-01,-6.896646227687597275e-03,1.649670302867889404e-01,-7.500969618558883667e-02,-1.484205573797225952e-01,-1.309368312358856201e-01,6.740544736385345459e-02,1.629243940114974976e-01,-1.279927790164947510e-01,-9.078329056501388550e-02,1.551331728696823120e-01,-7.411806285381317139e-02,2.394815534353256226e-02,-2.521420270204544067e-02,-8.524727076292037964e-03,-3.314707428216934204e-02,-1.020416542887687683e-01,-1.512669920921325684e-01,4.910200461745262146e-02,-5.483590438961982727e-02,1.523975133895874023e-01,-1.210018396377563477e-01,6.479795277118682861e-02,1.971140056848526001e-01,-1.976082660257816315e-02,2.598573267459869385e-01,-6.586547195911407471e-02,-2.880926616489887238e-02,1.526857316493988037e-01,-1.275646835565567017e-01,1.067687347531318665e-01,-1.779048889875411987e-01,-1.076878607273101807e-01
-4.725174233317375183e-02,1.000968515872955322e-01,1.578192710876464844e-01,-2.688010036945343018e-02,-1.336059719324111938e-01,3.868576511740684509e-02,-1.802030205726623535e-01,1.620924770832061768e-01,1.109650209546089172e-01,-5.115069821476936340e-02,1.970120966434478760e-01,1.680905371904373169e-01,2.303027361631393433e-02,6.639734655618667603e-02,1.018292009830474854e-01,-1.256870198994874954e-02,7.181850075721740723e-02,1.121413707733154297e-02,-1.149189844727516174e-01,1.254552602767944336e-01,-7.645634561777114868e-02,-2.948344126343727112e-02,8.159507066011428833e-02,1.715786010026931763e-02,1.212132051587104797e-01,-8.314443379640579224e-02,4.707473516464233398e-02,1.250957101583480835e-01,6.731523573398590088e-02,7.914007455110549927e-02,5.990070849657058716e-02,1.189993470907211304e-01,1.000445559620857239e-01,1.194458454847335815e-01,1.216530948877334595e-01,2.010497450828552246e-01,1.075480133295059204e-02,-1.972763612866401672e-02,-9.630584716796875000e-02,-1.353373378515243530e-01,-6.196979060769081116e-02,1.000769957900047302e-01,4.476261883974075317e-02,-9.862048923969268799e-02,-8.098555356264114380e-02,5.404982715845108032e-02,-6.519583612680435181e-02,-8.544612675905227661e-03,5.002654716372489929e-02,3.192308545112609863e-02,1.652135998010635376e-01,-6.790386885404586792e-02,7.280406355857849121e-02,7.628270238637924194e-02,-1.296712160110473633e-01,-1.434784084558486938e-01,1.354428529739379883e-01,1.588389575481414795e-01,-4.731390625238418579e-03,1.536497026681900024e-01,1.852826476097106934e-01,1.334579885005950928e-01,1.635322123765945435e-01,-1.273193955421447754e-01
-9.841173887252807617e-02,1.009352598339319229e-02,2.338611632585525513e-01,6.464745849370956421e-02,1.950151622295379639e-01,-1.364987194538116455e-01,2.323211878538131714e-01,-1.600162535905838013e-01,-3.933339938521385193e-02,-8.092349022626876831e-02,1.087760776281356812e-01,5.774923413991928101e-02,-1.145691946148872375e-01,-1.519968658685684204e-01,6.479863077402114868e-02,2.343284338712692261e-02,-8.553668856620788574e-02,-5.149421468377113342e-02,4.635887453332543373e-04,1.104476749897003174e-01,-9.627648442983627319e-02,6.695849448442459106e-02,1.141298860311508179e-01,8.154741674661636353e-02,1.683360710740089417e-02,1.449472010135650635e-01,-1.061876639723777771e-01,9.749969467520713806e-03,5.690956115722656250e-02,-9.369164705276489258e-02,-1.383674442768096924e-01,-9.075243771076202393e-02,-9.247066825628280640e-02,-1.238911673426628113e-01,-1.202974393963813782e-01,2.076683789491653442e-01,-1.576689183712005615e-01,-5.192620679736137390e-03,6.597134750336408615e-03,-8.634514175355434418e-03,2.104398328810930252e-03,-2.040460705757141113e-02,1.838419884443283081e-01,2.056952193379402161e-02,-1.700775176286697388e-01,1.370156258344650269e-01,-1.268269270658493042e-01,4.778193309903144836e-02,-2.271126396954059601e-02,5.095433071255683899e-02,1.127969995141029358e-01,-1.414930522441864014e-01,-3.815308958292007446e-02,-7.106326520442962646e-02,1.252766698598861694e-01,1.714739203453063965e-01,8.111880719661712646e-02,-1.269490569829940796e-01,1.172585859894752502e-01,-4.508488997817039490e-02,-1.501856148242950439e-01,-4.494868591427803040e-02,3.119269385933876038e-02,1.128794178366661072e-01
-4.557489976286888123e-02,-5.051998794078826904e-02,1.828667670488357544e-01,-1.467575579881668091e-01,4.951506108045578003e-02,1.284271031618118286e-01,-6.146495044231414795e-02,1.246789172291755676e-01,-1.300996840000152588e-01,-1.602598465979099274e-02,4.405024647712707520e-02,-4.095969779882580042e-04,6.785497069358825684e-02,-1.341891288757324219e-01,1.130058690905570984e-01,9.253303706645965576e-02,1.993454061448574066e-02,3.443502634763717651e-02,-3.675982356071472168e-02,7.734394073486328125e-02,-1.237516775727272034e-01,8.168051391839981079e-02,-7.875095307826995850e-02,1.523642241954803467e-01,-1.910129785537719727e-01,1.047936156392097473e-01,-1.191760525107383728e-01,-8.188983052968978882e-02,1.114044934511184692e-01,1.232670247554779053e-01,-7.326641678810119629e-02,-4.565943777561187744e-02,6.406455487012863159e-02,1.923250593245029449e-02,9.048575907945632935e-02,-7.313781231641769409e-02,-1.450400352478027344e-01,1.784099079668521881e-02,-9.867613017559051514e-02,1.656532287597656250e-01,6.543777137994766235e-02,3.534851223230361938e-02,2.254622988402843475e-03,1.100826114416122437e-01,-2.103608101606369019e-01,1.572631001472473145e-01,7.210417091846466064e-02,-1.116928160190582275e-01,6.636020541191101074e-02,-1.180572956800460815e-01,-1.339530050754547119e-01,1.247827634215354919e-01,-2.314151078462600708e-02,1.336401104927062988e-01,-2.509915083646774292e-02,2.010377198457717896e-01,-2.247099429368972778e-01,1.691074818372726440e-01,-1.008819788694381714e-01,1.215192452073097229e-01,-1.584508270025253296e-01,-3.599476069211959839e-02,1.253398805856704712e-01,1.374695748090744019e-01
-1.772221028804779053e-01,-3.255786597728729248e-01,1.314979046583175659e-01,1.638014465570449829e-01,1.100061237812042236e-01,1.576092392206192017e-01,2.586691975593566895e-01,-1.950848698616027832e-01,6.560932379215955734e-03,-1.707377433776855469e-01,4.493080824613571167e-02,-1.028335541486740112e-01,1.491274982690811157e-01,7.515774108469486237e-03,2.626856565475463867e-01,1.695916503667831421e-01,1.580428332090377808e-01,5.022911354899406433e-02,5.703005567193031311e-02,-1.100308671593666077e-01,-2.557007372379302979e-01,-5.749540776014328003e-02,-2.400317937135696411e-01,-1.996063739061355591e-01,4.879418015480041504e-02,1.682535707950592041e-01,9.506766498088836670e-02,1.282375454902648926e-01,9.514587372541427612e-02,-1.002651453018188477e-01,6.840121746063232422e-02,-1.579350531101226807e-01,-2.313699275255203247e-01,-2.590922415256500244e-01,7.914680987596511841e-02,-3.910974040627479553e-02,8.184413611888885498e-02,-2.767618298530578613e-01,6.317759305238723755e-02,2.519464492797851562e-01,3.207979723811149597e-02,9.699018299579620361e-02,-2.185443192720413208e-01,2.433036714792251587e-01,-7.900889217853546143e-02,5.717925727367401123e-02,-1.678318679332733154e-01,5.798750370740890503e-02,-1.029875874519348145e-01,5.202044919133186340e-02,-1.426018923521041870e-01,-9.190492331981658936e-02,2.172229439020156860e-01,-2.382692843675613403e-01,-2.867314266040921211e-03,3.022409509867429733e-03,-2.426083683967590332e-01,-2.905231527984142303e-02,-1.282243803143501282e-02,6.077771540731191635e-03,2.664257027208805084e-02,4.355036467313766479e-02,1.931797899305820465e-02,-7.902666926383972168e-02
1.295314282178878784e-01,1.523618996143341064e-01,-1.437269002199172974e-01,-1.840214431285858154e-02,1.194276362657546997e-01,-2.426804043352603912e-02,-5.099906399846076965e-02,2.042659372091293335e-01,7.351864874362945557e-02,-8.488157391548156738e-02,1.066688727587461472e-02,1.034797430038452148e-01,-7.269969582557678223e-02,-3.315562382340431213e-02,-1.492161303758621216e-03,1.372441351413726807e-01,1.847653090953826904e-01,3.960385918617248535e-02,-4.377353563904762268e-02,-1.741037517786026001e-01,1.757394522428512573e-01,7.021401077508926392e-02,4.606382548809051514e-02,8.046461641788482666e-02,-4.653668403625488281e-02,9.229385852813720703e-02,-3.977368399500846863e-02,1.524417288601398468e-02,1.422194093465805054e-01,1.413293778896331787e-01,-8.544298820197582245e-03,-8.718705922365188599e-02,5.992730334401130676e-02,1.724977046251296997e-01,1.518132686614990234e-01,1.195570826530456543e-01,-8.028703182935714722e-02,-9.602144360542297363e-02,-7.687247544527053833e-02,4.473655298352241516e-02,-2.446723170578479767e-02,5.538088735193014145e-03,1.873630136251449585e-01,-7.923680543899536133e-02,1.780123859643936157e-01,2.613773196935653687e-02,-2.898102439939975739e-02,8.642991632223129272e-02,1.473661959171295166e-01,8.730702102184295654e-02,-1.384593844413757324e-01,-1.414616685360670090e-02,-7.781468331813812256e-02,1.335521042346954346e-01,4.996264725923538208e-02,8.836386352777481079e-02,6.109168380498886108e-02,7.824335992336273193e-02,-1.525380313396453857e-01,1.224698424339294434e-01,3.193191811442375183e-02,1.817836016416549683e-01,-1.015482917428016663e-01,6.797788292169570923e-02
1.883142739534378052e-01,2.622258365154266357e-01,3.470303863286972046e-02,-4.713640734553337097e-02,1.649269461631774902e-01,1.249365732073783875e-01,1.008560284972190857e-01,1.090910658240318298e-01,1.344677805900573730e-01,-3.199537098407745361e-02,-1.681593358516693115e-01,-2.436732873320579529e-02,1.577789187431335449e-01,-1.267608851194381714e-01,9.607381373643875122e-02,4.817210882902145386e-02,-2.485596984624862671e-01,-1.268125977367162704e-02,2.750024199485778809e-01,2.156994342803955078e-01,2.051921486854553223e-01,5.866131186485290527e-02,-2.016153186559677124e-02,-8.233267813920974731e-02,1.361170560121536255e-01,-2.617727220058441162e-01,-1.226555481553077698e-01,-1.618939489126205444e-01,1.840846054255962372e-02,-1.672115772962570190e-01,1.364077925682067871e-01,1.595717519521713257e-01,1.638836860656738281e-01,1.568401157855987549e-01,2.524402737617492676e-01,-1.123566254973411560e-01,-9.850055724382400513e-02,1.977629810571670532e-01,2.958704717457294464e-02,3.285241127014160156e-02,9.434355050325393677e-02,2.438105642795562744e-01,-4.028321802616119385e-02,3.641766682267189026e-02,1.840183138847351074e-01,1.539212614297866821e-01,-4.432024434208869934e-02,2.104382067918777466e-01,-1.067981198430061340e-01,2.831625379621982574e-02,7.002120465040206909e-02,6.751636415719985962e-02,-1.167427375912666321e-01,7.680202275514602661e-02,-1.494254022836685181e-01,9.633945301175117493e-03,-1.811310797929763794e-01,2.853359580039978027e-01,1.521071232855319977e-02,1.718167662620544434e-01,-7.693356275558471680e-02,-6.508181244134902954e-02,-1.540265679359436035e-01,1.461676061153411865e-01
-1.211819052696228027e-01,2.488922476768493652e-01,1.355327367782592773e-01,1.492706388235092163e-01,-5.482110008597373962e-02,1.334374845027923584e-01,-6.279639899730682373e-02,1.543667465448379517e-01,8.529900759458541870e-02,-4.776858910918235779e-02,-2.819339744746685028e-02,9.278489649295806885e-02,2.731427364051342010e-02,1.715164333581924438e-01,8.465941250324249268e-02,1.966485567390918732e-02,1.886108666658401489e-01,6.058994308114051819e-02,3.797733038663864136e-02,-8.258575946092605591e-02,-1.357274651527404785e-01,1.443446334451436996e-02,-9.212994575500488281e-02,1.822273582220077515e-01,9.675754606723785400e-02,-2.657599560916423798e-02,1.705901697278022766e-02,1.597937941551208496e-01,-7.138694822788238525e-02,-6.809775531291961670e-02,1.561733633279800415e-01,-7.416673004627227783e-02,-1.205223053693771362e-01,7.478670030832290649e-02,1.031155809760093689e-01,2.217219024896621704e-02,1.720987707376480103e-01,1.495402157306671143e-01,-6.123091280460357666e-02,-2.627105079591274261e-02,2.060945481061935425e-01,1.188686266541481018e-01,-1.155093871057033539e-02,1.330789774656295776e-01,-9.273586422204971313e-02,-2.469126135110855103e-02,-3.390625119209289551e-02,-9.361105971038341522e-03,1.948811262845993042e-01,-6.294321268796920776e-02,-1.046663671731948853e-01,-2.158690243959426880e-01,2.350163906812667847e-01,4.944089055061340332e-02,2.816845290362834930e-02,2.149187773466110229e-01,-8.870481513440608978e-03,9.896908700466156006e-02,-1.665235757827758789e-01,-1.677063554525375366e-01,1.029489338397979736e-01,1.814421117305755615e-01,4.376345127820968628e-02,-8.820104598999023438e-02
1.393049955368041992e-01,-2.650720812380313873e-02,-9.065067023038864136e-02,-1.078824400901794434e-01,-7.908651232719421387e-02,1.770152896642684937e-01,1.206420361995697021e-01,-7.440841197967529297e-02,-9.214224666357040405e-02,1.277577430009841919e-01,-7.984529249370098114e-03,5.571716278791427612e-02,-7.412513345479965210e-02,-7.287715375423431396e-02,-1.065806448459625244e-01,9.601959586143493652e-02,1.291706860065460205e-01,-3.809333592653274536e-02,-6.977578252553939819e-02,8.491359651088714600e-03,-1.565980166196823120e-01,-3.670810163021087646e-02,1.285262852907180786e-01,-4.453417658805847168e-02,1.221987511962652206e-02,1.359932124614715576e-01,-1.427278220653533936e-01,3.248181194067001343e-03,1.614372432231903076e-01,1.356723010540008545e-01,1.460672467947006226e-01,-7.851497083902359009e-02,1.065142825245857239e-01,-2.104402286931872368e-03,-2.300417236983776093e-02,2.076523602008819580e-01,-7.626540958881378174e-02,-8.505082689225673676e-03,6.946439296007156372e-02,1.564562618732452393e-01,2.252203375101089478e-01,-7.905171811580657959e-02,4.813221469521522522e-02,1.943826675415039062e-01,-8.956622332334518433e-02,1.813710033893585205e-01,-7.382442057132720947e-02,-4.631704837083816528e-02,-1.306924223899841309e-01,5.913858115673065186e-02,1.171894669532775879e-01,-4.732324928045272827e-02,6.147108599543571472e-02,1.588313430547714233e-01,-4.333129897713661194e-02,1.786043494939804077e-01,-1.417744457721710205e-01,-4.554248973727226257e-02,-2.345873042941093445e-02,1.481237709522247314e-01,-3.421742841601371765e-02,3.540050610899925232e-02,3.251165524125099182e-02,8.894221857190132141e-03
-1.192669197916984558e-02,1.896772384643554688e-01,-4.604527784977108240e-04,-1.324706226587295532e-01,7.731248438358306885e-02,1.151560768485069275e-01,6.792697310447692871e-02,1.240812465548515320e-01,1.615431010723114014e-01,-7.797839492559432983e-02,5.269857123494148254e-02,7.669120281934738159e-02,-1.128231734037399292e-01,7.402978837490081787e-02,7.147715985774993896e-02,2.045908570289611816e-02,8.179839700460433960e-02,-2.384015545248985291e-02,1.657730787992477417e-01,-3.044006600975990295e-02,1.884534806013107300e-01,1.019165515899658203e-01,-5.711016431450843811e-02,2.827925235033035278e-02,-2.147288434207439423e-02,9.887176007032394409e-02,5.141738057136535645e-02,-7.500488311052322388e-02,1.640703529119491577e-01,-1.658015102148056030e-01,-4.911331459879875183e-02,1.309639364480972290e-01,1.521407663822174072e-01,4.627458006143569946e-02,-3.113743290305137634e-02,-9.292323887348175049e-02,4.984952509403228760e-02,1.963035613298416138e-01,-1.439852118492126465e-01,5.794584378600120544e-02,1.428040266036987305e-01,2.108286619186401367e-01,1.604859381914138794e-01,8.315271884202957153e-02,-1.078998818993568420e-01,1.717607676982879639e-01,-1.602003723382949829e-01,9.693329036235809326e-02,1.435614228248596191e-01,3.506879881024360657e-02,7.370507717132568359e-02,1.353504210710525513e-01,1.635953485965728760e-01,-3.199874237179756165e-02,2.379773370921611786e-02,-3.498668968677520752e-02,-5.693469941616058350e-02,1.189572513103485107e-01,-1.272408962249755859e-01,6.353709846735000610e-02,-6.712996959686279297e-02,7.363133877515792847e-02,-1.498106569051742554e-01,-9.779969602823257446e-02
6.892642937600612640e-03,-6.551202386617660522e-02,1.811168938875198364e-01,-1.061985418200492859e-01,-2.388633228838443756e-02,5.246035754680633545e-02,2.641785144805908203e-01,1.717343479394912720e-01,-3.473165631294250488e-02,-9.752061218023300171e-03,2.198489159345626831e-01,2.050288319587707520e-01,1.174598038196563721e-01,-1.251989901065826416e-01,6.472665816545486450e-02,-3.548116981983184814e-02,1.423581391572952271e-01,1.090014725923538208e-01,-1.561945080757141113e-01,1.575971096754074097e-01,-5.872231721878051758e-02,1.520622521638870239e-01,3.118947381153702736e-03,1.497732102870941162e-02,-7.230307161808013916e-02,5.223146453499794006e-02,3.682059049606323242e-02,7.450033724308013916e-02,1.454026550054550171e-01,-1.604588776826858521e-01,-1.407007575035095215e-01,-1.256730705499649048e-01,7.853558659553527832e-02,-1.024273186922073364e-01,1.050945520401000977e-01,5.243046581745147705e-02,4.895976558327674866e-02,-1.405235379934310913e-01,5.472461879253387451e-02,3.796155750751495361e-02,1.402268111705780029e-01,7.202832400798797607e-02,-1.632304675877094269e-02,2.191570997238159180e-01,-1.512223929166793823e-01,-3.187658637762069702e-02,-3.509829938411712646e-02,-9.746620804071426392e-02,8.840817958116531372e-03,-8.497418463230133057e-02,-2.212909013032913208e-01,7.267241179943084717e-02,1.235077381134033203e-01,-9.287084452807903290e-03,1.938242018222808838e-01,4.611080512404441833e-02,-4.318430647253990173e-02,1.779228150844573975e-01,-2.059694230556488037e-01,2.246798127889633179e-01,-2.068520337343215942e-01,2.803836949169635773e-02,-1.546503156423568726e-01,-3.269335627555847168e-02
-1.113370284438133240e-01,-1.810901425778865814e-02,1.134874299168586731e-01,1.418567299842834473e-01,-5.821421742439270020e-02,-8.506706357002258301e-02,3.064609467983245850e-01,-1.896529197692871094e-01,-2.017588168382644653e-01,-1.687586754560470581e-01,1.822796612977981567e-01,4.300303757190704346e-02,1.029139161109924316e-01,-9.186113253235816956e-03,6.420319527387619019e-02,-1.465172767639160156e-01,1.124656349420547485e-01,2.226679772138595581e-01,-1.804195940494537354e-01,1.700394004583358765e-01,-4.423952195793390274e-03,1.891249567270278931e-01,4.860663786530494690e-02,-2.118300348520278931e-01,-4.626100882887840271e-02,1.846259087324142456e-01,-2.431633174419403076e-01,4.784053936600685120e-02,9.624680131673812866e-02,1.096087694168090820e-01,4.742195829749107361e-02,-2.615904808044433594e-02,-2.051635831594467163e-01,-2.504956126213073730e-01,-1.591047942638397217e-01,-7.731231302022933960e-02,-2.119047380983829498e-02,-2.069546431303024292e-01,3.025029301643371582e-01,-7.947809249162673950e-02,1.096546053886413574e-01,5.974145140498876572e-03,-1.088298112154006958e-01,8.475674688816070557e-02,1.863965839147567749e-01,1.292969733476638794e-01,-1.820613741874694824e-01,-1.495738774538040161e-01,-2.265584841370582581e-02,6.541657447814941406e-02,2.782393060624599457e-02,-1.717162318527698517e-02,-1.446669101715087891e-01,6.864855438470840454e-02,-1.703624054789543152e-02,1.131162494421005249e-01,-3.121009562164545059e-03,1.535537559539079666e-02,-1.241042930632829666e-02,7.795638591051101685e-02,4.197414219379425049e-02,5.750344134867191315e-03,9.027938358485698700e-03,-1.645408123731613159e-01
4.133386537432670593e-02,6.220044195652008057e-02,-1.270344946533441544e-02,-1.566470861434936523e-01,-2.017457485198974609e-01,1.062056049704551697e-01,1.646429598331451416e-01,-3.762260079383850098e-02,4.812515154480934143e-02,-3.789871931076049805e-02,-4.753520339727401733e-02,-7.884985208511352539e-02,-2.282261103391647339e-02,1.992874778807163239e-02,2.610872387886047363e-01,3.426040336489677429e-02,4.077207762748003006e-03,1.227596253156661987e-01,3.038159906864166260e-01,4.231349751353263855e-02,1.841139048337936401e-01,-3.565774857997894287e-02,-1.933999545872211456e-02,1.496668308973312378e-01,8.141753822565078735e-02,-6.401803344488143921e-02,-7.681606709957122803e-02,6.613244116306304932e-02,2.444750862196087837e-03,-1.527886837720870972e-01,3.120667487382888794e-02,2.676591277122497559e-01,3.945069015026092529e-02,-2.264085561037063599e-01,-1.417370885610580444e-01,-8.970210701227188110e-02,-2.882980508729815483e-03,2.436877489089965820e-01,2.373732179403305054e-01,-1.251541525125503540e-01,2.686091139912605286e-02,-1.067383214831352234e-01,-2.134604007005691528e-01,-8.548492938280105591e-02,3.366671800613403320e-01,2.514693187549710274e-03,2.932878583669662476e-02,-8.422238379716873169e-02,-1.685346513986587524e-01,1.010168194770812988e-01,2.617020308971405029e-01,1.038439050316810608e-01,-1.440901458263397217e-01,-1.677379459142684937e-01,-2.231575697660446167e-01,-1.572333723306655884e-01,4.288285970687866211e-01,-1.476027350872755051e-02,-8.080703020095825195e-02,1.377864927053451538e-01,-1.427376866340637207e-01,2.149873375892639160e-01,4.797807708382606506e-02,3.051906228065490723e-01
2.541467547416687012e-03,4.555127397179603577e-02,-5.596562847495079041e-02,8.109669387340545654e-02,-4.005737602710723877e-02,-7.093354314565658569e-02,2.255433052778244019e-01,-1.160052567720413208e-01,-1.544733196496963501e-01,-1.646647900342941284e-01,1.525409221649169922e-01,2.001225650310516357e-01,-1.728716492652893066e-01,-5.988061428070068359e-02,1.019066199660301208e-01,-1.868268400430679321e-01,5.768066272139549255e-02,9.953934699296951294e-02,-1.650147140026092529e-02,6.478431168943643570e-03,1.038445681333541870e-01,-1.469783484935760498e-01,-9.106698632240295410e-02,-2.013155370950698853e-01,-1.860224157571792603e-01,5.214281752705574036e-02,-1.684905737638473511e-01,-7.870678603649139404e-02,2.074144631624221802e-01,7.294176518917083740e-02,6.164315342903137207e-02,1.745744794607162476e-01,1.385350823402404785e-01,1.224710792303085327e-01,-5.986468121409416199e-02,1.967286616563796997e-01,-1.305947005748748779e-01,-4.063883423805236816e-02,2.238950729370117188e-01,1.611688137054443359e-01,-9.328652173280715942e-02,3.455152036622166634e-03,2.028235942125320435e-01,-2.664981409907341003e-02,-5.633244663476943970e-02,-5.643849819898605347e-02,-1.512309759855270386e-01,5.516808107495307922e-02,-3.745912387967109680e-02,1.272308174520730972e-02,8.423452824354171753e-02,7.532216142863035202e-03,1.550598144531250000e-01,1.780313253402709961e-01,2.321391254663467407e-01,7.535491138696670532e-02,2.211087048053741455e-01,-1.305606663227081299e-01,1.360356062650680542e-01,1.576967686414718628e-01,7.384616881608963013e-02,7.561183720827102661e-02,1.243455521762371063e-02,-1.225652918219566345e-02
1.809795200824737549e-01,-4.889259487390518188e-02,-9.719354659318923950e-02,8.226458728313446045e-02,1.244934946298599243e-01,1.059601083397865295e-01,1.273503601551055908e-01,1.303796470165252686e-01,-2.288213185966014862e-02,1.728065311908721924e-01,1.805127263069152832e-01,-1.239301189780235291e-01,-9.525465965270996094e-02,-5.059615150094032288e-02,-3.915182873606681824e-02,3.149691969156265259e-02,1.480123102664947510e-01,7.710888981819152832e-02,3.673364222049713135e-02,6.792049854993820190e-02,-1.362063437700271606e-01,8.219590783119201660e-02,-2.222813107073307037e-02,-1.399218738079071045e-01,-6.801979988813400269e-02,8.328163623809814453e-02,1.261358112096786499e-01,2.016269862651824951e-01,1.625932008028030396e-01,1.131407264620065689e-02,9.049589931964874268e-02,-1.294358074665069580e-01,-3.739697113633155823e-02,1.041001603007316589e-01,-1.258411556482315063e-01,3.327887877821922302e-02,1.793154180049896240e-01,1.426191329956054688e-01,1.761275827884674072e-01,1.622895151376724243e-01,3.923202678561210632e-02,3.192233666777610779e-02,8.119159191846847534e-02,-6.630066037178039551e-02,-1.509415358304977417e-01,7.222722284495830536e-03,-1.675454527139663696e-01,-3.946103528141975403e-02,4.570640996098518372e-02,-9.698528796434402466e-02,-1.487575173377990723e-01,1.297353953123092651e-01,1.234301328659057617e-01,1.899436861276626587e-02,1.923769265413284302e-01,6.031355261802673340e-02,2.485355287790298462e-01,-1.454944312572479248e-01,1.930148303508758545e-01,-6.877858936786651611e-02,1.096358001232147217e-01,2.632460184395313263e-02,7.513979077339172363e-02,6.122115254402160645e-02
-1.878260076045989990e-01,-5.625730380415916443e-03,1.713324934244155884e-01,-1.769917458295822144e-01,6.021913141012191772e-02,5.172538384795188904e-02,1.630538552999496460e-01,-7.174169272184371948e-02,1.110081747174263000e-01,4.282065853476524353e-02,-5.757144838571548462e-02,5.566672608256340027e-02,-1.389401704072952271e-01,-6.245634332299232483e-02,-3.516671434044837952e-02,1.279553025960922241e-02,-1.867395043373107910e-01,-1.183906793594360352e-01,-1.320636868476867676e-01,1.649976894259452820e-02,-1.059664040803909302e-01,-5.790433287620544434e-02,1.632418483495712280e-01,5.072203930467367172e-03,8.927773684263229370e-03,7.226638961583375931e-03,1.108655612915754318e-02,-2.802914381027221680e-02,-1.204427406191825867e-01,-7.771251350641250610e-02,-2.155302017927169800e-01,-1.410606652498245239e-01,-6.153573282063007355e-03,1.115163788199424744e-01,1.290919184684753418e-01,-1.051337867975234985e-01,7.656654715538024902e-02,1.704695671796798706e-01,-2.486999146640300751e-02,1.825391799211502075e-01,2.403495013713836670e-01,-4.942820221185684204e-02,2.795549668371677399e-02,2.200231999158859253e-01,9.032215923070907593e-02,-7.594206929206848145e-02,-1.203076243400573730e-01,1.412442624568939209e-01,6.114270910620689392e-02,-2.730403281748294830e-02,1.552742570638656616e-01,-5.180210247635841370e-02,-4.568229615688323975e-02,8.012650161981582642e-02,3.661738336086273193e-02,8.548416197299957275e-02,4.592313617467880249e-02,2.288109511137008667e-01,5.645829439163208008e-02,-7.834716141223907471e-02,-5.379887670278549194e-02,1.091476455330848694e-01,-6.490278989076614380e-02,-3.033422492444515228e-02
7.851102948188781738e-02,-2.257765084505081177e-01,1.400537192821502686e-01,2.294541522860527039e-02,-7.428982108831405640e-02,-1.020374074578285217e-01,-1.373425871133804321e-01,1.117992587387561798e-02,-1.373895108699798584e-01,1.322323679924011230e-01,1.533630341291427612e-01,1.243852078914642334e-01,1.118883863091468811e-02,-4.160223528742790222e-03,-4.996581375598907471e-02,3.026195988059043884e-02,-4.852540418505668640e-02,1.473339051008224487e-01,1.626428812742233276e-01,1.157172396779060364e-02,2.342162728309631348e-01,-9.751277416944503784e-02,6.318057328462600708e-02,1.516474131494760513e-02,-1.511984616518020630e-01,1.900931298732757568e-01,-9.841053187847137451e-02,-1.298163682222366333e-01,1.171724796295166016e-01,9.362943470478057861e-03,9.746786206960678101e-02,1.948570460081100464e-01,-1.363455206155776978e-01,-2.155039161443710327e-01,6.058446317911148071e-02,6.111481413245201111e-02,4.654598981142044067e-02,7.798998057842254639e-02,1.932284422218799591e-02,1.503479629755020142e-01,-1.799677163362503052e-01,-1.888388395309448242e-01,4.048847407102584839e-02,-4.018392786383628845e-02,1.626480966806411743e-01,-2.457754611968994141e-01,-6.932447850704193115e-02,-1.792165338993072510e-01,-1.360394060611724854e-01,1.883212625980377197e-01,5.523025058209896088e-03,6.189035717397928238e-03,9.313469380140304565e-02,-4.389281198382377625e-02,-3.596215695142745972e-02,-8.640556782484054565e-02,3.978582322597503662e-01,-2.280206829309463501e-01,1.243366673588752747e-02,1.570029556751251221e-01,1.641769558191299438e-01,5.928765237331390381e-02,-7.823194563388824463e-02,6.005594506859779358e-02
-2.001263201236724854e-01,-1.238170266151428223e-01,-1.336788535118103027e-01,2.140752598643302917e-02,-1.273679584264755249e-01,3.903557080775499344e-03,6.761713325977325439e-02,-8.516303449869155884e-02,1.161286681890487671e-01,1.624355018138885498e-01,-1.293854117393493652e-01,2.905176021158695221e-02,9.834467619657516479e-02,-3.981046378612518311e-02,-1.587760001420974731e-01,1.767319440841674805e-01,1.176577806472778320e-01,-1.082254424691200256e-01,1.068606823682785034e-01,2.136491537094116211e-01,-3.931533545255661011e-02,2.075241506099700928e-01,-6.513276696205139160e-02,1.198460981249809265e-01,2.179710753262042999e-02,1.009538620710372925e-01,-1.132812649011611938e-01,-7.946002483367919922e-02,-2.135306969285011292e-02,1.243912652134895325e-01,-2.528339624404907227e-02,-2.100887894630432129e-01,1.357958838343620300e-02,2.682201862335205078e-01,8.349294960498809814e-02,4.021237790584564209e-02,-1.844129115343093872e-01,-1.800164729356765747e-01,-2.863582456484436989e-03,1.270669549703598022e-01,8.410828560590744019e-02,1.192580610513687134e-01,-5.940429493784904480e-02,-7.033313810825347900e-02,1.382475793361663818e-01,-3.732324391603469849e-02,-5.443624779582023621e-02,1.519244164228439331e-01,3.362697362899780273e-02,-1.150239706039428711e-01,5.439942330121994019e-02,2.232543379068374634e-02,9.656818583607673645e-03,3.860694915056228638e-02,1.136635243892669678e-01,-3.315895795822143555e-02,-7.278615236282348633e-02,4.108646139502525330e-02,6.287493556737899780e-02,1.252032071352005005e-01,-1.580925434827804565e-01,-2.962522208690643311e-02,-1.293510496616363525e-01,-2.788251824676990509e-02
-4.308486729860305786e-02,1.090198978781700134e-01,4.886695742607116699e-02,2.602263353765010834e-02,1.732488535344600677e-02,-1.206081956624984741e-01,-7.082776725292205811e-02,1.779808849096298218e-01,1.576278507709503174e-01,1.087070256471633911e-02,1.065696030855178833e-01,1.082848757505416870e-01,-9.952048957347869873e-02,-1.567285805940628052e-01,2.175961993634700775e-02,2.765695750713348389e-02,-3.612255677580833435e-02,1.310450434684753418e-01,1.176504939794540405e-01,1.926832050085067749e-01,8.947096765041351318e-02,-4.216123372316360474e-02,9.691496938467025757e-02,-3.747256845235824585e-02,-7.644341886043548584e-02,-9.099195152521133423e-02,-1.546310782432556152e-01,-3.567433729767799377e-02,-1.492073833942413330e-01,-2.675943775102496147e-03,6.330332905054092407e-02,1.267002075910568237e-01,8.478073030710220337e-02,-6.250044703483581543e-02,-1.198153272271156311e-01,1.916688382625579834e-01,1.056000366806983948e-01,-9.192556887865066528e-02,7.374922186136245728e-02,6.645829975605010986e-02,-1.051583811640739441e-01,-6.647142767906188965e-02,1.048369407653808594e-01,-8.502192795276641846e-02,-1.997094228863716125e-02,-1.638332498259842396e-03,-1.166928187012672424e-01,-6.517234444618225098e-02,7.035087049007415771e-02,-9.259773418307304382e-03,-3.626931831240653992e-02,1.725828647613525391e-01,1.376759260892868042e-01,5.431311950087547302e-02,-6.911543756723403931e-02,1.499123573303222656e-01,2.149550765752792358e-01,-1.131152808666229248e-01,6.203038245439529419e-02,-1.020249798893928528e-01,4.956397786736488342e-02,-5.026168748736381531e-02,1.167594268918037415e-01,2.242978811264038086e-01
1.170728579163551331e-01,1.036517173051834106e-01,3.188321366906166077e-02,-7.681214064359664917e-02,2.189104259014129639e-01,-7.997524738311767578e-02,-2.236786186695098877e-01,5.138281360268592834e-02,-2.398407906293869019e-01,1.309181898832321167e-01,5.533600598573684692e-02,-1.293383091688156128e-01,-5.843754857778549194e-02,1.379505842924118042e-01,-9.566911309957504272e-02,-1.524445116519927979e-01,2.735346555709838867e-01,1.886640191078186035e-01,-4.057337716221809387e-02,-5.481145530939102173e-02,-1.784970462322235107e-01,3.616839647293090820e-02,7.434200495481491089e-02,-1.063891574740409851e-01,8.384381979703903198e-02,-3.875995799899101257e-02,-4.128083586692810059e-02,7.925119251012802124e-02,-3.406966105103492737e-02,1.329164206981658936e-02,-1.312428340315818787e-02,2.152943015098571777e-01,1.757101267576217651e-01,-1.391361802816390991e-01,1.032172292470932007e-01,1.405837088823318481e-01,9.711696207523345947e-02,1.803168095648288727e-02,1.067239567637443542e-01,1.828466355800628662e-02,-1.053766459226608276e-01,1.964277029037475586e-01,1.583742648363113403e-01,-6.685595214366912842e-02,-5.004075821489095688e-03,9.847984462976455688e-02,-5.510048568248748779e-02,-1.945950984954833984e-01,-8.759761601686477661e-02,-1.245195865631103516e-01,-8.447633683681488037e-02,-1.068815290927886963e-01,-8.122056722640991211e-03,-1.009004712104797363e-01,2.355810105800628662e-01,-6.457719951868057251e-02,-2.603491768240928650e-02,-1.093040592968463898e-02,2.405667863786220551e-02,-2.128559947013854980e-01,2.309475839138031006e-01,2.376282662153244019e-01,1.394537985324859619e-01,-3.934466466307640076e-02
1.215035282075405121e-02,-8.926856517791748047e-02,1.681754291057586670e-01,-8.153379708528518677e-02,7.184755802154541016e-02,-1.255329102277755737e-01,-2.114506065845489502e-01,-3.897513449192047119e-02,-3.212508512660861015e-03,1.171705499291419983e-01,4.813228175044059753e-02,-3.073198313359171152e-04,-1.678928136825561523e-01,2.841917276382446289e-01,1.275710314512252808e-01,-6.642292439937591553e-02,2.687180340290069580e-01,2.474472373723983765e-01,-1.371686160564422607e-01,-1.591297388076782227e-01,-5.740174278616905212e-02,-8.165886998176574707e-02,2.686997354030609131e-01,2.580967247486114502e-01,8.777373284101486206e-02,1.759183257818222046e-01,2.434848099946975708e-01,2.916747927665710449e-01,-2.225735634565353394e-01,-1.114535257220268250e-01,-6.150010041892528534e-03,2.152100056409835815e-01,1.125734299421310425e-01,-3.688604533672332764e-01,-1.924273818731307983e-01,1.751283258199691772e-01,4.416898787021636963e-01,1.382956933230161667e-02,1.149158850312232971e-01,8.028981834650039673e-02,-1.596228033304214478e-01,1.390178054571151733e-01,1.740465015172958374e-01,-1.383606344461441040e-01,-7.015015929937362671e-02,-2.635886371135711670e-01,-5.238936841487884521e-02,-4.894882440567016602e-02,2.161969989538192749e-02,7.326147705316543579e-02,-8.814789354801177979e-02,7.391754537820816040e-02,7.919547706842422485e-02,-8.653780445456504822e-03,1.572394669055938721e-01,-2.236563339829444885e-02,3.934059441089630127e-01,-9.101854637265205383e-03,8.105733990669250488e-02,5.019639059901237488e-02,2.979975640773773193e-01,5.284695699810981750e-02,-1.019633188843727112e-01,-6.413004547357559204e-02
1.110015809535980225e-01,-2.813218235969543457e-01,-4.360267147421836853e-02,-2.061663009226322174e-02,2.340367808938026428e-02,9.180197864770889282e-02,1.668374091386795044e-01,4.205882549285888672e-02,-2.110882662236690521e-02,-5.343229696154594421e-02,2.555896043777465820e-01,8.909516036510467529e-03,-1.329799890518188477e-01,-1.808377355337142944e-02,2.532822787761688232e-01,-2.906367555260658264e-02,-5.765013024210929871e-02,-3.798199445009231567e-02,1.805618107318878174e-01,1.289800554513931274e-01,4.453332722187042236e-02,8.748659491539001465e-02,-1.297637522220611572e-01,-1.960294321179389954e-02,1.499764323234558105e-01,-1.541975140571594238e-01,-1.650533229112625122e-01,-1.935236006975173950e-01,-6.809529662132263184e-02,-1.442988365888595581e-01,-2.780827507376670837e-02,1.044662147760391235e-01,-1.660161018371582031e-01,-2.784639000892639160e-01,-2.207440286874771118e-01,1.546618640422821045e-01,-1.997888237237930298e-01,-2.234921324998140335e-03,2.027199566364288330e-01,-1.156663894653320312e-01,4.920032620429992676e-02,-2.705733776092529297e-01,-1.939344704151153564e-01,-1.617099940776824951e-01,1.701571643352508545e-01,3.474585711956024170e-02,1.195480003952980042e-01,-1.878722012042999268e-01,-2.971852123737335205e-01,4.810461774468421936e-02,2.385676950216293335e-01,1.296196430921554565e-01,-2.813524007797241211e-01,1.653274334967136383e-02,-2.802159264683723450e-02,-1.135425716638565063e-01,5.480384826660156250e-01,-2.342447638511657715e-01,-9.504612535238265991e-02,-7.816754281520843506e-02,7.511079311370849609e-02,4.848290700465440750e-03,-1.517158281058073044e-02,3.594436123967170715e-02
1.302434056997299194e-01,-3.793622180819511414e-02,3.253191709518432617e-02,2.695826999843120575e-02,5.540559813380241394e-02,-7.582961022853851318e-02,-9.796091914176940918e-02,6.242758780717849731e-02,2.327503263950347900e-01,2.766601927578449249e-02,1.684106886386871338e-01,7.412807084619998932e-03,8.425217866897583008e-02,1.303826272487640381e-01,6.985544413328170776e-02,4.859497025609016418e-02,1.432646811008453369e-01,2.181341871619224548e-03,6.460475176572799683e-02,9.356947988271713257e-02,1.052528172731399536e-01,-2.191662639379501343e-01,-1.339913159608840942e-01,5.946816876530647278e-02,3.248433582484722137e-03,-1.333486586809158325e-01,-2.014034390449523926e-01,-1.762995421886444092e-01,-2.271649893373250961e-03,2.513045910745859146e-04,-1.079416275024414062e-01,6.913034617900848389e-02,2.420911798253655434e-03,1.727617233991622925e-01,1.060871705412864685e-01,-1.438232809305191040e-01,1.120396926999092102e-01,2.300404161214828491e-01,1.801802366971969604e-01,1.317906081676483154e-01,-1.170244142413139343e-01,4.459783807396888733e-02,-2.060873061418533325e-01,-5.656782910227775574e-02,7.428114116191864014e-02,1.642629653215408325e-01,-1.271999627351760864e-01,-5.066952481865882874e-02,1.158179268240928650e-01,-1.632912643253803253e-02,-3.521215915679931641e-02,1.525754183530807495e-01,-2.080529183149337769e-01,-8.683650940656661987e-02,-2.372148931026458740e-01,1.082649454474449158e-02,1.804184317588806152e-01,-5.918030068278312683e-02,-4.265076667070388794e-02,-6.638771295547485352e-02,1.166453361511230469e-01,9.317342191934585571e-02,-5.974512919783592224e-02,-2.709930576384067535e-02
-3.641311824321746826e-02,-5.940095335245132446e-02,5.593884736299514771e-02,7.816709578037261963e-02,1.677502691745758057e-01,1.420770026743412018e-02,-1.868792995810508728e-02,1.381279677152633667e-01,-5.365079268813133240e-02,1.435872018337249756e-01,1.870158165693283081e-01,-1.322789192199707031e-01,9.696071594953536987e-02,1.772843003273010254e-01,2.087812870740890503e-01,3.613120317459106445e-02,1.773388534784317017e-01,2.013184726238250732e-01,-1.176015213131904602e-01,-1.411361992359161377e-01,-2.090425416827201843e-02,1.600950509309768677e-01,-6.532535422593355179e-03,-2.139368653297424316e-01,-9.421540051698684692e-02,-4.727192968130111694e-02,1.287767849862575531e-02,1.849593222141265869e-02,1.859601140022277832e-01,1.321904733777046204e-02,7.283366471529006958e-02,8.087395876646041870e-02,5.169215612113475800e-03,-1.921131759881973267e-01,-7.174134254455566406e-02,1.613236367702484131e-01,3.370932042598724365e-01,3.756501525640487671e-02,1.789544522762298584e-01,2.990415990352630615e-01,-1.580417603254318237e-01,8.541247807443141937e-03,2.006869018077850342e-01,1.399867385625839233e-01,2.932811155915260315e-02,-8.966068737208843231e-03,2.017717575654387474e-03,-1.499560922384262085e-01,-1.419593691825866699e-01,5.744102597236633301e-02,-2.948985667899250984e-03,-1.191478297114372253e-01,2.176886945962905884e-01,2.833270132541656494e-01,2.935886979103088379e-01,-6.257414817810058594e-02,2.162133529782295227e-02,3.248766064643859863e-03,-7.632258534431457520e-02,-1.618563532829284668e-01,-3.542627766728401184e-02,6.332408636808395386e-02,7.140167802572250366e-02,4.048164188861846924e-02
-8.397009223699569702e-02,4.465515539050102234e-02,-4.061666503548622131e-02,-1.023439541459083557e-01,1.047111898660659790e-01,9.527700953185558319e-03,8.692522346973419189e-02,-5.253683775663375854e-02,-9.506049007177352905e-02,-3.661120682954788208e-02,1.882696598768234253e-01,-3.598320484161376953e-02,-1.823780089616775513e-01,1.592245548963546753e-01,-3.302392363548278809e-02,6.082387641072273254e-02,-7.762447744607925415e-02,2.222944423556327820e-02,-7.427740097045898438e-02,-1.855083741247653961e-02,-1.603759080171585083e-01,5.959271639585494995e-02,1.183473244309425354e-01,-8.698309212923049927e-02,4.320925567299127579e-03,7.834307849407196045e-02,9.163740277290344238e-02,1.512977182865142822e-01,5.084361135959625244e-02,1.118720099329948425e-01,-1.302072405815124512e-02,-1.004038751125335693e-01,8.029931783676147461e-02,1.206151247024536133e-01,-9.052500128746032715e-02,1.178060099482536316e-01,-1.178275942802429199e-01,1.941110640764236450e-01,5.067744851112365723e-02,1.212867051362991333e-01,-3.091210685670375824e-02,1.562260389328002930e-01,1.531171649694442749e-01,2.067525982856750488e-01,2.674650587141513824e-02,-1.106871441006660461e-01,-1.425540298223495483e-01,-6.406531482934951782e-02,-1.326017826795578003e-01,9.855563938617706299e-02,-2.948985435068607330e-02,8.265835046768188477e-02,-2.074006758630275726e-02,1.571903973817825317e-01,-7.208272069692611694e-02,1.104601621627807617e-01,6.580227636732161045e-04,1.614851355552673340e-01,1.141000464558601379e-01,3.074772283434867859e-02,2.023938000202178955e-01,2.207757532596588135e-01,1.505792886018753052e-01,1.416934132575988770e-01
1.364376097917556763e-01,-5.603644996881484985e-02,-8.478287607431411743e-02,-1.090028285980224609e-01,-8.668154478073120117e-02,6.983413547277450562e-02,1.776357367634773254e-02,-7.276187837123870850e-02,-4.184187203645706177e-02,9.222289174795150757e-02,1.268884092569351196e-01,9.367994219064712524e-02,1.452186703681945801e-01,1.602487415075302124e-01,-1.395941078662872314e-01,8.400861173868179321e-02,1.115507781505584717e-01,1.044400781393051147e-01,6.065471097826957703e-02,7.532037794589996338e-02,1.241314038634300232e-01,1.610281169414520264e-01,1.285886615514755249e-01,7.479169964790344238e-02,-8.434903621673583984e-02,-2.617531828582286835e-02,9.430170804262161255e-02,1.998655349016189575e-01,-1.699344217777252197e-01,7.654066383838653564e-02,8.201709389686584473e-02,4.048512503504753113e-02,4.529109224677085876e-02,5.320629570633172989e-03,1.677592396736145020e-01,1.590752452611923218e-01,1.255720574408769608e-02,2.198225408792495728e-01,-1.100756824016571045e-01,-3.352708742022514343e-02,-1.466185152530670166e-01,-6.402867287397384644e-02,5.091815069317817688e-02,4.430494736880064011e-03,6.989534199237823486e-02,-8.206904679536819458e-02,2.721026167273521423e-02,9.643391519784927368e-02,1.839826256036758423e-01,9.943518042564392090e-02,-1.482818927615880966e-02,1.922181844711303711e-01,-1.044356077909469604e-01,-1.111766695976257324e-01,5.353858694434165955e-02,-1.782756857573986053e-02,3.769915178418159485e-02,2.123615890741348267e-02,-4.532431066036224365e-02,1.891167610883712769e-01,1.825131475925445557e-01,1.488985121250152588e-01,1.098759025335311890e-01,3.871018998324871063e-04
6.529979407787322998e-02,2.236786633729934692e-01,-1.269424259662628174e-01,-4.748763982206583023e-03,1.626482903957366943e-01,8.099154382944107056e-02,1.288009714335203171e-02,-1.283655464649200439e-01,1.158748567104339600e-01,-1.303069479763507843e-02,1.131760105490684509e-01,-2.644163323566317558e-03,-8.308847993612289429e-02,5.522460117936134338e-02,-1.760610789060592651e-01,-1.917925924062728882e-01,-6.724005937576293945e-02,3.326284140348434448e-02,3.147839009761810303e-02,7.026313990354537964e-02,-1.665781810879707336e-02,6.091497093439102173e-02,-1.922602765262126923e-02,1.292344629764556885e-01,-4.435269162058830261e-02,-1.822729036211967468e-02,-5.856413627043366432e-04,-8.764819800853729248e-02,2.671028301119804382e-02,1.864561811089515686e-02,-1.641384214162826538e-01,4.468955844640731812e-02,4.701449349522590637e-02,-7.261028885841369629e-02,-4.357819259166717529e-02,6.756735593080520630e-02,1.304883062839508057e-01,2.525818645954132080e-01,-2.314507588744163513e-02,2.493250556290149689e-02,-5.244562029838562012e-02,7.634099572896957397e-02,-1.542587727308273315e-01,-1.095040962100028992e-01,9.051113389432430267e-03,-4.723033681511878967e-02,1.480713933706283569e-01,-5.720828101038932800e-02,4.202985763549804688e-02,6.454532500356435776e-03,-5.753571540117263794e-02,-8.443433791399002075e-02,-2.490384504199028015e-02,-5.104430764913558960e-02,-1.668935120105743408e-01,3.521151095628738403e-02,-1.591690927743911743e-01,1.517375409603118896e-01,-9.664381295442581177e-02,-7.440323475748300552e-03,1.225717216730117798e-01,-1.334891617298126221e-01,-1.272699087858200073e-01,-1.071322709321975708e-01
1.537362188100814819e-01,-1.648645848035812378e-01,-1.218125745654106140e-01,1.415878534317016602e-01,-1.429732590913772583e-01,5.458552762866020203e-02,-1.030020490288734436e-01,2.332147806882858276e-01,-1.370654255151748657e-01,1.372224986553192139e-01,-6.680765748023986816e-02,1.796749085187911987e-01,1.513905376195907593e-01,6.576918065547943115e-02,-3.276868164539337158e-02,1.258702427148818970e-01,1.582286655902862549e-01,-9.605211019515991211e-02,1.990452706813812256e-01,4.681907594203948975e-02,4.403935745358467102e-02,-7.043593376874923706e-02,-9.499423205852508545e-02,1.228954643011093140e-01,3.528498485684394836e-02,-6.850896775722503662e-02,1.341076195240020752e-01,6.392664462327957153e-02,4.628195613622665405e-02,1.311315298080444336e-01,-1.125193014740943909e-01,5.113387107849121094e-02,-4.246293380856513977e-02,-1.795384734869003296e-01,-1.963171064853668213e-01,1.690553426742553711e-01,-1.076290979981422424e-01,-7.955006003612652421e-05,1.755547374486923218e-01,-1.117485761642456055e-01,5.515570938587188721e-02,-1.471968144178390503e-01,4.032698646187782288e-02,-1.455326098948717117e-02,8.971537649631500244e-02,-1.539008021354675293e-01,-1.269959956407546997e-01,-1.543177515268325806e-01,9.569288045167922974e-02,9.260960668325424194e-02,-5.909029394388198853e-02,1.043361704796552658e-02,-1.407179385423660278e-01,-1.219215467572212219e-01,1.004841774702072144e-01,1.083121746778488159e-01,3.102672994136810303e-01,-2.272458076477050781e-01,1.264009275473654270e-03,1.007291674613952637e-01,1.156718432903289795e-01,5.152958910912275314e-03,-1.248466074466705322e-01,-1.768866553902626038e-02
2.035456299781799316e-01,-5.890768021345138550e-02,1.150500867515802383e-02,-1.012315526604652405e-01,7.571350038051605225e-02,2.507198229432106018e-02,2.005894295871257782e-02,1.274486184120178223e-01,1.074343249201774597e-01,1.137464344501495361e-01,1.703995615243911743e-01,1.649613827466964722e-01,-5.618096888065338135e-02,1.017611026763916016e-01,-1.477142572402954102e-01,-3.174685314297676086e-02,-5.115034803748130798e-02,-8.567162603139877319e-02,-1.430809199810028076e-01,-1.034502908587455750e-01,9.621426463127136230e-02,-1.098089963197708130e-01,6.707046180963516235e-02,1.776979416608810425e-01,-9.214673936367034912e-02,1.970622688531875610e-01,9.800699353218078613e-02,2.533409893512725830e-01,-3.234444186091423035e-02,-1.275893896818161011e-01,1.182855442166328430e-01,1.431032717227935791e-01,6.659501045942306519e-02,1.397591531276702881e-01,1.176124289631843567e-01,1.539084613323211670e-01,1.514003574848175049e-01,-6.769523024559020996e-02,-6.302669644355773926e-02,1.430580466985702515e-01,-4.941390082240104675e-02,-9.634169191122055054e-02,1.276894509792327881e-01,1.542842835187911987e-01,1.435067504644393921e-01,-1.858823150396347046e-01,-1.247145701199769974e-02,1.506967693567276001e-01,-1.258168816566467285e-01,-5.860941112041473389e-02,1.717922836542129517e-01,1.824044138193130493e-01,5.114977061748504639e-02,2.179126590490341187e-01,-4.467037972062826157e-03,-9.170629829168319702e-02,5.534114688634872437e-02,-1.131323426961898804e-01,-5.296497419476509094e-02,8.768230676651000977e-02,-1.091122627258300781e-01,2.174550443887710571e-01,-1.168557778000831604e-01,1.883654855191707611e-02
3.012813627719879150e-02,2.511145174503326416e-01,7.320180535316467285e-02,1.411835998296737671e-01,1.977142840623855591e-01,2.162166126072406769e-02,-5.573209375143051147e-02,6.713275611400604248e-02,-1.243847385048866272e-01,7.767497748136520386e-02,-8.566032350063323975e-02,1.399587094783782959e-01,-9.949950128793716431e-02,2.308911830186843872e-01,7.127941399812698364e-02,1.559353321790695190e-01,1.286531537771224976e-01,4.963425453752279282e-03,1.252672523260116577e-01,-1.920028589665889740e-02,1.019285023212432861e-01,1.218915060162544250e-01,1.853320449590682983e-01,9.706770628690719604e-02,-5.036646872758865356e-02,1.599351763725280762e-01,-3.924048319458961487e-02,9.499924629926681519e-02,-1.091386228799819946e-01,-2.271831035614013672e-02,-1.789460331201553345e-01,2.322265356779098511e-01,7.357789576053619385e-02,-8.169227093458175659e-02,-3.257318213582038879e-02,-7.864880561828613281e-02,4.518714919686317444e-02,2.400749623775482178e-01,-2.089426964521408081e-01,5.628886073827743530e-02,5.880977213382720947e-02,-4.026737436652183533e-02,1.790275126695632935e-01,1.052605956792831421e-01,9.168022871017456055e-02,2.873251773416996002e-02,7.258082181215286255e-02,1.470370441675186157e-01,-4.270197451114654541e-02,-6.312545388936996460e-02,1.139928624033927917e-01,2.090086787939071655e-02,1.805783659219741821e-01,8.217777311801910400e-02,4.749153554439544678e-02,2.828004211187362671e-02,9.064256399869918823e-02,3.334797173738479614e-02,8.209580928087234497e-02,4.177378863096237183e-02,1.603859663009643555e-01,-4.835999757051467896e-02,-1.478945463895797729e-01,-2.630016021430492401e-02
2.577389180660247803e-01,3.109792768955230713e-01,-8.355243504047393799e-02,-1.251011528074741364e-02,1.685894578695297241e-01,1.602673828601837158e-01,-8.860884606838226318e-02,-1.766685694456100464e-01,1.450292319059371948e-01,-2.788485959172248840e-02,8.942056447267532349e-03,-9.907803684473037720e-02,-1.067679654806852341e-02,-4.965829476714134216e-02,-1.308055222034454346e-01,-1.683091558516025543e-02,-6.208620592951774597e-02,-2.744669616222381592e-01,4.335764050483703613e-02,2.097464650869369507e-01,5.748978257179260254e-02,-1.805741041898727417e-01,8.602782338857650757e-02,2.251652330160140991e-01,-1.778916865587234497e-01,4.831852391362190247e-02,2.368097603321075439e-01,-6.535566598176956177e-02,-3.786677867174148560e-02,1.208063811063766479e-01,1.332766860723495483e-01,3.230302408337593079e-02,1.046164706349372864e-01,1.816835999488830566e-01,2.076134830713272095e-01,2.409243956208229065e-02,4.919933900237083435e-02,4.218627884984016418e-02,-2.596491873264312744e-01,-2.696019411087036133e-01,1.015590429306030273e-01,1.665554344654083252e-01,-1.432278007268905640e-01,1.258481144905090332e-01,2.116812765598297119e-01,2.961871773004531860e-02,2.324003959074616432e-03,7.931687869131565094e-03,1.466701328754425049e-01,-1.171945687383413315e-02,1.142474412918090820e-01,-4.620918259024620056e-02,1.257751882076263428e-01,-1.780225783586502075e-01,6.221825629472732544e-02,3.429410979151725769e-02,-3.873817026615142822e-01,-2.197970263659954071e-02,4.146081581711769104e-02,2.181762307882308960e-01,-4.316980019211769104e-02,-2.175749093294143677e-01,1.077533140778541565e-01,-3.000191040337085724e-02
1.278760433197021484e-01,-4.283043369650840759e-02,1.094721704721450806e-01,-5.342777073383331299e-02,-4.557532444596290588e-02,8.325798064470291138e-02,1.149733960628509521e-01,-5.781323835253715515e-02,2.155641280114650726e-02,4.494301229715347290e-02,4.713603481650352478e-02,1.185817122459411621e-01,-1.584493666887283325e-01,-8.865695446729660034e-02,-6.202867254614830017e-02,4.003600031137466431e-02,1.455665975809097290e-01,2.482796832919120789e-02,3.921862319111824036e-02,1.832220107316970825e-01,-9.590324759483337402e-02,1.146696358919143677e-01,9.485396742820739746e-02,3.440929204225540161e-02,1.507761329412460327e-01,-5.692331120371818542e-02,4.358262196183204651e-02,-1.086549982428550720e-01,1.816976517438888550e-01,2.325527748325839639e-04,-1.174440681934356689e-01,-5.575039237737655640e-02,6.285829097032546997e-02,1.725042909383773804e-01,1.654031723737716675e-01,-4.415141418576240540e-02,-3.642373159527778625e-02,-8.466670662164688110e-02,1.519413441419601440e-01,1.699015945196151733e-01,1.746842563152313232e-01,-5.180866271257400513e-02,-1.358166709542274475e-02,-9.831690788269042969e-02,6.370612233877182007e-02,1.748075783252716064e-01,4.337286576628684998e-02,5.057361442595720291e-03,4.480207711458206177e-02,7.012899219989776611e-02,-7.180562708526849747e-03,1.069893911480903625e-01,1.927478052675724030e-02,3.097556903958320618e-02,1.429606080055236816e-01,1.356094479560852051e-01,9.207174926996231079e-02,3.221737593412399292e-02,-1.173135489225387573e-01,5.405648797750473022e-02,2.872756868600845337e-02,1.100094169378280640e-01,6.909816712141036987e-02,1.257682889699935913e-01
5.367916822433471680e-02,-7.891676574945449829e-02,-8.223198354244232178e-02,-1.258732825517654419e-01,8.096436411142349243e-02,-9.626615047454833984e-02,8.044149726629257202e-02,-7.616489380598068237e-02,2.184759676456451416e-01,4.160916805267333984e-02,-9.090531617403030396e-02,9.602939244359731674e-04,6.107304990291595459e-02,7.126279640942811966e-03,-1.136913225054740906e-01,6.411474198102951050e-02,-5.324395373463630676e-02,2.613651752471923828e-02,1.511947363615036011e-01,-7.202617079019546509e-02,1.381410956382751465e-01,-7.020232826471328735e-02,-2.731561474502086639e-02,5.309753865003585815e-02,-1.575848311185836792e-01,-4.652973636984825134e-02,-9.173741936683654785e-02,4.887102404609322548e-04,-2.229343913495540619e-02,1.847359836101531982e-01,-1.346671730279922485e-01,-1.478683017194271088e-02,-4.305877164006233215e-02,2.531541287899017334e-01,4.849422350525856018e-02,-9.262900054454803467e-02,1.460701227188110352e-01,-1.811187528073787689e-02,3.147107735276222229e-02,-1.667772531509399414e-01,-6.199425458908081055e-02,6.959357112646102905e-02,-9.278761595487594604e-02,1.299821585416793823e-01,-9.482697397470474243e-02,-1.679393202066421509e-01,-7.354619354009628296e-02,1.771557480096817017e-01,1.930916309356689453e-01,-2.074164710938930511e-02,-8.527941256761550903e-02,1.886632591485977173e-01,-1.216142773628234863e-01,-2.638389356434345245e-02,1.607393324375152588e-01,-4.708222672343254089e-02,1.121110767126083374e-01,-1.134805828332901001e-01,4.371911659836769104e-02,-1.070113331079483032e-01,-8.140379190444946289e-02,2.009759992361068726e-01,-1.095054224133491516e-01,1.639029234647750854e-01
1.837854385375976562e-01,6.433520466089248657e-02,-4.303798079490661621e-02,-1.809287518262863159e-01,1.820826083421707153e-01,5.401627719402313232e-02,-1.953769475221633911e-02,-1.536218076944351196e-01,-7.844367623329162598e-02,-3.456611186265945435e-02,9.191749244928359985e-02,-1.237950101494789124e-01,-1.504021286964416504e-01,1.020972058176994324e-01,-1.311180591583251953e-01,6.866002827882766724e-02,-2.679179050028324127e-02,5.824119225144386292e-02,-1.472458541393280029e-01,1.490729302167892456e-01,-1.820417642593383789e-01,1.343246363103389740e-02,-7.585594058036804199e-02,2.248701304197311401e-01,-2.403701283037662506e-02,-4.119573161005973816e-03,1.894577145576477051e-01,-5.841574817895889282e-02,-1.559754759073257446e-01,1.200894415378570557e-01,5.952445417642593384e-02,4.992966726422309875e-02,1.051072180271148682e-01,-8.594617992639541626e-02,-8.201771974563598633e-02,1.892844885587692261e-01,1.212812215089797974e-01,2.316675484180450439e-01,-6.914100795984268188e-02,-1.488719508051872253e-02,1.725326329469680786e-01,7.332735508680343628e-02,-5.840727686882019043e-02,-1.076592057943344116e-01,-3.167765587568283081e-02,5.717300344258546829e-03,1.843027621507644653e-01,1.280094385147094727e-01,9.985469281673431396e-02,1.159318014979362488e-01,1.546908468008041382e-01,-2.965540811419487000e-02,1.658935397863388062e-01,-2.243360877037048340e-02,1.551167666912078857e-01,5.841448437422513962e-03,5.781292170286178589e-02,-7.945495098829269409e-02,4.854183644056320190e-02,-3.101303614675998688e-02,-5.406806617975234985e-02,-4.219168424606323242e-02,-2.904340997338294983e-02,-1.056166738271713257e-01
-7.853733748197555542e-02,-3.231161832809448242e-01,2.194545567035675049e-01,8.893262594938278198e-02,4.310008510947227478e-02,7.375157438218593597e-03,1.537767499685287476e-01,-1.501764357089996338e-01,-3.842240944504737854e-02,-9.201953560113906860e-02,-6.289684213697910309e-03,-5.097826942801475525e-02,1.265654414892196655e-01,-2.440267801284790039e-02,6.054561212658882141e-02,-3.492980450391769409e-02,-7.785234600305557251e-02,-2.961765415966510773e-02,9.190787561237812042e-03,-1.549851801246404648e-02,1.616757214069366455e-01,1.342103034257888794e-01,4.019702225923538208e-02,-1.907434165477752686e-01,-4.368029162287712097e-02,1.366159915924072266e-01,-1.528758108615875244e-01,-1.545010805130004883e-01,-2.519471384584903717e-02,-8.708900958299636841e-02,2.957630902528762817e-02,-2.241140604019165039e-01,-1.505063921213150024e-01,-2.540882825851440430e-01,4.687836021184921265e-02,1.498550362884998322e-02,-1.543792039155960083e-01,-4.620636627078056335e-02,4.175962880253791809e-03,-7.543332874774932861e-02,-7.673446834087371826e-02,-1.226074621081352234e-01,4.709270223975181580e-02,1.980992555618286133e-01,-4.663351178169250488e-02,-9.095369279384613037e-02,1.252559721469879150e-01,1.531134098768234253e-01,5.202013533562421799e-03,1.275277882814407349e-01,-1.578651019372045994e-03,3.020590357482433319e-02,-1.009571552276611328e-01,-2.020459324121475220e-01,-2.779214084148406982e-02,2.053151428699493408e-01,-1.978809013962745667e-03,9.461945295333862305e-02,-2.258479967713356018e-02,-1.057814881205558777e-01,-7.142876088619232178e-02,-1.757057607173919678e-01,1.647534668445587158e-01,-2.769916877150535583e-02
-7.800177484750747681e-02,-1.117712557315826416e-01,4.978920519351959229e-02,-1.477178931236267090e-01,1.069878861308097839e-01,9.452891349792480469e-02,-1.266384273767471313e-01,7.561978697776794434e-02,-1.998783349990844727e-01,1.460052877664566040e-01,2.029998600482940674e-01,9.015950560569763184e-02,1.399126648902893066e-01,9.711380302906036377e-02,6.837977468967437744e-02,-1.786641180515289307e-01,9.580231457948684692e-02,1.416430175304412842e-01,-1.745922267436981201e-01,-1.523409336805343628e-01,-2.232090979814529419e-01,6.837499141693115234e-02,1.361341327428817749e-01,-8.350400626659393311e-02,-9.052585065364837646e-02,2.221965342760086060e-01,4.182595014572143555e-02,2.218003869056701660e-01,-2.791462000459432602e-03,1.760998964309692383e-01,2.675696648657321930e-02,1.369492262601852417e-01,-2.809018362313508987e-03,-1.248502731323242188e-01,-2.385624200105667114e-01,3.392640948295593262e-01,1.647231876850128174e-01,-5.213962122797966003e-02,1.950830570422112942e-03,1.422887146472930908e-01,-1.591337770223617554e-01,6.958488374948501587e-02,1.616390794515609741e-01,-2.418773993849754333e-02,-2.514298856258392334e-01,-8.686632663011550903e-02,-1.157790347933769226e-01,-6.820781528949737549e-02,-1.422446966171264648e-01,-3.401894122362136841e-02,-2.246440500020980835e-01,-1.978763937950134277e-01,8.616923354566097260e-03,9.367515146732330322e-02,-1.548754889518022537e-02,-1.988595277070999146e-01,2.470538616180419922e-01,-1.004706546664237976e-01,-9.801386296749114990e-02,-1.711225360631942749e-01,1.605340242385864258e-01,2.709515690803527832e-01,1.217316314578056335e-01,-1.724925637245178223e-01
-3.275341540575027466e-02,1.078730300068855286e-01,1.652987003326416016e-01,-1.377746462821960449e-02,5.634694825857877731e-03,-3.815295547246932983e-02,6.058299914002418518e-02,1.698775887489318848e-01,1.036730259656906128e-01,1.518352329730987549e-01,-5.696833506226539612e-02,-1.272849440574645996e-01,3.618660569190979004e-02,2.170467972755432129e-01,7.843757420778274536e-02,2.045190148055553436e-02,-1.286751776933670044e-01,1.508531272411346436e-01,-3.284960612654685974e-02,-4.892709106206893921e-02,-7.133916020393371582e-02,8.853889256715774536e-02,1.761646270751953125e-01,1.347731798887252808e-01,-1.038001105189323425e-01,6.779681891202926636e-02,5.991004779934883118e-02,1.304704993963241577e-01,5.050650238990783691e-02,-5.479519814252853394e-02,-2.078260295093059540e-03,1.288590580224990845e-01,-1.486344933509826660e-01,1.150899752974510193e-01,-1.054367125034332275e-01,-2.282816730439662933e-02,1.236621886491775513e-01,1.283344328403472900e-01,1.509237885475158691e-01,1.560656726360321045e-01,1.942276805639266968e-01,1.453444361686706543e-01,8.661336451768875122e-02,2.157115042209625244e-01,4.068723693490028381e-02,1.904231458902359009e-01,2.154790982604026794e-02,-5.447993986308574677e-03,1.074941605329513550e-01,-2.322886437177658081e-01,1.369443833827972412e-01,-1.822989284992218018e-01,1.699615120887756348e-01,-3.268931433558464050e-02,-2.618890069425106049e-02,4.395201802253723145e-02,-1.678973585367202759e-01,-8.433007169514894485e-04,-1.233817860484123230e-01,-5.632481724023818970e-02,7.565423101186752319e-02,-1.010558083653450012e-01,-1.027371827512979507e-02,-1.052624434232711792e-01
8.309374004602432251e-02,6.933074444532394409e-02,2.020842581987380981e-01,-5.224604159593582153e-02,1.335914880037307739e-01,6.184520572423934937e-02,-6.997065991163253784e-02,-4.201107099652290344e-02,1.318731755018234253e-01,-2.474457025527954102e-02,4.745601117610931396e-02,4.796709865331649780e-02,-2.585025876760482788e-02,1.766959279775619507e-01,6.935884058475494385e-02,1.403865963220596313e-01,2.019510120153427124e-01,7.804783433675765991e-02,-5.885444208979606628e-02,1.638022214174270630e-01,2.597476914525032043e-02,5.565868318080902100e-02,-1.008922681212425232e-01,1.537621319293975830e-01,6.802180409431457520e-02,1.351827085018157959e-01,1.369109153747558594e-01,2.907461114227771759e-02,1.115102842450141907e-01,-1.483741700649261475e-01,-1.729797571897506714e-01,8.798356354236602783e-02,6.735923141241073608e-02,7.917455583810806274e-02,-4.051554948091506958e-02,2.243750244379043579e-01,1.011289805173873901e-01,7.163304835557937622e-02,-9.186323732137680054e-02,2.812129631638526917e-02,1.139780282974243164e-01,-1.242837235331535339e-01,3.064737096428871155e-02,6.172016263008117676e-02,8.137104660272598267e-02,1.891296356916427612e-01,1.495391363278031349e-03,-1.149327531456947327e-01,8.982339501380920410e-02,-5.941075086593627930e-02,1.322433203458786011e-01,-6.653558462858200073e-02,3.543436154723167419e-02,-1.445761322975158691e-01,6.784141063690185547e-02,-7.491171360015869141e-02,1.402787957340478897e-02,-5.248485133051872253e-02,-1.281419545412063599e-01,-1.440143585205078125e-01,1.173503547906875610e-01,1.051843315362930298e-01,-4.648789763450622559e-03,1.664505153894424438e-01
-1.310862042009830475e-02,4.309592768549919128e-02,-1.469264775514602661e-01,3.793833032250404358e-02,-1.053707897663116455e-01,2.321365661919116974e-02,-1.031951755285263062e-01,-3.874619305133819580e-02,2.422135556116700172e-03,6.776628643274307251e-02,-1.630738563835620880e-02,1.881797909736633301e-01,3.812180459499359131e-02,-1.479295827448368073e-02,1.364588588476181030e-01,-4.613638296723365784e-02,8.406662195920944214e-02,9.176176041364669800e-02,-3.171411901712417603e-02,-1.228208988904953003e-01,9.150473028421401978e-02,-3.822665661573410034e-02,-4.969672486186027527e-02,-2.417686432600021362e-01,3.416527807712554932e-02,-7.106892019510269165e-02,-1.474053971469402313e-02,1.366096436977386475e-01,1.055610552430152893e-01,-1.044035032391548157e-01,-1.383672468364238739e-02,-1.285592764616012573e-01,-8.823779225349426270e-02,-3.173772990703582764e-01,-7.154784351587295532e-02,5.916857346892356873e-02,9.217298775911331177e-02,3.414152562618255615e-02,2.076519839465618134e-02,2.018389105796813965e-01,1.761692203581333160e-02,-5.796006321907043457e-02,6.786333024501800537e-02,1.374967247247695923e-01,-4.482338204979896545e-02,9.659987688064575195e-02,1.360606309026479721e-02,1.129267737269401550e-01,-7.990662008523941040e-02,1.544614285230636597e-01,1.954582519829273224e-02,1.788687855005264282e-01,8.061432093381881714e-02,-1.672067493200302124e-01,1.681037396192550659e-01,9.487283229827880859e-02,1.871249675750732422e-01,-1.276926323771476746e-02,1.227462738752365112e-01,-1.106364950537681580e-01,-5.431198701262474060e-02,2.334088981151580811e-01,1.508703082799911499e-02,-4.377191513776779175e-02
-1.618751287460327148e-01,-5.762568209320306778e-03,8.200048655271530151e-02,-1.109189689159393311e-01,4.882177710533142090e-02,-1.396418064832687378e-01,-1.206054091453552246e-01,2.969537395983934402e-03,-3.928497433662414551e-02,-5.370141938328742981e-03,1.395942568778991699e-01,1.357118785381317139e-01,-1.724242866039276123e-01,6.396943330764770508e-02,-4.944265633821487427e-02,-1.422036439180374146e-01,-1.028307601809501648e-01,8.718276023864746094e-02,-9.884697943925857544e-02,-1.120945960283279419e-01,-4.769361764192581177e-02,-4.960440099239349365e-02,-6.304626166820526123e-02,-9.397362917661666870e-02,9.903295338153839111e-02,-6.819671392440795898e-02,6.124629825353622437e-02,1.002802625298500061e-01,5.565393948927521706e-04,-5.881975963711738586e-02,-1.212447648867964745e-03,-1.608393937349319458e-01,9.183441102504730225e-02,8.358088135719299316e-02,-4.941556975245475769e-02,5.262229964137077332e-02,-1.510611455887556076e-02,-7.892238348722457886e-02,-1.625353246927261353e-01,2.920839237049221992e-03,7.955453544855117798e-02,-6.510500609874725342e-02,-1.268204301595687866e-01,8.953323960304260254e-02,-1.473014336079359055e-02,2.427007704973220825e-01,-3.707368299365043640e-02,1.232879087328910828e-01,5.063501745462417603e-02,-1.000268459320068359e-01,-2.656286209821701050e-02,-1.128713972866535187e-02,1.549728065729141235e-01,2.403552876785397530e-03,-5.877904221415519714e-02,1.184654310345649719e-01,-1.246077120304107666e-01,9.059242904186248779e-02,-1.387333720922470093e-01,1.950473189353942871e-01,4.550370946526527405e-02,-1.461462974548339844e-01,-1.820540428161621094e-01,-1.551308333873748779e-01
-1.454614251852035522e-01,-9.453580714762210846e-03,1.422906219959259033e-01,2.077091298997402191e-02,8.858807384967803955e-02,2.625406533479690552e-02,2.486259341239929199e-01,-2.287146449089050293e-02,-8.132303506135940552e-02,1.593253761529922485e-02,1.656050682067871094e-01,-9.443904459476470947e-02,-1.815489083528518677e-01,7.056881487369537354e-02,2.329839915037155151e-01,6.802215427160263062e-02,1.417409777641296387e-01,1.417579501867294312e-01,-1.081497147679328918e-01,1.306916624307632446e-01,-1.303754448890686035e-01,-1.981564797461032867e-02,-2.530145347118377686e-01,2.261620387434959412e-02,-1.435182690620422363e-01,-7.135389000177383423e-02,3.008315339684486389e-02,-4.487676545977592468e-02,9.320621192455291748e-02,1.602013409137725830e-01,-5.752574279904365540e-02,7.411024719476699829e-02,-1.436040699481964111e-01,7.531177997589111328e-02,-2.538992166519165039e-01,1.172133535146713257e-01,1.316775977611541748e-01,-1.304715871810913086e-01,4.316876456141471863e-02,-5.140073969960212708e-02,-8.174895495176315308e-02,-1.959568858146667480e-01,-1.215465813875198364e-01,1.514088809490203857e-01,-5.493180453777313232e-02,-1.135520786046981812e-01,-1.169884726405143738e-01,1.471372842788696289e-01,-2.313015013933181763e-01,2.832790613174438477e-01,-3.201012499630451202e-03,1.531791524030268192e-03,-1.554015129804611206e-01,8.862547576427459717e-02,8.748866617679595947e-02,-6.443157792091369629e-02,-2.163045704364776611e-01,1.200353205204010010e-01,2.270410582423210144e-02,2.386425156146287918e-03,6.553570181131362915e-02,-9.201071411371231079e-02,-5.366570875048637390e-02,-1.151087135076522827e-02
1.530280560255050659e-01,3.926495462656021118e-02,7.215458899736404419e-02,-1.276161521673202515e-01,-1.674949526786804199e-01,-1.678376644849777222e-02,-8.360105007886886597e-02,1.006106287240982056e-01,2.236725538969039917e-01,-1.314121782779693604e-01,-1.457138210535049438e-01,-1.313634663820266724e-01,-1.397632807493209839e-01,-9.619300067424774170e-02,-1.856474578380584717e-01,-8.648865669965744019e-02,-4.649277031421661377e-02,-1.329115591943264008e-03,-1.025204546749591827e-03,-1.692152023315429688e-01,-2.035978250205516815e-02,-1.195185706019401550e-01,1.660600453615188599e-01,3.557496890425682068e-02,1.868660561740398407e-02,9.001433849334716797e-02,-7.090663164854049683e-02,-2.619325369596481323e-02,-2.147901244461536407e-02,1.286869496107101440e-01,7.431603223085403442e-02,5.086933076381683350e-02,3.867445141077041626e-02,2.124859541654586792e-01,-1.269121617078781128e-01,-1.060069948434829712e-01,-3.609487041831016541e-02,4.756262153387069702e-02,4.660249501466751099e-02,1.449044346809387207e-01,1.695406585931777954e-01,1.879485696554183960e-01,1.787818595767021179e-02,6.038777646608650684e-04,-1.236488148570060730e-01,-1.626116335391998291e-01,3.426980972290039062e-02,4.488615319132804871e-02,-8.862242847681045532e-02,5.949749425053596497e-02,1.263375729322433472e-01,2.075681388378143311e-01,1.020919159054756165e-01,8.065089583396911621e-02,-5.925450474023818970e-02,-1.712657064199447632e-01,1.833408474922180176e-01,1.038731634616851807e-01,-7.222452759742736816e-02,1.158655956387519836e-01,-8.735044300556182861e-02,2.339736670255661011e-01,-1.347949951887130737e-01,-8.535860106348991394e-03
-7.999835908412933350e-02,1.519309878349304199e-01,-1.361952256411314011e-02,-8.523692935705184937e-02,-3.022607648745179176e-03,-1.544963195919990540e-02,1.625081747770309448e-01,4.577516391873359680e-02,-1.391383260488510132e-01,8.225310593843460083e-02,5.194259807467460632e-02,6.837660819292068481e-02,-1.445392966270446777e-01,9.623665362596511841e-02,9.078361839056015015e-02,1.056793406605720520e-01,-1.515771448612213135e-01,-1.102661713957786560e-02,3.517571836709976196e-02,-8.046619594097137451e-02,-1.958785802125930786e-01,1.491658985614776611e-01,6.403174996376037598e-02,1.390981022268533707e-02,-1.378485113382339478e-01,-1.248561441898345947e-01,1.679886877536773682e-01,-1.414497196674346924e-01,-8.793275803327560425e-02,1.246776133775711060e-01,7.698611170053482056e-02,-1.343596875667572021e-01,6.667504459619522095e-02,-2.363755367696285248e-02,1.625693887472152710e-01,-7.066650688648223877e-02,2.431793659925460815e-01,1.605375856161117554e-01,3.401232883334159851e-02,-7.280830293893814087e-02,1.594921946525573730e-01,1.218767017126083374e-01,5.364367738366127014e-02,6.328009068965911865e-02,1.330530643463134766e-01,3.635869920253753662e-02,-1.461149007081985474e-01,1.404213309288024902e-01,2.182732522487640381e-02,1.268617250025272369e-02,3.984398767352104187e-02,-1.170295700430870056e-01,3.622574731707572937e-02,-1.310108900070190430e-01,6.047212518751621246e-04,1.686992943286895752e-01,-6.431441754102706909e-02,1.070447713136672974e-01,1.059296950697898865e-01,5.291921645402908325e-02,-4.622080177068710327e-02,1.259471029043197632e-01,-8.072891086339950562e-02,-8.802670985460281372e-02
-8.693418651819229126e-02,-3.950643166899681091e-02,7.829594612121582031e-02,7.123866677284240723e-02,1.953518092632293701e-01,7.601694762706756592e-02,-2.447721734642982483e-02,1.572529822587966919e-01,2.252966612577438354e-01,1.938872933387756348e-01,5.010664835572242737e-02,-5.871663987636566162e-02,-1.002963259816169739e-01,-5.781346186995506287e-02,-1.870681047439575195e-01,1.107706055045127869e-01,-1.283602118492126465e-01,-1.616513431072235107e-01,9.625037200748920441e-03,9.536118246614933014e-03,-3.529959544539451599e-02,1.297223567962646484e-01,2.244819253683090210e-01,5.388506129384040833e-02,1.566473096609115601e-01,1.414261162281036377e-01,-5.889069661498069763e-02,5.406074598431587219e-02,-1.604833453893661499e-01,-1.576522178947925568e-02,2.193599492311477661e-01,9.827071428298950195e-02,1.296746283769607544e-01,8.798581361770629883e-02,1.504960954189300537e-01,9.426717460155487061e-02,2.664559520781040192e-02,-6.795588880777359009e-02,-8.275373280048370361e-02,3.455537930130958557e-02,7.942117005586624146e-02,1.168216615915298462e-01,1.414823383092880249e-01,-1.179147046059370041e-02,1.342703253030776978e-01,1.798108965158462524e-01,-7.975557446479797363e-02,-3.939833864569664001e-02,-2.607509307563304901e-02,-1.737508364021778107e-02,4.658192023634910583e-02,-1.225706860423088074e-01,1.946232914924621582e-01,-1.585749089717864990e-01,7.355765253305435181e-02,-9.598329663276672363e-02,2.081643491983413696e-01,-9.345525503158569336e-02,-9.987147897481918335e-02,1.588993966579437256e-01,-1.658119410276412964e-01,-2.129159867763519287e-02,-7.796682417392730713e-02,-4.953217506408691406e-02
